tree
version=v2
num_class=1
num_tree_per_iteration=1
label_index=0
max_feature_idx=53
objective=binary sigmoid:1
feature_names=n_1 c_02 c_01 c_table_1.c_1 c_table_1.c_2 n_table_1.n_1 n_table_1.n_2 c_table_1.c_3 c_table_1.c_4 c_table_1.c_5 n_table_1.n_3 n_table_1.n_5 n_table_1.n_6 n_table_1.n_7 n_table_1.n_8 n_table_1.n_9 n_table_1.n_10 n_table_1.n_11 n_table_1.n_12 n_table_1.n_15 n_table_1.n_16 n_table_1.n_17 n_table_1.n_18 n_table_1.n_19 n_table_1.n_20 n_table_1.n_25 n_table_1.n_26 n_table_1.n_27 c_table_2.c_1 c_table_2.c_2 n_table_2.n_1 n_table_2.n_2 c_table_2.c_3 c_table_2.c_4 c_table_2.c_5 n_table_2.n_3 c_table_2.c_6 n_table_2.n_5 n_table_2.n_6 n_table_2.n_7 n_table_2.n_8 n_table_2.n_9 n_table_2.n_10 n_table_2.n_11 n_table_2.n_12 n_table_2.n_13 n_table_2.n_14 n_table_3.n_1 n_table_3.n_2 n_table_3.n_3 n_table_3.n_4 n_table_3.n_5 n_table_3.n_6 n_table_3.n_7
feature_infos=[1:335.5] 45:251:29:25:6:315:3:94:16:204:361:12:266:31:242:307:389:28:17:240:147:327:52:208:281:116:238:0:155:239:289:100:5:81:90:241:98:231:369:7:115:162:337:449:246:370:49:143:33:124:270:15:46:59:248:272:301:442:26:37:41:61:78:259:317:373:382:548:34:157:348:38:55:151:300:459:21:70:117:161:186:250:267:27:39:97:118:182:221:287:376:48:63:141:164:219:265:375:411:525:20:93:156:197:244:309:367:374:452:473:482:1:73:153:163:165:284:350:388:410:19:22:23:36:50:65:68:75:140:179:183:283:291:295:319:445:9:40:47:96:139:172:235:255:324:2:30:35:44:102:128:178:199:286:297:302:325:351:357:386:439:444:24:79:82:113:205:212:232:236:249:262:294:311:360:371:463:479:14:42:57:101:123:159:166:213:215:220:282:298:353:414:427:472:523:526:10:32:58:64:66:86:88:107:158:207:210:234:256:261:293:310:328:329:343:364:379:426:428:429:434:480:524:533:577:580:84:111:119:214:226:258:312:366:372:377:412:413:417:430:80:85:110:114:129:144:152:189:195:247:278:305:322:358:359:362:365:394:418:438:441:457:470:476:566:579:43:62:71:72:74:95:122:132:150:171:185:188:193:198:209:216:233:237:263:277:308:339:344:346:383:390:397:403:437:447:451:455:456:458:471:530:541:542:623:18:51:67:92:126:145:177:201:202:203:245:253:268:276:299:304:323:334:368:380:395:402:406:415:433:440:450:453:464:477:487:514:527:529:534:575:584 103:525:207:561:101:108:566:454:782:894:91:575:632:838:517:784:531:267:769:866:9:743:829:17:195:615:22:237:455:300:484:673:12:88:478:844:162:226:325:6:479:607:840:23:44:70:130:445:68:73:111:284:485:760:814:938:90:98:120:165:314:444:573:685:732:202:265:360:547:85:178:191:307:341:541:631:878:59:116:220:862:104:229:241:263:686:753:839:853:927:86:187:302:564:672:813:14:160:277:320:449:501:503:542:723:775:869:4:30:65:327:486:505:679:859:916:917:19:188:228:270:349:387:466:600:624:650:681:682:747:825:847:885:929:138:238:260:280:344:353:441:453:465:507:532:601:612:671:678:683:691:727:736:745:881:55:87:163:168:221:245:339:388:416:432:495:526:551:636:730:750:818:820:842:851:908:944:0:56:60:74:141:167:259:275:288:323:329:333:337:366:404:468:509:519:538:549:618:627:646:655:710:734:787:805:824:879:910:937:942:948:972:1:13:18:37:57:63:71:93:109:121:122:127:133:139:143:173:180:185:217:232:246:261:287:332:345:363:379:392:398:417:437:473:511:533:545:577:598:645:741:803:884:889:895:903:905:923:25:34:35:36:48:62:76:107:113:123:126:171:183:194:196:199:219:222:235:249:273:292:306:317:381:383:395:400:433:442:451:458:459:477:480:483:494:496:514:540:543:555:565:620:638:651:662:680:721:746:776:779:797:830:857:887:890:899:907:918:967:2:5:39:45:58:64:80:83:92:117:144:147:148:154:172:175:177:239:258:264:272:311:335:340:348:355:358:361:367:369:376:402:408:413:414:438:448:470:474:534:562:574:580:588:604:619:625:642:664:665:676:711:719:738:762:770:771:778:810:827:892:912:913:914:934:957:963:11:15:21:66:69:128:129:134:142:146:153:159:182:192:204:205:210:247:252:257:262:266:274:282:283:285:290:291:312:315:321:322:342:347:356:362:365:374:385:419:452:488:515:529:536:546:548:553:558:559:560:563:571:578:585:590:606:608:635:637:648:668:687:688:696:701:702:715:752:790:794:795:798:811:826:843:845:880:891:896:902:906:911:919:933:943:951:968:973 1:0 49:0:5:8:3:47:33:31:39:159:41:19:26:129:78:141:6:74:88:36:176:57:197:189:28:84:90:110:77:106:30:107:29:147:21:2:10:13:40:75:101:67:167:11:48:43:52:161:56:155:35:85:89:46:73:187:12:71:140:17:65:83:99:111:25:55:58:69:72:148:14:64:87:102:128:198:91:98:117:4:32:34:42:59:66:96:112:125:175:185:196:203:7:9:27:50:60:100:120:146:169:200:1:20:23:76:105:137:178:179:182:190:45:68:104:127:135:139:144:150:168:186:194:201:37:61:81:92:94:103:118:162:164:166:174:177:180:204 [-183.702:227.833] [-49.8874:81.708399999999997] 46:0:55:74:18:68:6:3:64:87:5:36:84:102:45:86:37:121:147:81:48:92:181:135:10:2:22:16:52:71:79:109:148:19:42:56:95:126:115:169:8:14:40:53:9:27:98:39:30:62:101:146:188:11:114:24:54:94:120:207:33:106:70:93:201:186:200:155:116:154:166:187:1:41:82:111:43:162:167:190:23:217:13:34:47:88:117:118:143:161:163:183:218:7:61:63:99:130:150:175:211:213:20:21:32:57:76:83:85:89:134:153:158:168:171:185:195:220:4:17:25:29:58:72:75:96:97:100:119:136:137:144:151:174:177:210:35:38:50:65:69:78:80:105:108:113:127:128:173:180:182:189:197:212:214 7:0:32:26:1:2:30:49:62:9:19:65:149:128:130:61:64:86:141:16:56:21:69:132:153:4:15:79:150:27:124:123:25:37:42:71:33:3:23:20:75:80:89:139:90:110:113:122:135:140:22:29:38:41:46:74:88:120:146:114:119:152:8:17:97:134:156:158:18:52:54:66:70:76:94:99:112:154:12:24:36:47:57:58:84:103:108:126:151:10:13:39:53:63:68:72:106:107:127:138:40:45:51:55:77:81:83:85:93:96:136:142:157 2:0:7:9:3:10:8:1:20:6:17:4:22:26:25:47:29:12:14:18:5:11:19:42:13:31:36:24:38:55:54:43:16:41:44:45:49:33:56:30 [1:175] [1:42400] [1:27692.5] [1:38456.5] [1:244588] [1:1556770] [1:68.5] [1:6121] [1:8524] [1:274774] [1:249100] [1:448222] [1:574087] [1:1285890] [1:19936] [1:34] [1:121640] [1:151] 1:0 3:0:1:5:6:4:12:10:16:15:2:31:29:74:8:9:7:27:13:84:85:30:36:42:48:51:38:18:24:19:11:55:33:118:39:68:41:79:49:20:60:92:111:17:28:65:32:46:44:96:97:50:53:54:58:82:21:80:95:14:26:59:67:71:83:94:23:47:87:89:25:45:70:91:123:22:40:63:77:104:52:76:99:112 [-120.928:227.74900000000002] [-55.711999999999996:79.617599999999996] 2:0:23:6:14:8:11:77:28:19:25:54:44:9:15:20:7:101:13:38:70:12:34:63:128:27:72:89:30:46:61:112:31:91:16:29:59:139:69:140:24:17:88:118:71:119:143:155:65:73:176:39:66:18:45:137:37:93:102:22:32:141:147:168:1:40:67:90:36:115:126:4:87:96:127:47:122:154:5:52:68:80:92:100:136:21:97:99:110:35:81:82:114:132:10:50:55:83:123:148:49:53:57:75:107:108:121:134:135:181:79:157:26:33:41:43:56:76:78:95:106:117:129:142:149:153:170:171:177:185 18:0:70:38:6:20:78:10:40:32:4:9:12:21:31:23:7:46:27:24:66:93:119:59:68:101:60:72:16:30:55:67:104:107:49:15:81:51:82:14:114:11:111:131:48:96:113:28:87:39:88:89:1:17:29:41:80:97:120:5:61:69:100:22:35:13:25:42:50:79:90:95:84:105:115:33:43:83:99:117:126:135:58:62:75:108:112:121:148:8:19:26:37:54:71:91:98:103:106:116:129:132:140 2:0:1:12:7:6:14:17:3:15:4:11:16:24:5:9:10:27:33:20:28:13:21:30:32:8:29:26:34:23:19:22:25:36 [1:175] 1:0:2:3 [1:86611] [1:6244] [1:510108] [1:4779610] [1:91] [1:4702] [1:1666670] [1:151] [1:395101] [1:275.5] [1:1233060] [1:1061.5] [1:509664] [1:253200] [1:360349] [1:556288] [1:46318]
tree_sizes=805 827 924 992 1050

Tree=0
num_leaves=8
num_cat=3
split_feature=32 4 23 30 37 32 37
split_gain=31.364 15.9091 14.3011 14.5778 9.56301 5.83628 1.03592
threshold=0 1 228130.00000000003 2.7835900000000007 687.25000000000011 2 1.7500000000000002
decision_type=5 5 2 2 2 5 2
left_child=4 5 3 -3 -1 -2 -7
right_child=1 2 -4 -5 -6 6 -8
leaf_value=-3.2532918971041829 -3.2828850126647269 -3.2511936627112639 -3.1767955092387465 -3.3437369091980549 -3.1213539388523834 -3.3388776606351955 -3.3645577690441377
leaf_count=194 135 432 124 430 183 747 754
internal_value=0 -0.175464 0.309786 0.108793 1.09255 -0.472689 -0.590761
internal_count=2999 2622 986 862 377 1636 1501
cat_boundaries=0 2 8 14
cat_threshold=2155876612 4194368 3556770913 33685506 67108864 16384 2147491842 536936448 16384 0 151003136 65536 4096 65536
shrinkage=1


Tree=1
num_leaves=8
num_cat=4
split_feature=1 24 23 32 13 9 36
split_gain=93.8849 30.0521 8.83443 5.57682 5.29368 1.71446 0.784615
threshold=0 120.25000000000001 369404.50000000006 1 16.750000000000004 2 3
decision_type=5 2 2 5 2 5 1
left_child=1 6 3 4 -2 -5 -1
right_child=2 -3 -4 5 -6 -7 -8
leaf_value=0.097829456915237159 0.04835850668964789 0.24294558577285874 0.056311120424395768 0.0061830560843363427 -0.03793201110955656 -0.049755944807983642 0.040881684849697737
leaf_count=93 226 246 99 231 112 1760 232
internal_value=0 1.54908 -0.437527 -0.565284 0.15231 -0.626015 0.986063
internal_count=2999 571 2428 2329 338 1991 325
cat_boundaries=0 15 21 22 23
cat_threshold=469831744 545284224 0 1048580 8388608 32 0 21168128 16392 134217730 0 262144 0 0 2050 134234372 4210816 16785408 0 0 65536 832 2
shrinkage=0.0688478


Tree=2
num_leaves=9
num_cat=2
split_feature=1 20 23 26 15 32 5 41
split_gain=80.0156 13.3719 9.40571 7.93471 7.9238 3.14885 5.1986 2.05314
threshold=0 13912.750000000002 369404.50000000006 24.250000000000004 6.2500000000000009 1 163.44900000000004 13.750000000000002
decision_type=5 2 2 2 2 5 2 2
left_child=1 3 5 4 -1 6 -2 -7
right_child=2 -3 -4 -5 -6 7 -8 -9
leaf_value=0.05656161294454061 0.042882244621927509 0.22454748911338432 0.057022452397105836 -0.0001776590498675231 0.15739984579629987 -0.055899825450503184 -0.04108557599687148 -0.0087707404182455224
leaf_count=314 197 91 93 92 181 1716 130 185
internal_value=0 1.26591 -0.46563 1.26372 1.51412 -0.608619 0.0758306 -0.648586
internal_count=2999 678 2321 587 495 2228 327 1901
cat_boundaries=0 18 22
cat_threshold=469831872 545284224 0 1048596 8388608 32 4096 21200896 16392 134217730 0 262144 0 0 2050 0 0 16 134234372 4194432 16785920 64
shrinkage=0.0688478


Tree=3
num_leaves=10
num_cat=3
split_feature=1 24 23 0 32 13 41 36 0
split_gain=66.9343 13.361 8.70214 3.54849 2.91962 3.84967 2.11252 1.89784 2.53045
threshold=0 72.250000000000014 375523.00000000006 6.2500000000000009 1 16.750000000000004 13.750000000000002 2 1.7500000000000002
decision_type=5 2 2 2 5 2 2 1 2
left_child=1 7 4 -3 5 -2 -6 -1 -9
right_child=2 3 -4 -5 6 -7 -8 8 -10
leaf_value=0.08316616284891086 0.03482283687543531 0.16444092155247941 0.052499792738171853 0.052472921689609875 -0.056022153412123153 -0.038321709316848598 -0.0080702178479383959 0.049721406656627817 -0.0097295419524691361
leaf_count=90 211 232 92 78 1687 118 184 179 128
internal_value=0 1.09339 -0.453719 2.08875 -0.600024 0.0677653 -0.640808 0.682498 0.376627
internal_count=2999 707 2292 310 2200 329 1871 397 307
cat_boundaries=0 18 22 23
cat_threshold=402723017 545284224 0 1048580 8388608 32 4096 21200896 16392 134217730 0 262144 0 0 2050 0 0 16 151019780 4210816 16785408 64 2
shrinkage=0.0688478


Tree=4
num_leaves=11
num_cat=2
split_feature=7 32 13 38 6 21 44 50 37 10
split_gain=25.2197 15.2092 12.5436 10.8506 14.4188 15.3846 5.99859 5.31446 1.63304 1.42795
threshold=0 1 3.2500000000000004 102.25000000000001 39.907600000000009 4359.2500000000009 6.2500000000000009 1108.0000000000002 1.7500000000000002 6.2500000000000009
decision_type=5 5 2 2 2 2 2 2 2 2
left_child=1 2 7 4 5 -2 -6 -1 9 -3
right_child=3 8 -4 -5 6 -7 -8 -9 -10 -11
leaf_value=0.10356849364182968 0.01977690558999614 -0.018456516420667011 -0.051396988947850789 0.12392686132404908 0.027601666026732544 0.18115779950839533 -0.041269650240329421 0.0019185361307867466 -0.061102059223102634 -0.057520744219015596
leaf_count=189 210 595 85 166 332 98 268 89 784 183
internal_value=0 -0.309456 0.3936 0.60285 0.46359 1.32387 -0.0212809 1.11386 -0.56848 -0.451781
internal_count=2999 1925 363 1074 908 308 600 278 1562 778
cat_boundaries=0 6 12
cat_threshold=138740229 1102071184 2147614736 34086980 524288 2097152 142618884 4194368 151003136 65536 4096 65536
shrinkage=0.0688478


end of trees

feature importances:
c_table_2.c_3=6
n_table_1.n_19=4
c_02=3
n_table_1.n_7=3
n_table_2.n_5=3
n_1=2
n_table_1.n_20=2
c_table_2.c_6=2
n_table_2.n_9=2
c_table_1.c_2=1
n_table_1.n_1=1
n_table_1.n_2=1
c_table_1.c_3=1
c_table_1.c_5=1
n_table_1.n_3=1
n_table_1.n_9=1
n_table_1.n_16=1
n_table_1.n_17=1
n_table_1.n_26=1
n_table_2.n_1=1
n_table_2.n_6=1
n_table_2.n_12=1
n_table_3.n_4=1

parameters:
[boosting: gbdt]
[objective: binary]
[metric: auc]
[tree_learner: serial]
[device_type: cpu]
[data: ]
[valid: ]
[num_iterations: 100]
[learning_rate: 0.0688478]
[num_leaves: 153]
[num_threads: 4]
[max_depth: 4]
[min_data_in_leaf: 20]
[min_sum_hessian_in_leaf: 3.55627]
[bagging_fraction: 0.6]
[bagging_freq: 27]
[bagging_seed: 3]
[feature_fraction: 0.9]
[feature_fraction_seed: 2]
[early_stopping_round: 0]
[max_delta_step: 0]
[lambda_l1: 0.123303]
[lambda_l2: 1.40529]
[min_gain_to_split: 0]
[drop_rate: 0.1]
[max_drop: 50]
[skip_drop: 0.5]
[xgboost_dart_mode: 0]
[uniform_drop: 0]
[drop_seed: 4]
[top_rate: 0.2]
[other_rate: 0.1]
[min_data_per_group: 100]
[max_cat_threshold: 32]
[cat_l2: 10]
[cat_smooth: 10]
[max_cat_to_onehot: 4]
[top_k: 20]
[monotone_constraints: ]
[feature_contri: ]
[forcedsplits_filename: ]
[refit_decay_rate: 0.9]
[verbosity: -1]
[max_bin: 255]
[min_data_in_bin: 3]
[bin_construct_sample_cnt: 200000]
[histogram_pool_size: -1]
[data_random_seed: 1]
[output_model: LightGBM_model.txt]
[snapshot_freq: -1]
[input_model: ]
[output_result: LightGBM_predict_result.txt]
[initscore_filename: ]
[valid_data_initscores: ]
[pre_partition: 0]
[enable_bundle: 1]
[max_conflict_rate: 0]
[is_enable_sparse: 1]
[sparse_threshold: 0.8]
[use_missing: 1]
[zero_as_missing: 0]
[two_round: 0]
[save_binary: 0]
[enable_load_from_binary_file: 1]
[header: 0]
[label_column: ]
[weight_column: ]
[group_column: ]
[ignore_column: ]
[categorical_feature: ]
[predict_raw_score: 0]
[predict_leaf_index: 0]
[predict_contrib: 0]
[num_iteration_predict: -1]
[pred_early_stop: 0]
[pred_early_stop_freq: 10]
[pred_early_stop_margin: 10]
[convert_model_language: ]
[convert_model: gbdt_prediction.cpp]
[num_class: 1]
[is_unbalance: 0]
[scale_pos_weight: 1]
[sigmoid: 1]
[boost_from_average: 1]
[reg_sqrt: 0]
[alpha: 0.9]
[fair_c: 1]
[poisson_max_delta_step: 0.7]
[tweedie_variance_power: 1.5]
[max_position: 20]
[label_gain: ]
[metric_freq: 1]
[is_provide_training_metric: 0]
[eval_at: ]
[num_machines: 1]
[local_listen_port: 12400]
[time_out: 120]
[machine_list_filename: ]
[machines: ]
[gpu_platform_id: -1]
[gpu_device_id: -1]
[gpu_use_dp: 0]

end of parameters

pandas_categorical:[[0, 1, 2, 3, 4, 5, 6, 7, 8, 9, 10, 11, 12, 13, 14, 15, 16, 17, 18, 19, 20, 21, 22, 23, 24, 25, 26, 27, 28, 29, 30, 31, 32, 33, 34, 35, 36, 37, 38, 39, 40, 41, 42, 43, 44, 45, 46, 47, 48, 49, 50, 51, 52, 53, 54, 55, 56, 57, 58, 59, 60, 61, 62, 63, 64, 65, 66, 67, 68, 69, 70, 71, 72, 73, 74, 75, 76, 77, 78, 79, 80, 81, 82, 83, 84, 85, 86, 87, 88, 89, 90, 91, 92, 93, 94, 95, 96, 97, 98, 99, 100, 101, 102, 103, 104, 105, 106, 107, 108, 109, 110, 111, 112, 113, 114, 115, 116, 117, 118, 119, 120, 121, 122, 123, 124, 125, 126, 127, 128, 129, 130, 131, 132, 133, 134, 135, 136, 137, 138, 139, 140, 141, 142, 143, 144, 145, 146, 147, 148, 149, 150, 151, 152, 153, 154, 155, 156, 157, 158, 159, 160, 161, 162, 163, 164, 165, 166, 167, 168, 169, 170, 171, 172, 173, 174, 175, 176, 177, 178, 179, 180, 181, 182, 183, 184, 185, 186, 187, 188, 189, 190, 191, 192, 193, 194, 195, 196, 197, 198, 199, 200, 201, 202, 203, 204, 205, 206, 207, 208, 209, 210, 211, 212, 213, 214, 215, 216, 217, 218, 219, 220, 221, 222, 223, 224, 225, 226, 227, 228, 229, 230, 231, 232, 233, 234, 235, 236, 237, 238, 239, 240, 241, 242, 243, 244, 245, 246, 247, 248, 249, 250, 251, 252, 253, 254, 255, 256, 257, 258, 259, 260, 261, 262, 263, 264, 265, 266, 267, 268, 269, 270, 271, 272, 273, 274, 275, 276, 277, 278, 279, 280, 281, 282, 283, 284, 285, 286, 287, 288, 289, 290, 291, 292, 293, 294, 295, 296, 297, 298, 299, 300, 301, 302, 303, 304, 305, 306, 307, 308, 309, 310, 311, 312, 313, 314, 315, 316, 317, 318, 319, 320, 321, 322, 323, 324, 325, 326, 327, 328, 329, 330, 331, 332, 333, 334, 335, 336, 337, 338, 339, 340, 341, 342, 343, 344, 345, 346, 347, 348, 349, 350, 351, 352, 353, 354, 355, 356, 357, 358, 359, 360, 361, 362, 363, 364, 365, 366, 367, 368, 369, 370, 371, 372, 373, 374, 375, 376, 377, 378, 379, 380, 381, 382, 383, 384, 385, 386, 387, 388, 389, 390, 391, 392, 393, 394, 395, 396, 397, 398, 399, 400, 401, 402, 403, 404, 405, 406, 407, 408, 409, 410, 411, 412, 413, 414, 415, 416, 417, 418, 419, 420, 421, 422, 423, 424, 425, 426, 427, 428, 429, 430, 431, 432, 433, 434, 435, 436, 437, 438, 439, 440, 441, 442, 443, 444, 445, 446, 447, 448, 449, 450, 451, 452, 453, 454, 455, 456, 457, 458, 459, 460, 461, 462, 463, 464, 465, 466, 467, 468, 469, 470, 471, 472, 473, 474, 475, 476, 477, 478, 479, 480, 481, 482, 483, 484, 485, 486, 487, 488, 489, 490, 491, 492, 493, 494, 495, 496, 497, 498, 499, 500, 501, 502, 503, 504, 505, 506, 507, 508, 509, 510, 511, 512, 513, 514, 515, 516, 517, 518, 519, 520, 521, 522, 523, 524, 525, 526, 527, 528, 529, 530, 531, 532, 533, 534, 535, 536, 537, 538, 539, 540, 541, 542, 543, 544, 545, 546, 547, 548, 549, 550, 551, 552, 553, 554, 555, 556, 557, 558, 559, 560, 561, 562, 563, 564, 565, 566, 567, 568, 569, 570, 571, 572, 573, 574, 575, 576, 577, 578, 579, 580, 581, 582, 583, 584, 585, 586, 587, 588, 589, 590, 591, 592, 593, 594, 595, 596, 597, 598, 599, 600, 601, 602, 603, 604, 605, 606, 607, 608, 609, 610, 611, 612, 613, 614, 615, 616, 617, 618, 619, 620, 621, 622, 623, 624, 625, 626, 627, 628, 629, 630, 631, 632, 633, 634, 635, 636, 637], [0, 1, 2, 3, 4, 5, 6, 7, 8, 9, 10, 11, 12, 13, 14, 15, 16, 17, 18, 19, 20, 21, 22, 23, 24, 25, 26, 27, 28, 29, 30, 31, 32, 33, 34, 35, 36, 37, 38, 39, 40, 41, 42, 43, 44, 45, 46, 47, 48, 49, 50, 51, 52, 53, 54, 55, 56, 57, 58, 59, 60, 61, 62, 63, 64, 65, 66, 67, 68, 69, 70, 71, 72, 73, 74, 75, 76, 77, 78, 79, 80, 81, 82, 83, 84, 85, 86, 87, 88, 89, 90, 91, 92, 93, 94, 95, 96, 97, 98, 99, 100, 101, 102, 103, 104, 105, 106, 107, 108, 109, 110, 111, 112, 113, 114, 115, 116, 117, 118, 119, 120, 121, 122, 123, 124, 125, 126, 127, 128, 129, 130, 131, 132, 133, 134, 135, 136, 137, 138, 139, 140, 141, 142, 143, 144, 145, 146, 147, 148, 149, 150, 151, 152, 153, 154, 155, 156, 157, 158, 159, 160, 161, 162, 163, 164, 165, 166, 167, 168, 169, 170, 171, 172, 173, 174, 175, 176, 177, 178, 179, 180, 181, 182, 183, 184, 185, 186, 187, 188, 189, 190, 191, 192, 193, 194, 195, 196, 197, 198, 199, 200, 201, 202, 203, 204, 205, 206, 207, 208, 209, 210, 211, 212, 213, 214, 215, 216, 217, 218, 219, 220, 221, 222, 223, 224, 225, 226, 227, 228, 229, 230, 231, 232, 233, 234, 235, 236, 237, 238, 239, 240, 241, 242, 243, 244, 245, 246, 247, 248, 249, 250, 251, 252, 253, 254, 255, 256, 257, 258, 259, 260, 261, 262, 263, 264, 265, 266, 267, 268, 269, 270, 271, 272, 273, 274, 275, 276, 277, 278, 279, 280, 281, 282, 283, 284, 285, 286, 287, 288, 289, 290, 291, 292, 293, 294, 295, 296, 297, 298, 299, 300, 301, 302, 303, 304, 305, 306, 307, 308, 309, 310, 311, 312, 313, 314, 315, 316, 317, 318, 319, 320, 321, 322, 323, 324, 325, 326, 327, 328, 329, 330, 331, 332, 333, 334, 335, 336, 337, 338, 339, 340, 341, 342, 343, 344, 345, 346, 347, 348, 349, 350, 351, 352, 353, 354, 355, 356, 357, 358, 359, 360, 361, 362, 363, 364, 365, 366, 367, 368, 369, 370, 371, 372, 373, 374, 375, 376, 377, 378, 379, 380, 381, 382, 383, 384, 385, 386, 387, 388, 389, 390, 391, 392, 393, 394, 395, 396, 397, 398, 399, 400, 401, 402, 403, 404, 405, 406, 407, 408, 409, 410, 411, 412, 413, 414, 415, 416, 417, 418, 419, 420, 421, 422, 423, 424, 425, 426, 427, 428, 429, 430, 431, 432, 433, 434, 435, 436, 437, 438, 439, 440, 441, 442, 443, 444, 445, 446, 447, 448, 449, 450, 451, 452, 453, 454, 455, 456, 457, 458, 459, 460, 461, 462, 463, 464, 465, 466, 467, 468, 469, 470, 471, 472, 473, 474, 475, 476, 477, 478, 479, 480, 481, 482, 483, 484, 485, 486, 487, 488, 489, 490, 491, 492, 493, 494, 495, 496, 497, 498, 499, 500, 501, 502, 503, 504, 505, 506, 507, 508, 509, 510, 511, 512, 513, 514, 515, 516, 517, 518, 519, 520, 521, 522, 523, 524, 525, 526, 527, 528, 529, 530, 531, 532, 533, 534, 535, 536, 537, 538, 539, 540, 541, 542, 543, 544, 545, 546, 547, 548, 549, 550, 551, 552, 553, 554, 555, 556, 557, 558, 559, 560, 561, 562, 563, 564, 565, 566, 567, 568, 569, 570, 571, 572, 573, 574, 575, 576, 577, 578, 579, 580, 581, 582, 583, 584, 585, 586, 587, 588, 589, 590, 591, 592, 593, 594, 595, 596, 597, 598, 599, 600, 601, 602, 603, 604, 605, 606, 607, 608, 609, 610, 611, 612, 613, 614, 615, 616, 617, 618, 619, 620, 621, 622, 623, 624, 625, 626, 627, 628, 629, 630, 631, 632, 633, 634, 635, 636, 637, 638, 639, 640, 641, 642, 643, 644, 645, 646, 647, 648, 649, 650, 651, 652, 653, 654, 655, 656, 657, 658, 659, 660, 661, 662, 663, 664, 665, 666, 667, 668, 669, 670, 671, 672, 673, 674, 675, 676, 677, 678, 679, 680, 681, 682, 683, 684, 685, 686, 687, 688, 689, 690, 691, 692, 693, 694, 695, 696, 697, 698, 699, 700, 701, 702, 703, 704, 705, 706, 707, 708, 709, 710, 711, 712, 713, 714, 715, 716, 717, 718, 719, 720, 721, 722, 723, 724, 725, 726, 727, 728, 729, 730, 731, 732, 733, 734, 735, 736, 737, 738, 739, 740, 741, 742, 743, 744, 745, 746, 747, 748, 749, 750, 751, 752, 753, 754, 755, 756, 757, 758, 759, 760, 761, 762, 763, 764, 765, 766, 767, 768, 769, 770, 771, 772, 773, 774, 775, 776, 777, 778, 779, 780, 781, 782, 783, 784, 785, 786, 787, 788, 789, 790, 791, 792, 793, 794, 795, 796, 797, 798, 799, 800, 801, 802, 803, 804, 805, 806, 807, 808, 809, 810, 811, 812, 813, 814, 815, 816, 817, 818, 819, 820, 821, 822, 823, 824, 825, 826, 827, 828, 829, 830, 831, 832, 833, 834, 835, 836, 837, 838, 839, 840, 841, 842, 843, 844, 845, 846, 847, 848, 849, 850, 851, 852, 853, 854, 855, 856, 857, 858, 859, 860, 861, 862, 863, 864, 865, 866, 867, 868, 869, 870, 871, 872, 873, 874, 875, 876, 877, 878, 879, 880, 881, 882, 883, 884, 885, 886, 887, 888, 889, 890, 891, 892, 893, 894, 895, 896, 897, 898, 899, 900, 901, 902, 903, 904, 905, 906, 907, 908, 909, 910, 911, 912, 913, 914, 915, 916, 917, 918, 919, 920, 921, 922, 923, 924, 925, 926, 927, 928, 929, 930, 931, 932, 933, 934, 935, 936, 937, 938, 939, 940, 941, 942, 943, 944, 945, 946, 947, 948, 949, 950, 951, 952, 953, 954, 955, 956, 957, 958, 959, 960, 961, 962, 963, 964, 965, 966, 967, 968, 969, 970, 971, 972, 973], [0, 1], [0, 1, 2, 3, 4, 5, 6, 7, 8, 9, 10, 11, 12, 13, 14, 15, 16, 17, 18, 19, 20, 21, 22, 23, 24, 25, 26, 27, 28, 29, 30, 31, 32, 33, 34, 35, 36, 37, 38, 39, 40, 41, 42, 43, 44, 45, 46, 47, 48, 49, 50, 51, 52, 53, 54, 55, 56, 57, 58, 59, 60, 61, 62, 63, 64, 65, 66, 67, 68, 69, 70, 71, 72, 73, 74, 75, 76, 77, 78, 79, 80, 81, 82, 83, 84, 85, 86, 87, 88, 89, 90, 91, 92, 93, 94, 95, 96, 97, 98, 99, 100, 101, 102, 103, 104, 105, 106, 107, 108, 109, 110, 111, 112, 113, 114, 115, 116, 117, 118, 119, 120, 121, 122, 123, 124, 125, 126, 127, 128, 129, 130, 131, 132, 133, 134, 135, 136, 137, 138, 139, 140, 141, 142, 143, 144, 145, 146, 147, 148, 149, 150, 151, 152, 153, 154, 155, 156, 157, 158, 159, 160, 161, 162, 163, 164, 165, 166, 167, 168, 169, 170, 171, 172, 173, 174, 175, 176, 177, 178, 179, 180, 181, 182, 183, 184, 185, 186, 187, 188, 189, 190, 191, 192, 193, 194, 195, 196, 197, 198, 199, 200, 201, 202, 203, 204, 205, 206], [0, 1, 2, 3, 4, 5, 6, 7, 8, 9, 10, 11, 12, 13, 14, 15, 16, 17, 18, 19, 20, 21, 22, 23, 24, 25, 26, 27, 28, 29, 30, 31, 32, 33, 34, 35, 36, 37, 38, 39, 40, 41, 42, 43, 44, 45, 46, 47, 48, 49, 50, 51, 52, 53, 54, 55, 56, 57, 58, 59, 60, 61, 62, 63, 64, 65, 66, 67, 68, 69, 70, 71, 72, 73, 74, 75, 76, 77, 78, 79, 80, 81, 82, 83, 84, 85, 86, 87, 88, 89, 90, 91, 92, 93, 94, 95, 96, 97, 98, 99, 100, 101, 102, 103, 104, 105, 106, 107, 108, 109, 110, 111, 112, 113, 114, 115, 116, 117, 118, 119, 120, 121, 122, 123, 124, 125, 126, 127, 128, 129, 130, 131, 132, 133, 134, 135, 136, 137, 138, 139, 140, 141, 142, 143, 144, 145, 146, 147, 148, 149, 150, 151, 152, 153, 154, 155, 156, 157, 158, 159, 160, 161, 162, 163, 164, 165, 166, 167, 168, 169, 170, 171, 172, 173, 174, 175, 176, 177, 178, 179, 180, 181, 182, 183, 184, 185, 186, 187, 188, 189, 190, 191, 192, 193, 194, 195, 196, 197, 198, 199, 200, 201, 202, 203, 204, 205, 206, 207, 208, 209, 210, 211, 212, 213, 214, 215, 216, 217, 218, 219, 220], [0, 1, 2, 3, 4, 5, 6, 7, 8, 9, 10, 11, 12, 13, 14, 15, 16, 17, 18, 19, 20, 21, 22, 23, 24, 25, 26, 27, 28, 29, 30, 31, 32, 33, 34, 35, 36, 37, 38, 39, 40, 41, 42, 43, 44, 45, 46, 47, 48, 49, 50, 51, 52, 53, 54, 55, 56, 57, 58, 59, 60, 61, 62, 63, 64, 65, 66, 67, 68, 69, 70, 71, 72, 73, 74, 75, 76, 77, 78, 79, 80, 81, 82, 83, 84, 85, 86, 87, 88, 89, 90, 91, 92, 93, 94, 95, 96, 97, 98, 99, 100, 101, 102, 103, 104, 105, 106, 107, 108, 109, 110, 111, 112, 113, 114, 115, 116, 117, 118, 119, 120, 121, 122, 123, 124, 125, 126, 127, 128, 129, 130, 131, 132, 133, 134, 135, 136, 137, 138, 139, 140, 141, 142, 143, 144, 145, 146, 147, 148, 149, 150, 151, 152, 153, 154, 155, 156, 157, 158], [0, 1, 2, 3, 4, 5, 6, 7, 8, 9, 10, 11, 12, 13, 14, 15, 16, 17, 18, 19, 20, 21, 22, 23, 24, 25, 26, 27, 28, 29, 30, 31, 32, 33, 34, 35, 36, 37, 38, 39, 40, 41, 42, 43, 44, 45, 46, 47, 48, 49, 50, 51, 52, 53, 54, 55, 56], [0, 1], [0, 1, 2, 3, 4, 5, 6, 7, 8, 9, 10, 11, 12, 13, 14, 15, 16, 17, 18, 19, 20, 21, 22, 23, 24, 25, 26, 27, 28, 29, 30, 31, 32, 33, 34, 35, 36, 37, 38, 39, 40, 41, 42, 43, 44, 45, 46, 47, 48, 49, 50, 51, 52, 53, 54, 55, 56, 57, 58, 59, 60, 61, 62, 63, 64, 65, 66, 67, 68, 69, 70, 71, 72, 73, 74, 75, 76, 77, 78, 79, 80, 81, 82, 83, 84, 85, 86, 87, 88, 89, 90, 91, 92, 93, 94, 95, 96, 97, 98, 99, 100, 101, 102, 103, 104, 105, 106, 107, 108, 109, 110, 111, 112, 113, 114, 115, 116, 117, 118, 119, 120, 121, 122, 123, 124, 125, 126, 127, 128], [0, 1, 2, 3, 4, 5, 6, 7, 8, 9, 10, 11, 12, 13, 14, 15, 16, 17, 18, 19, 20, 21, 22, 23, 24, 25, 26, 27, 28, 29, 30, 31, 32, 33, 34, 35, 36, 37, 38, 39, 40, 41, 42, 43, 44, 45, 46, 47, 48, 49, 50, 51, 52, 53, 54, 55, 56, 57, 58, 59, 60, 61, 62, 63, 64, 65, 66, 67, 68, 69, 70, 71, 72, 73, 74, 75, 76, 77, 78, 79, 80, 81, 82, 83, 84, 85, 86, 87, 88, 89, 90, 91, 92, 93, 94, 95, 96, 97, 98, 99, 100, 101, 102, 103, 104, 105, 106, 107, 108, 109, 110, 111, 112, 113, 114, 115, 116, 117, 118, 119, 120, 121, 122, 123, 124, 125, 126, 127, 128, 129, 130, 131, 132, 133, 134, 135, 136, 137, 138, 139, 140, 141, 142, 143, 144, 145, 146, 147, 148, 149, 150, 151, 152, 153, 154, 155, 156, 157, 158, 159, 160, 161, 162, 163, 164, 165, 166, 167, 168, 169, 170, 171, 172, 173, 174, 175, 176, 177, 178, 179, 180, 181, 182, 183, 184, 185, 186, 187, 188, 189, 190, 191, 192, 193, 194, 195], [0, 1, 2, 3, 4, 5, 6, 7, 8, 9, 10, 11, 12, 13, 14, 15, 16, 17, 18, 19, 20, 21, 22, 23, 24, 25, 26, 27, 28, 29, 30, 31, 32, 33, 34, 35, 36, 37, 38, 39, 40, 41, 42, 43, 44, 45, 46, 47, 48, 49, 50, 51, 52, 53, 54, 55, 56, 57, 58, 59, 60, 61, 62, 63, 64, 65, 66, 67, 68, 69, 70, 71, 72, 73, 74, 75, 76, 77, 78, 79, 80, 81, 82, 83, 84, 85, 86, 87, 88, 89, 90, 91, 92, 93, 94, 95, 96, 97, 98, 99, 100, 101, 102, 103, 104, 105, 106, 107, 108, 109, 110, 111, 112, 113, 114, 115, 116, 117, 118, 119, 120, 121, 122, 123, 124, 125, 126, 127, 128, 129, 130, 131, 132, 133, 134, 135, 136, 137, 138, 139, 140, 141, 142, 143, 144, 145, 146, 147, 148, 149, 150], [0, 1, 2, 3, 4, 5, 6, 7, 8, 9, 10, 11, 12, 13, 14, 15, 16, 17, 18, 19, 20, 21, 22, 23, 24, 25, 26, 27, 28, 29, 30, 31, 32, 33, 34, 35, 36, 37, 38, 39], [0, 1, 2, 3]]
