tree
version=v2
num_class=1
num_tree_per_iteration=1
label_index=0
max_feature_idx=10
objective=binary sigmoid:1
feature_names=n_1 c_table_1.c_4 n_table_1.n_3 n_table_1.n_10 n_table_1.n_11 n_table_1.n_12 n_table_1.n_15 n_table_1.n_16 n_table_1.n_19 n_table_1.n_27 c_table_2.c_4
feature_infos=[1:323.5] 7:0:1:49:65:32:30:2:26:42:132:141:61:130:86:25:62:149:16:38:64:80:153:8:19:46:47:52:56:66:68:69:116:122:126:138:140 [1:175] [1:68.5] [1:4433.5] [1:8524] [1:237038] [1:185158] [1:882506] [1:151] 18:0:70:6:12:21:32:20:10:60:9:27:31:38:107:40:59:67:68:4:46:72:7:16:48:49:51:55:66:78:11:24:30:93:96:119
tree_sizes=756 796 636 843 824 875 815 906 620 929 856 839 779 913 874 786 975 835 852 693 899 763 813 808 889 833 769 815 732 559 707 695 722 642 730 637 809 676 638 519 568 509 566 577 455 708 765 572 420 691 569 706 513 606 691

Tree=0
num_leaves=9
num_cat=0
split_feature=6 0 5 5 8 0 8 3
split_gain=9.5084 3.08463 2.78635 1.73739 1.14711 0.52137 0.243816 0.0842568
threshold=25320.250000000004 12.250000000000002 130.75000000000003 3.2500000000000004 30831.250000000004 1.7500000000000002 94727.500000000015 3.2500000000000004
decision_type=2 2 2 2 2 2 2 2
left_child=1 2 7 -3 -4 -2 -6 -1
right_child=5 3 4 -5 6 -7 -8 -9
leaf_value=-3.1053088399531372 -2.8767923204282395 -2.675615219675362 -2.7039281038455951 -2.9444389791664403 -3.0298416758943127 -2.4171267568099926 -2.9295798994854154 -2.9444389791664403
leaf_count=496 75 52 21 21 42 36 33 24
internal_value=0 -0.212631 -0.346409 0.448241 0.168085 1.10181 -0 -0.491819
internal_count=800 689 616 73 96 111 75 520
shrinkage=1


Tree=1
num_leaves=10
num_cat=0
split_feature=8 2 4 9 7 4 8 4 4
split_gain=5.46174 1.18629 1.20383 1.18749 1.11029 0.292001 0.222025 0.626474 0.124231
threshold=131854.00000000003 37.750000000000007 6.2500000000000009 21.250000000000004 7715.5000000000009 6.2500000000000009 1.7500000000000002 14.500000000000002 45.250000000000007
decision_type=2 2 2 2 2 2 2 2 2
left_child=1 6 -3 -4 -2 -6 -1 -8 -9
right_child=4 2 3 -5 5 -7 7 8 -10
leaf_value=-0.0076741659811328166 -0 -0.0034658902576608637 0.3267101785759377 -0 0 0.37242949868739511 -0.14788028363355532 0.055520199419493432 -0.035190100312459741
leaf_count=324 21 27 26 23 26 56 223 22 52
internal_value=0 -0.139613 0.215158 0.624772 0.834864 1.00601 -0.234894 -0.347303 0
internal_count=800 697 76 49 103 82 621 297 74
shrinkage=0.317716


Tree=2
num_leaves=8
num_cat=0
split_feature=5 0 5 4 0 4 2
split_gain=3.74292 3.99001 1.84312 1.26328 1.32443 1.23247 0.165515
threshold=100.00000000000001 6.2500000000000009 3.2500000000000004 1.7500000000000002 4.7500000000000009 256.75000000000006 42.250000000000007
decision_type=2 2 2 2 2 2 2
left_child=1 6 -3 -2 5 -5 -1
right_child=3 2 -4 4 -6 -7 -8
leaf_value=-0.15198696667671557 -0 0.20283768350834072 -0.037726345298115783 0.28377540502526588 -0 -0 -0
leaf_count=438 20 106 33 123 29 31 20
internal_value=0 -0.194046 0.329725 0.456704 0.57259 0.726687 -0.456973
internal_count=800 597 139 203 183 154 458
shrinkage=0.317716


Tree=3
num_leaves=11
num_cat=0
split_feature=0 6 5 8 5 4 6 5 8 0
split_gain=1.85001 1.92329 0.620423 1.13611 0.853221 2.83581 0.651147 0.33224 0.279876 0.241626
threshold=16.750000000000004 250.75000000000003 1260.2500000000002 24851.500000000004 12.250000000000002 36.250000000000007 25320.250000000004 363.25000000000006 94727.500000000015 19.750000000000004
decision_type=2 2 2 2 2 2 2 2 2 2
left_child=1 -1 3 4 -3 -6 8 -8 -5 -2
right_child=9 2 -4 6 5 -7 7 -9 -10 -11
leaf_value=-0.10499588888251145 0.26662948005998277 -0 0.1323271539862651 -0.16470710050891715 0.4164292021494721 -0 0.084765079252911879 -0.039919377106187946 -0 0
leaf_count=420 21 57 38 84 26 21 37 35 37 24
internal_value=0 -0.0731235 0.0995482 0 0.365365 0.675819 -0.176618 0 -0.386347 0.628001
internal_count=800 755 335 297 104 47 193 72 121 45
shrinkage=0.317716


Tree=4
num_leaves=10
num_cat=0
split_feature=0 6 2 4 4 2 8 0 2
split_gain=1.16724 1.08012 0.672145 1.13019 0.492537 0.835143 0.186584 0.0337371 0.0252426
threshold=16.750000000000004 250.75000000000003 33.250000000000007 12.250000000000002 14.500000000000002 28.750000000000004 131854.00000000003 19.750000000000004 37.750000000000007
decision_type=2 2 2 2 2 2 2 2 2
left_child=1 8 4 -4 -3 -6 -5 -2 -1
right_child=7 2 3 6 5 -7 -8 -9 -10
leaf_value=-0.086340639498162383 0.19252823474396477 -0.081827049588356363 0.21512951575561848 -0.05409312537919151 0.14783120163996855 -0.012058505885578864 0.046059516081425021 0 -0
leaf_count=396 21 130 53 50 42 37 23 24 24
internal_value=0 -0.0488591 0.0618619 0.290544 -0.00855267 0.0670817 -0 0.488066 -0.259853
internal_count=800 755 335 126 209 79 73 45 420
shrinkage=0.317716


Tree=5
num_leaves=11
num_cat=0
split_feature=0 5 0 0 2 5 9 8 9 2
split_gain=0.74917 0.75579 1.1248 0.717476 0.555219 0.502069 0.676046 1.56089 0.411621 0.0431607
threshold=16.750000000000004 100.00000000000001 4.7500000000000009 6.2500000000000009 33.250000000000007 187.75000000000003 28.750000000000004 232191.00000000003 3.2500000000000004 42.250000000000007
decision_type=2 2 2 2 2 2 2 2 2 2
left_child=1 3 5 9 -5 -3 8 -8 -7 -1
right_child=-2 2 -4 4 -6 6 7 -9 -10 -11
leaf_value=-0.09937632405222252 0.1219579904457479 0.20302234688373433 -0.094986811360875514 -0.017904372055539367 0.14081694747612578 0 -0 0.26414928183422903 -0.098743898052567849 -0
leaf_count=438 45 29 26 74 27 39 31 21 50 20
internal_value=0 -0.0326423 0.0891127 -0.181293 0 0.267697 0.00607751 0.361017 -0.067365 -0.297823
internal_count=800 755 196 559 101 170 141 52 89 458
shrinkage=0.317716


Tree=6
num_leaves=10
num_cat=1
split_feature=4 9 5 8 9 4 10 2 2
split_gain=0.562143 0.45523 1.52189 1.18511 0.674164 0.284282 0.075112 0.0424049 0.00515102
threshold=551.50000000000011 3.2500000000000004 130.75000000000003 4349.5000000000009 31.000000000000004 10.750000000000002 0 36.250000000000007 31.750000000000004
decision_type=2 2 2 2 2 2 5 2 2
left_child=1 2 3 6 -3 -4 -1 8 -6
right_child=-2 4 5 -5 7 -7 -8 -9 -10
leaf_value=-0 0.14466672254026283 -0.1287924227676075 0 -0.14567797431144722 0 0.19196034983016769 0.021229547970150784 0.035320502859989576 -0.014297356263714658
leaf_count=232 21 102 33 130 21 39 167 29 26
internal_value=0 -0.010984 0.0259803 -0.067073 -0.193615 0.450146 0.0146323 0 -0
internal_count=800 779 601 529 178 72 399 76 47
cat_boundaries=0 1
cat_threshold=1
shrinkage=0.317716


Tree=7
num_leaves=12
num_cat=0
split_feature=6 4 9 4 6 4 7 4 0 0 6
split_gain=0.63946 0.83144 0.822622 0.799151 0.519224 0.516428 0.376507 0.227837 0.0357263 0.0238879 0.00543598
threshold=63940.000000000007 31.750000000000004 3.2500000000000004 9.2500000000000018 3298.7500000000005 9.2500000000000018 494.50000000000006 235.75000000000003 16.750000000000004 7.7500000000000009 2479.0000000000005
decision_type=2 2 2 2 2 2 2 2 2 2 2
left_child=2 -2 3 6 -5 10 8 -7 9 -1 -4
right_child=1 -3 5 4 -6 7 -8 -9 -10 -11 -12
leaf_value=0 -0 0.18736627259656491 -0 0.19319704158981107 0 -0.17805393278833384 -0.091406576946766335 -0 0.032251887948297225 -0.025648228720950059 0.013944761206317706
leaf_count=341 20 32 32 36 47 64 96 28 24 49 31
internal_value=0 0.331635 -0.0253967 0.0303473 0.340252 -0.292605 -0.0221427 -0.436405 0 -0 0
internal_count=800 52 748 593 83 155 510 92 414 390 63
shrinkage=0.317716


Tree=8
num_leaves=7
num_cat=0
split_feature=5 3 4 5 5 5
split_gain=0.515744 0.346792 0.435284 0.140965 0.495602 0.471562
threshold=2056.0000000000005 4.7500000000000009 228.25000000000003 130.75000000000003 363.25000000000006 1.7500000000000002
decision_type=2 2 2 2 2 2
left_child=1 2 3 5 -5 -1
right_child=-2 -3 -4 4 -6 -7
leaf_value=0 0.11089950951819953 -0.090009002053077908 0.12473066855818141 0.090314935392412421 -0.020484437671951978 -0.10009249920005649
leaf_count=440 26 48 20 69 55 142
internal_value=0 -0.0175888 0 -0.0146571 0.0109125 -0.0829475
internal_count=800 774 726 706 124 582
shrinkage=0.317716


Tree=9
num_leaves=12
num_cat=0
split_feature=0 2 0 0 4 7 7 7 7 0 7
split_gain=0.376017 0.252548 0.335733 0.279575 0.208399 0.516082 0.184751 0.394071 0.30459 0.0271056 0.000891437
threshold=16.750000000000004 33.250000000000007 1.7500000000000002 4.7500000000000009 157.00000000000003 12487.750000000002 3793.0000000000005 50557.750000000007 418.00000000000006 19.750000000000004 143.50000000000003
decision_type=2 2 2 2 2 2 2 2 2 2 2
left_child=1 3 4 6 5 10 8 -8 -1 -2 -3
right_child=9 2 -4 -5 -6 -7 7 -9 -10 -11 -12
leaf_value=-0 0.10576985805284167 0 0.083424690921062764 -0.093699028452210301 -0.081189240858325282 0.13839705706475416 -0.10648953452431281 0 0.095201743975110276 0 -0.005222053780664487
leaf_count=307 21 27 56 111 35 20 93 25 47 24 34
internal_value=0 -0.0195424 0.0441254 -0.102119 -0 0 -0 -0.14312 0.0437374 0.265133 -0.00212297
internal_count=800 755 172 583 116 81 472 118 354 45 61
shrinkage=0.317716


Tree=10
num_leaves=10
num_cat=1
split_feature=7 7 2 4 3 4 7 7 10
split_gain=0.267529 0.286489 0.207063 0.758675 0.164988 0.0600164 0.00984786 0.169845 0.0899326
threshold=50557.750000000007 22425.250000000004 37.750000000000007 6.2500000000000009 1.7500000000000002 157.00000000000003 8507.5000000000018 1863.2500000000002 0
decision_type=2 2 2 2 2 2 2 2 5
left_child=1 2 4 -4 6 -5 7 8 -1
right_child=-2 -3 3 5 -6 -7 -8 -9 -10
leaf_value=-0.018409941006818073 0.070977164646647647 -0.094213438591718462 -0.00054137444990223142 0.15131293070472729 -0.060160213867880209 0 -0.011122741339823385 0.061287512833482195 0.011081245581685975
leaf_count=278 33 39 27 33 75 26 25 76 188
internal_value=0 -0.0154016 0 0.162544 -0.0267906 0.397792 0 0.018209 -0
internal_count=800 767 728 86 642 59 567 542 466
cat_boundaries=0 1
cat_threshold=1
shrinkage=0.317716


Tree=11
num_leaves=11
num_cat=0
split_feature=4 2 7 5 2 4 7 7 4 7
split_gain=0.271552 0.305524 0.386489 0.253135 0.203627 0.557985 0.191939 0.0770735 0.0572459 0.0360791
threshold=551.50000000000011 4.0000000000000009 4510.7500000000009 24.250000000000004 33.250000000000007 187.00000000000003 3793.0000000000005 98.500000000000014 97.750000000000014 19.750000000000004
decision_type=2 2 2 2 2 2 2 2 2 2
left_child=1 3 7 9 8 -6 -5 -3 -4 -1
right_child=-2 2 4 6 5 -7 -8 -9 -10 -11
leaf_value=0 0.094409651213806969 -0 -0.075373364089926578 0.11499238621682334 0.10275082850233357 -0 0 -0.12265093697960107 -0 -0.036192955380642232
leaf_count=352 21 75 31 37 52 23 49 78 23 59
internal_value=0 -0.0197777 -0.131347 0.0223903 0 0.110215 0.207201 -0.288035 -0.153889 -0
internal_count=800 779 282 497 129 75 86 153 54 411
shrinkage=0.317716


Tree=12
num_leaves=10
num_cat=0
split_feature=0 6 5 3 6 3 7 5 0
split_gain=0.277303 0.314156 0.207315 0.627411 0.193802 0.228427 0.207026 0.238493 0.125581
threshold=16.750000000000004 88531.000000000015 363.25000000000006 3.2500000000000004 250.75000000000003 1.7500000000000002 8507.5000000000018 12.250000000000002 1.7500000000000002
decision_type=2 2 2 2 2 2 2 2 2
left_child=1 2 4 -4 -1 6 7 -6 -7
right_child=-2 -3 3 -5 5 8 -8 -9 -10
leaf_value=-0.036690616547564565 0.066077824479408007 0.03527024674168544 -0.16182559420614512 0 -0 -0.064866407579058885 -0 0.11206925529828365 0
leaf_count=414 45 38 42 22 62 36 44 77 20
internal_value=0 -0.0373416 -0.100025 -0.278346 -0 0.0310625 0.158158 0.24398 -0
internal_count=800 755 717 64 653 239 183 139 56
shrinkage=0.317716


Tree=13
num_leaves=12
num_cat=0
split_feature=5 5 4 5 2 8 8 4 5 7 7
split_gain=0.251972 0.391034 0.302012 0.403518 0.148434 0.514316 0.233738 0.114477 0.389493 0.197158 0.0818942
threshold=1502.5000000000002 1.7500000000000002 22.750000000000004 913.75000000000011 33.250000000000007 1.7500000000000002 1062.2500000000002 6.2500000000000009 244.00000000000003 5950.0000000000009 15.250000000000002
decision_type=2 2 2 2 2 2 2 2 2 2 2
left_child=1 4 7 -4 5 -1 -6 8 10 -9 -3
right_child=-2 2 3 -5 6 -7 -8 9 -10 -11 -12
leaf_value=0.0250881695034984 0.064853149026646864 -0 -0.14058233402035311 0 -0 -0.1105731126478101 0.11906329121456412 0.079550145798737523 0 -0 -0.12084631954061439
leaf_count=317 35 29 89 28 25 81 26 27 29 37 77
internal_value=0 -0.0323173 -0.150804 -0.297053 0.0267535 -0 0.200978 -0 -0.110769 0.0723099 -0.312634
internal_count=800 765 316 117 449 398 51 199 135 64 106
shrinkage=0.317716


Tree=14
num_leaves=11
num_cat=1
split_feature=10 9 7 5 9 7 9 7 0 0
split_gain=0.225319 0.582316 0.469683 0.380498 0.520018 0.309558 0.210365 0.195109 0.149475 0.0397032
threshold=0 1.7500000000000002 18608.500000000004 1.7500000000000002 72.250000000000014 6916.0000000000009 3.2500000000000004 12487.750000000002 6.2500000000000009 10.750000000000002
decision_type=5 2 2 2 2 2 2 2 2 2
left_child=2 5 3 8 -5 -2 -4 -3 -1 -10
right_child=1 7 6 4 -6 -7 -8 -9 9 -11
leaf_value=-0.036254236130124039 0.11172140944852978 -0.078870211672788668 0.090216851057142694 -0.13456226266274238 0 -0 -0 0 0.062300642576946882 0
leaf_count=226 185 50 22 152 25 28 32 20 28 32
internal_value=0 0.0759348 -0.0495692 -0.17107 -0.314062 0.272961 0.0668049 -0 -0 0.105455
internal_count=800 283 517 463 177 213 54 70 286 60
cat_boundaries=0 2
cat_threshold=1052673 268435456
shrinkage=0.317716


Tree=15
num_leaves=10
num_cat=0
split_feature=4 9 9 4 8 4 8 4 8
split_gain=0.19891 0.159591 0.219631 0.141702 0.291044 0.14799 0.0690054 0.059341 0.0175278
threshold=551.50000000000011 3.2500000000000004 31.000000000000004 9.2500000000000018 1.7500000000000002 97.750000000000014 14116.750000000002 1.7500000000000002 24851.500000000004
decision_type=2 2 2 2 2 2 2 2 2
left_child=1 3 7 4 -1 -5 -6 -3 -8
right_child=-2 2 -4 5 6 -7 8 -9 -10
leaf_value=0.0043396867728868541 0.081217522611983145 -0 0 0.066365180259228274 -0.08870419264776043 -0 0 -0.097776081046667948 -0.022294615259124136
leaf_count=321 21 32 76 63 104 22 31 70 60
internal_value=0 -0.0134403 -0.124565 0 -0.00965253 0.133889 -0.184829 -0.260959 -0
internal_count=800 779 178 601 516 85 195 102 91
shrinkage=0.317716


Tree=16
num_leaves=13
num_cat=0
split_feature=6 4 9 4 2 4 8 6 2 0 8 6
split_gain=0.161439 0.452259 0.414539 0.349923 0.890352 0.246829 0.249759 0.302555 0.246613 0.0959538 0.0196017 0.00121519
threshold=63940.000000000007 48.250000000000007 3.2500000000000004 9.2500000000000018 4.0000000000000009 9.2500000000000018 1.7500000000000002 4735.7500000000009 37.750000000000007 12.250000000000002 31623.250000000004 14209.750000000002
decision_type=2 2 2 2 2 2 2 2 2 2 2 2
left_child=2 -2 5 10 -5 6 9 -8 -7 -1 -4 -9
right_child=1 -3 3 4 -6 8 7 11 -10 -11 -12 -13
leaf_value=-0 -0 0.12516672227080333 -0 0 -0.1822834674020449 -0 -0.10559079905375059 0.0065853382900875621 0.1099522551029336 0.04908234197401911 0.027366862166461264 -0
leaf_count=290 25 27 38 20 72 52 132 26 31 31 25 31
internal_value=0 0.157701 -0.0179139 -0.221593 -0.354417 0.00499532 -0.00138703 -0.182569 0.181199 0.00973474 0 0
internal_count=800 52 748 155 92 593 510 189 83 321 63 57
shrinkage=0.317716


Tree=17
num_leaves=11
num_cat=0
split_feature=5 5 0 0 7 3 7 5 5 0
split_gain=0.194879 0.112625 0.575169 0.570637 0.3783 0.436273 0.200193 0.189552 0.264692 0.0348635
threshold=2056.0000000000005 1.7500000000000002 4.7500000000000009 6.2500000000000009 5950.0000000000009 1.7500000000000002 18608.500000000004 24.250000000000004 363.25000000000006 13.750000000000002
decision_type=2 2 2 2 2 2 2 2 2 2
left_child=1 3 4 -1 5 7 -6 -3 -9 -5
right_child=-2 2 -4 9 6 -7 -8 8 -10 -11
leaf_value=-0.028911227328093533 0.066342314589799486 -0 -0.11927864433928442 0.11046764224969503 -0.087571242415000708 -0 0 0.16489527580430816 -0 0
leaf_count=343 26 41 68 64 69 37 45 43 22 42
internal_value=0 -0.0110358 -0.0811713 0 0 0.179177 -0.129965 0.331575 0.409025 0.243926
internal_count=800 774 325 449 257 143 114 106 65 106
shrinkage=0.317716


Tree=18
num_leaves=11
num_cat=0
split_feature=0 6 6 4 5 6 7 0 7 7
split_gain=0.135868 0.135639 0.0705134 0.265123 0.65844 0.156639 0.241488 0.0521425 0.00665332 0.00106825
threshold=16.750000000000004 250.75000000000003 8197.0000000000018 22.750000000000004 12.250000000000002 88531.000000000015 20461.750000000004 19.750000000000004 3302.5000000000005 8083.0000000000009
decision_type=2 2 2 2 2 2 2 2 2 2
left_child=1 -1 3 4 -3 6 8 -2 -4 -10
right_child=7 2 5 -5 -6 -7 -8 -9 9 -11
leaf_value=-0.03266648146666646 0.070633563041341718 -0 -0.0077899157991607199 -0 0.15368827369047655 0.014768755243493551 -0.09405316095653117 0 0.012657181758718286 0
leaf_count=420 21 61 44 38 37 38 46 24 48 23
internal_value=0 -0.0137613 0 0.0977723 0.239798 -0 -0.117948 0.154381 0 0.0296379
internal_count=800 755 335 136 98 199 161 45 115 71
shrinkage=0.317716


Tree=19
num_leaves=8
num_cat=1
split_feature=7 7 10 4 4 6 6
split_gain=0.14308 0.165044 0.111064 0.820381 0.315919 0.184038 0.0104541
threshold=50557.750000000007 22425.250000000004 0 235.75000000000003 134.50000000000003 6835.7500000000009 12943.000000000002
decision_type=2 2 5 2 2 2 2
left_child=1 2 3 5 6 -1 -4
right_child=-2 -3 4 -5 -6 -7 -8
leaf_value=-0.07815347651677948 0.050936187788283627 -0.074904053684092767 0.067794796944763966 0.10316369823341627 -0 -0 0
leaf_count=368 33 39 203 20 21 81 35
internal_value=0 -0.0152405 0 -0.0369393 0.0556168 -0.185248 0.189394
internal_count=800 767 728 469 259 449 238
cat_boundaries=0 2
cat_threshold=1052673 268435456
shrinkage=0.317716


Tree=20
num_leaves=12
num_cat=0
split_feature=0 9 9 4 4 0 9 2 0 0 4
split_gain=0.0794142 0.077831 0.0927298 0.0392169 0.0324183 0.0249279 0.0128353 0.00502254 0.0420613 0.0598164 0.110034
threshold=16.750000000000004 28.750000000000004 3.2500000000000004 1.7500000000000002 6.2500000000000009 19.750000000000004 145.75000000000003 40.750000000000007 7.7500000000000009 3.2500000000000004 3.2500000000000004
decision_type=2 2 2 2 2 2 2 2 2 2 2
left_child=1 2 7 -4 -3 -2 -6 8 9 10 -1
right_child=5 4 3 -5 6 -7 -8 -9 -10 -11 -12
leaf_value=0 0.052175675296813939 -0 0 -0.07093471941356104 0.033734717065211056 0 0 0 -0.031648826317473629 0.035350554518506536 -0.046826869753991363
leaf_count=323 21 27 31 68 38 24 22 27 73 79 67
internal_value=0 -0.00846705 -0.0551642 -0.182688 0 0.118045 0.075818 -0 -0.0158578 0 -0.0232554
internal_count=800 755 668 99 87 45 60 569 542 469 390
shrinkage=0.317716


Tree=21
num_leaves=9
num_cat=0
split_feature=6 9 0 9 7 6 0 8
split_gain=0.0955721 0.495573 0.242568 0.0875599 0.0844079 0.210006 0.0445264 0.0324602
threshold=25320.250000000004 3.2500000000000004 1.7500000000000002 21.250000000000004 676.00000000000011 22.000000000000004 1.7500000000000002 1.7500000000000002
decision_type=2 2 2 2 2 2 2 2
left_child=1 4 3 -2 5 7 -6 -1
right_child=2 -3 -4 -5 6 -7 -8 -9
leaf_value=0.0062957462327821222 -0.046189926996381407 -0.10234656131566494 0.078043702228022732 0.013567897353142342 0 0.075268687628750691 -0.040807766104331261 -0.03229112712896829
leaf_count=323 32 117 36 43 76 76 47 50
internal_value=0 -0.0166402 0.0892218 -0 0 0.0691362 -0.0125132 -0
internal_count=800 689 111 75 572 449 123 373
shrinkage=0.317716


Tree=22
num_leaves=10
num_cat=0
split_feature=8 8 9 9 2 8 8 8 8
split_gain=0.0590401 0.292283 0.217573 0.0767668 0.0424271 0.139682 0.106236 0.039078 0.0122502
threshold=167644.00000000003 268807.50000000006 3.2500000000000004 72.250000000000014 40.750000000000007 631.00000000000011 14116.750000000002 24851.500000000004 346413.00000000006
decision_type=2 2 2 2 2 2 2 2 2
left_child=2 -2 4 -4 5 -1 -7 -8 -3
right_child=1 8 3 -5 -6 6 7 -9 -10
leaf_value=0.0057259089353456421 0.091331196121004404 -0.021904371570929945 -0.093572449538030136 -0 0.032898962590285727 -0.074703287263278711 0.01657722574969258 -0.027923299606070737 0
leaf_count=338 34 22 88 40 27 108 42 64 37
internal_value=0 0.0756713 -0.0127606 -0.205181 0 -0 -0.119499 -0 -0
internal_count=800 93 707 128 579 552 214 106 59
shrinkage=0.317716


Tree=23
num_leaves=10
num_cat=0
split_feature=5 5 9 4 2 6 8 8 8
split_gain=0.0899569 0.127954 0.120274 0.294591 0.0613308 0.18593 0.162839 0.0423038 0.0528949
threshold=2056.0000000000005 1.7500000000000002 28.750000000000004 36.250000000000007 33.250000000000007 937.75000000000011 1.7500000000000002 24851.500000000004 14116.750000000002
decision_type=2 2 2 2 2 2 2 2 2
left_child=1 4 3 7 6 -6 -1 8 -3
right_child=-2 2 -4 -5 5 -7 -8 -9 -10
leaf_value=0.0066687198229078157 0.044608824639542528 -0 0 -0.10612746703827983 -0 0.094248805681298037 -0.071428301511590381 -0.022471043142310979 0.041323721691501732
leaf_count=317 26 51 67 74 31 20 81 104 29
internal_value=0 -0.0070889 -0.0862913 -0.136164 0.0030968 0.123392 -0 -0 0.0475181
internal_count=800 774 325 258 449 51 398 184 80
shrinkage=0.317716


Tree=24
num_leaves=11
num_cat=1
split_feature=7 7 8 9 9 8 8 9 5 10
split_gain=0.054078 0.0886575 0.055178 0.309112 0.139443 0.0658165 0.137717 0.0565266 0.0383838 0.000635213
threshold=50557.750000000007 22425.250000000004 86419.000000000015 1.7500000000000002 1.7500000000000002 24851.500000000004 9349.0000000000018 31.000000000000004 303.25000000000006 0
decision_type=2 2 2 2 2 2 2 2 2 5
left_child=1 2 3 5 -4 6 9 -6 -5 -1
right_child=-2 -3 4 8 7 -7 -8 -9 -10 -11
leaf_value=-0 0.031777969782394673 -0.055473682733117438 -0 -0.099399670207135485 0.094046447925237794 -0.0046858704043160719 0.064847242728864704 0 -0 0.0018704122202629293
leaf_count=266 33 39 20 104 23 55 44 22 26 168
internal_value=0 -0.00039521 0 -0.00382328 0.092811 0 0.0575344 0.208733 -0.262995 0
internal_count=800 767 728 663 65 533 478 45 130 434
cat_boundaries=0 1
cat_threshold=1048577
shrinkage=0.317716


Tree=25
num_leaves=11
num_cat=1
split_feature=6 9 2 2 10 6 6 2 8 8
split_gain=0.0476932 0.13831 0.199153 0.0560236 0.0130934 0.0896778 0.0764109 0.0471823 0.0712779 0.08876
threshold=63940.000000000007 3.2500000000000004 4.0000000000000009 33.250000000000007 0 5054.5000000000009 250.75000000000003 37.750000000000007 1.7500000000000002 22486.000000000004
decision_type=2 2 2 2 5 2 2 2 2 2
left_child=1 4 -3 -4 7 6 -6 8 -1 -10
right_child=-2 2 3 -5 5 -7 -8 -9 9 -11
leaf_value=0 0.027429239989412709 0 -0.10720001619860728 -0 0 -0 0.080824624137091586 0 -0.080507840531892472 -0
leaf_count=199 52 32 55 68 157 42 30 29 83 53
internal_value=0 -0.00734584 -0.13498 -0.23071 0 0.0243354 0.111464 -0 -0.0645593 -0.14457
internal_count=800 748 155 123 593 229 187 364 335 136
cat_boundaries=0 1
cat_threshold=1048577
shrinkage=0.317716


Tree=26
num_leaves=10
num_cat=0
split_feature=5 5 7 5 5 7 5 2 6
split_gain=0.0634343 0.104534 0.0505499 0.169637 0.031979 0.107105 0.0413504 0.0277966 0.100193
threshold=2056.0000000000005 1.7500000000000002 510.25000000000006 100.00000000000001 187.75000000000003 5950.0000000000009 913.75000000000011 33.250000000000007 937.75000000000011
decision_type=2 2 2 2 2 2 2 2 2
left_child=1 7 -3 -4 -5 -6 -7 -1 -9
right_child=-2 2 3 4 5 6 -8 8 -10
leaf_value=-0 0.037606744634500755 0 -0.09698826488608947 0.0051073678415063939 0 -0.066412208973894424 -0 -0 0.066371537099831082
leaf_count=398 26 69 96 36 32 70 22 31 20
internal_value=0 -0.00381697 -0.078426 -0.103556 -0 -0.0594971 -0.1459 0 0.0823034
internal_count=800 774 325 256 160 124 92 449 51
shrinkage=0.317716


Tree=27
num_leaves=10
num_cat=1
split_feature=0 6 10 7 6 4 7 6 0
split_gain=0.0457137 0.0513267 0.671715 0.348098 0.301726 0.228609 0.0703116 0.0253306 0.0185702
threshold=16.750000000000004 88531.000000000015 0 24091.000000000004 4735.7500000000009 19.750000000000004 14878.750000000002 319.00000000000006 19.750000000000004
decision_type=2 2 5 2 2 2 2 2 2
left_child=1 2 3 4 7 -6 -4 -1 -2
right_child=8 -3 6 -5 5 -7 -8 -9 -10
leaf_value=0.017546174718803157 0.041486257712310778 0.00063195311603784176 -0.12041275979359914 -0.0089343091772290575 0.15028828585541498 0 -0 -0 0
leaf_count=282 21 38 215 35 56 32 23 74 24
internal_value=0 -0 -0.0432431 0.0477679 0.168694 0.352705 -0.177107 0 0.0910016
internal_count=800 755 717 479 444 88 238 356 45
cat_boundaries=0 2
cat_threshold=2359361 1
shrinkage=0.317716


Tree=28
num_leaves=9
num_cat=1
split_feature=10 4 6 8 9 9 6 4
split_gain=0.0465337 0.265552 0.282106 0.234909 0.611967 0.164901 0.163622 0.0687942
threshold=0 235.75000000000003 88531.000000000015 631.00000000000011 6.2500000000000009 1.7500000000000002 14209.750000000002 112.75000000000001
decision_type=5 2 2 2 2 2 2 2
left_child=1 2 3 -1 -5 6 -2 -7
right_child=5 -3 -4 4 -6 7 -8 -9
leaf_value=-0 0.064220190728243684 0.040895566242185141 0 -0.13161666312738662 0 -0.049540336898264245 -0 0
leaf_count=230 188 30 22 184 51 48 25 22
internal_value=0 -0.00914313 -0.1042 -0.171073 -0.270473 0.0420266 0.142314 -0
internal_count=800 517 487 465 235 283 213 70
cat_boundaries=0 2
cat_threshold=1052673 268435456
shrinkage=0.317716


Tree=29
num_leaves=7
num_cat=0
split_feature=5 6 6 6 4 4
split_gain=0.051056 0.0231243 0.203938 0.0758685 0.0640665 0.125882
threshold=2056.0000000000005 8197.0000000000018 25320.250000000004 250.75000000000003 3.2500000000000004 22.750000000000004
decision_type=2 2 2 2 2 2
left_child=1 3 -3 -1 -5 -6
right_child=-2 2 -4 4 5 -7
leaf_value=-0 0.033852297900511391 -0.074414155851419195 0 -0 0.081321263653277895 -0
leaf_count=450 26 92 89 74 29 40
internal_value=0 -0 -0.0453217 0 0.0990863 0.156442
internal_count=800 774 181 593 143 69
shrinkage=0.317716


Tree=30
num_leaves=9
num_cat=0
split_feature=4 6 6 6 6 2 5 6
split_gain=0.0396637 0.147954 0.136618 0.0107384 0.00446791 0.0390393 0.0170412 0.0652157
threshold=48.250000000000007 63940.000000000007 48773.500000000007 2554.0000000000005 8890.7500000000018 33.250000000000007 12.250000000000002 742.00000000000011
decision_type=2 2 2 2 2 2 2 2
left_child=4 2 3 -2 6 -6 -1 -8
right_child=1 -3 -4 -5 5 -7 7 -9
leaf_value=-0 -0 0.067712704735622645 -0.063686818177620258 0.025602167687983672 -0.030880331366925459 0 -0 0.043221802428285896
leaf_count=460 22 27 21 64 83 37 46 40
internal_value=0 0.0626245 -0 0.0592352 -0 -0.0242495 0 0.0550854
internal_count=800 134 107 86 666 120 546 86
shrinkage=0.317716


Tree=31
num_leaves=8
num_cat=1
split_feature=7 7 10 4 4 6 6
split_gain=0.0315311 0.0370657 0.0212358 0.278685 0.0685639 0.0526108 0.0189009
threshold=50557.750000000007 22425.250000000004 0 235.75000000000003 90.250000000000014 14209.750000000002 51271.000000000007
decision_type=2 2 5 2 2 2 2
left_child=1 2 3 6 5 -4 -1
right_child=-2 -3 4 -5 -6 -7 -8
leaf_value=-0.040734627898060143 0.024340147474771683 -0.03698541145017404 0.038990428862480726 0.048966124928927358 -0 -0 -0
leaf_count=429 33 39 201 20 30 28 20
internal_value=0 -0 0 -0.00586032 0.0294126 0.0923485 -0.116123
internal_count=800 767 728 469 259 229 449
cat_boundaries=0 2
cat_threshold=1052673 268435456
shrinkage=0.317716


Tree=32
num_leaves=9
num_cat=0
split_feature=5 5 0 0 6 0 6 6
split_gain=0.020469 0.0357574 0.291925 0.163158 0.241175 0.0608365 0.104874 0.115499
threshold=2056.0000000000005 1.7500000000000002 4.7500000000000009 6.2500000000000009 22.000000000000004 1.7500000000000002 8197.0000000000018 88531.000000000015
decision_type=2 2 2 2 2 2 2 2
left_child=1 3 5 -1 -5 6 -3 -8
right_child=-2 2 -4 4 -6 -7 7 -9
leaf_value=-0.0023651866602605706 0.021318850860650315 0 -0.08790511778353545 0 0.11231179564060481 0.045002137824982309 -0.065834002653638424 0
leaf_count=343 26 95 68 82 24 24 107 31
internal_value=0 -0 -0.0467391 0 0.138351 0 -0.000871021 -0.117277
internal_count=800 774 325 449 106 257 233 138
shrinkage=0.317716


Tree=33
num_leaves=8
num_cat=0
split_feature=8 8 8 8 8 6 7
split_gain=0.0252553 0.143566 0.0499918 0.0204152 0.0590835 0.0121963 0.00311538
threshold=86419.000000000015 268807.50000000006 24851.500000000004 9349.0000000000018 1.7500000000000002 88531.000000000015 24091.000000000004
decision_type=2 2 2 2 2 2 2
left_child=2 6 3 4 -1 -3 -2
right_child=1 5 -4 -5 -6 -7 -8
leaf_value=0 0.058082327509181922 -0.018931307754437639 -0.032916195180863521 0.019911807744474774 -0.032400442564110198 0 0
leaf_count=331 54 35 121 62 151 24 22
internal_value=0 0.0462842 -0 0 -0 -0 0.159318
internal_count=800 135 665 544 482 59 76
shrinkage=0.317716


Tree=34
num_leaves=9
num_cat=1
split_feature=0 0 6 10 4 4 6 6
split_gain=0.020365 0.0196692 0.0111214 0.568407 0.294366 0.00464488 0.00173165 0.0133436
threshold=16.750000000000004 19.750000000000004 88531.000000000015 0 22.750000000000004 235.75000000000003 2479.0000000000005 319.00000000000006
decision_type=2 2 2 5 2 2 2 2
left_child=2 -2 3 4 6 -6 7 -1
right_child=1 -3 -4 -5 5 -7 -8 -9
leaf_value=0.013407189866500999 0.032823913834513586 -0 0 -0.049739532971397334 -0.011589489089161943 0 0.086747073240465947 -0
leaf_count=265 21 24 38 238 60 24 93 37
internal_value=0 0.06067 -0 -0.0204869 0.0531464 -0 0.17776 0
internal_count=800 45 755 717 479 84 395 302
cat_boundaries=0 2
cat_threshold=2359361 1
shrinkage=0.317716


Tree=35
num_leaves=8
num_cat=0
split_feature=4 8 5 5 5 4 7
split_gain=0.0210772 0.117432 0.116823 0.0484176 0.108779 0.0556973 0.0529968
threshold=6.2500000000000009 1.7500000000000002 244.00000000000003 187.75000000000003 913.75000000000011 9.2500000000000018 11956.000000000002
decision_type=2 2 2 2 2 2 2
left_child=1 -1 -3 5 -5 -2 -6
right_child=3 2 -4 4 6 -7 -8
leaf_value=0 -0 -0.061115827601718166 0 -0.047454060979979201 -0 0.044339906239294603 0.034945087330783102
leaf_count=328 21 210 29 67 22 82 41
internal_value=0 -0 -0.116994 0.0360244 -0 0.0964869 0.0567202
internal_count=800 567 239 233 130 103 63
shrinkage=0.317716


Tree=36
num_leaves=10
num_cat=1
split_feature=10 7 5 8 5 2 8 7 6
split_gain=0.0120072 0.120157 0.218653 0.0808192 0.177136 0.14794 0.271993 0.0387107 0.0012302
threshold=0 71.500000000000014 913.75000000000011 86419.000000000015 387.25000000000006 37.750000000000007 1.7500000000000002 2048.5000000000005 63940.000000000007
decision_type=5 2 2 2 2 2 2 2 2
left_child=3 -2 7 5 -5 6 -1 -3 -6
right_child=1 2 -4 4 8 -7 -8 -9 -10
leaf_value=0 0.04150624412603942 -0 0.037224704165786465 0.069658777601643934 -0.0061625147519490968 0 -0.095373570333297519 -0.071941502550894931 0
leaf_count=205 154 39 21 33 28 52 175 69 24
internal_value=0 0.0218927 -0 -0 0 -0.0763666 -0.142676 -0.171966 -0
internal_count=800 283 129 517 85 432 380 108 52
cat_boundaries=0 2
cat_threshold=1052673 268435456
shrinkage=0.317716


Tree=37
num_leaves=9
num_cat=0
split_feature=0 5 0 2 2 5 7 0
split_gain=0.0136646 0.0837291 0.148192 0.0440135 0.155358 0.0240403 0.0771758 0.0146638
threshold=6.2500000000000009 3.2500000000000004 13.750000000000002 4.0000000000000009 39.250000000000007 24.250000000000004 3793.0000000000005 1.7500000000000002
decision_type=2 2 2 2 2 2 2 2
left_child=3 2 -2 5 7 -1 -7 -5
right_child=1 -3 -4 4 -6 6 -8 -9
leaf_value=-0 0.074318982194664499 -0 -0 -0.055835631058273341 0 0.053031346689322405 -0 -0
leaf_count=324 64 56 42 138 63 33 50 30
internal_value=0 0.0356906 0.106638 -0 -0.058678 0 0.0624706 -0.152171
internal_count=800 162 106 638 231 407 83 168
shrinkage=0.317716


Tree=38
num_leaves=8
num_cat=0
split_feature=4 2 4 2 4 8 5
split_gain=0.0116719 0.0714797 0.130338 0.0654516 0.0605504 0.0330809 0.0892675
threshold=6.2500000000000009 37.750000000000007 157.00000000000003 4.0000000000000009 21.250000000000004 1.7500000000000002 244.00000000000003
decision_type=2 2 2 2 2 2 2
left_child=5 3 -3 4 -2 -1 -7
right_child=1 2 -4 -5 -6 6 -8
leaf_value=0 -0 0.06256358997380751 -0 -0.029375579153026733 0.041680238926469299 -0.045471764075536616 0
leaf_count=328 22 38 31 102 40 210 29
internal_value=0 0.0268603 0.107948 -0 0.0465408 -0 -0.0636894
internal_count=800 233 69 164 62 567 239
shrinkage=0.317716


Tree=39
num_leaves=6
num_cat=1
split_feature=1 7 7 4 9
split_gain=0.013647 0.189488 0.172359 0.123177 0.021007
threshold=0 39.250000000000007 15.250000000000002 81.250000000000014 145.75000000000003
decision_type=5 2 2 2 2
left_child=2 -2 -1 -4 -3
right_child=1 4 3 -5 -6
leaf_value=0 -0 0.043288176806694584 -0.083748959820435273 0 0
leaf_count=354 78 168 128 51 21
internal_value=0 0.0225481 -0 -0.15926 0.122875
internal_count=800 267 533 179 189
cat_boundaries=0 3
cat_threshold=1073741827 0 2
shrinkage=0.317716


Tree=40
num_leaves=7
num_cat=0
split_feature=5 5 7 0 0 7
split_gain=0.0115537 0.0369319 0.0291601 0.00883888 0.0900514 0.00682268
threshold=2056.0000000000005 26.500000000000004 5950.0000000000009 19.750000000000004 6.2500000000000009 18608.500000000004
decision_type=2 2 2 2 2 2
left_child=1 3 -3 4 -1 -4
right_child=-2 2 5 -5 -6 -7
leaf_value=-0 0.016058789652031762 -0 -0.040975957011772438 -0 0.036012726151713179 -0
leaf_count=401 26 115 78 21 111 48
internal_value=0 -0 -0.0511195 0 0.022952 -0.092707
internal_count=800 774 241 533 512 126
shrinkage=0.317716


Tree=41
num_leaves=6
num_cat=0
split_feature=5 5 6 7 6
split_gain=0.0068511 0.0254253 0.0232826 0.0339576 0.0117766
threshold=2056.0000000000005 26.500000000000004 2790.2500000000005 5950.0000000000009 22.000000000000004
decision_type=2 2 2 2 2
left_child=1 4 -3 -4 -1
right_child=-2 2 3 -5 -6
leaf_value=-0 0.012331479473994319 0 -0 -0.034758769697983125 0.014533889850504227
leaf_count=408 26 42 87 112 125
internal_value=0 -0 -0.0425459 -0.0635792 0
internal_count=800 774 241 199 533
shrinkage=0.317716


Tree=42
num_leaves=7
num_cat=0
split_feature=6 0 7 7 6 6
split_gain=0.00600975 0.038972 0.0374795 0.134915 0.0248729 0.00389159
threshold=25320.250000000004 1.7500000000000002 676.00000000000011 14878.750000000002 1235.5000000000002 22.000000000000004
decision_type=2 2 2 2 2 2
left_child=2 -2 5 4 -4 -1
right_child=1 -3 3 -5 -6 -7
leaf_value=-0 -0 0.028456323897782309 -0 0 -0.069633573205271637 0.0082842242522028885
leaf_count=400 75 36 45 40 114 90
internal_value=0 0.0233751 -0 -0.0707882 -0.177365 0
internal_count=800 111 689 199 159 490
shrinkage=0.317716


Tree=43
num_leaves=7
num_cat=0
split_feature=7 7 6 8 6 8
split_gain=0.0035078 0.0135656 0.0053933 0.052694 0.0289635 0.0258398
threshold=50557.750000000007 22425.250000000004 250.75000000000003 1.7500000000000002 98004.250000000015 9349.0000000000018
decision_type=2 2 2 2 2 2
left_child=1 2 3 -1 5 -4
right_child=-2 -3 4 -5 -6 -7
leaf_value=0 0.0080610756264567311 -0.022902925912973302 -0 -0.037635458472345999 -0 0.022826383637815285
leaf_count=331 33 39 52 119 21 205
internal_value=0 -0 0 -0 0.0190477 0.0503163
internal_count=800 767 728 450 278 257
shrinkage=0.317716


Tree=44
num_leaves=5
num_cat=0
split_feature=7 7 6 6
split_gain=0.00200419 0.00969784 0.000134252 0.0142818
threshold=50557.750000000007 22425.250000000004 250.75000000000003 98004.250000000015
decision_type=2 2 2 2
left_child=1 2 -1 -4
right_child=-2 -3 3 -5
leaf_value=-0 0.0060830871566775174 -0.019463018447976887 0.010303048122204363 -0
leaf_count=450 33 39 257 21
internal_value=0 -0 0 0.00299134
internal_count=800 767 728 278
shrinkage=0.317716


Tree=45
num_leaves=8
num_cat=1
split_feature=10 5 5 5 5 5 5
split_gain=0.00088514 0.0194625 0.0164683 0.0115198 0.0958188 0.0128007 0.0111688
threshold=0 913.75000000000011 26.500000000000004 100.00000000000001 1.7500000000000002 363.25000000000006 1502.5000000000002
decision_type=5 2 2 2 2 2 2
left_child=3 2 -2 4 -1 -5 -7
right_child=1 -3 -4 5 -6 6 -8
leaf_value=0 0.00438813470143093 0.023347431567597849 -0.017365336751974384 0.015237583313666963 -0.059919913787072177 -0.018278573381142138 0
leaf_count=288 188 21 74 64 100 40 25
internal_value=0 0.00541927 -0 -0.0021749 -0.0318944 0 -0
internal_count=800 283 262 517 388 129 65
cat_boundaries=0 2
cat_threshold=1052673 268435456
shrinkage=0.317716


Tree=46
num_leaves=10
num_cat=0
split_feature=0 0 5 5 5 6 5 6 0
split_gain=0.0014673 0.0304822 0.320536 0.0109305 0.0817215 0.11036 0.00725136 0.00684668 0.00545941
threshold=16.750000000000004 4.7500000000000009 3.2500000000000004 12.250000000000002 363.25000000000006 63940.000000000007 100.00000000000001 29102.500000000004 19.750000000000004
decision_type=2 2 2 2 2 2 2 2 2
left_child=1 3 -3 -1 6 7 -5 -6 -2
right_child=8 2 -4 4 5 -7 -8 -9 -10
leaf_value=-0 0.013555655937848002 0 -0.10219709939172361 0 -0 0.012437754687023456 0.037239266755068057 -0.061996159733121864 -0
leaf_count=355 21 100 53 77 26 34 86 24 24
internal_value=0 -0 -0.0615363 0 0.0265877 -0 0.101375 -0.151843 0.0162093
internal_count=800 755 153 602 247 84 163 50 45
shrinkage=0.317716


Tree=47
num_leaves=7
num_cat=0
split_feature=7 0 7 7 0 0
split_gain=0.000919014 0.0118396 0.0538388 0.0181254 0.000625034 0.00367434
threshold=50557.750000000007 6.2500000000000009 5950.0000000000009 14878.750000000002 19.750000000000004 16.750000000000004
decision_type=2 2 2 2 2 2
left_child=1 2 -1 -4 5 -3
right_child=-2 4 3 -5 -6 -7
leaf_value=0 0.0041213111355638838 -0 -0.048330727289548021 -0 -0 0.010656677698689875
leaf_count=488 33 116 68 51 23 21
internal_value=0 -0 -0.0238727 -0.105073 0 0.00829466
internal_count=800 767 607 119 160 137
shrinkage=0.317716


Tree=48
num_leaves=4
num_cat=1
split_feature=10 0 0
split_gain=0.000684626 0.0222454 0.00914952
threshold=0 1.7500000000000002 1.7500000000000002
decision_type=5 2 2
left_child=1 -1 -2
right_child=2 -3 -4
leaf_value=-0.013887547142608241 0.010588336318563501 0 -0
leaf_count=345 193 172 90
internal_value=0 -0 0.00521384
internal_count=800 517 283
cat_boundaries=0 2
cat_threshold=1052673 268435456
shrinkage=0.317716


Tree=49
num_leaves=9
num_cat=0
split_feature=5 5 6 8 6 0 0 8
split_gain=0.0015251 0.0152605 0.0128799 0.0544442 0.00671676 0.0423303 0.0193975 0.0120406
threshold=2056.0000000000005 26.500000000000004 2790.2500000000005 101265.25000000001 22.000000000000004 10.750000000000002 3.2500000000000004 1.7500000000000002
decision_type=2 2 2 2 2 2 2 2
left_child=1 4 -3 -4 7 6 -6 -1
right_child=-2 2 3 -5 5 -7 -8 -9
leaf_value=0 0.0058181265282405701 0 0 -0.034343282512940942 0 -0 0.053830738761803304 -0.021552251624869616
leaf_count=328 26 42 109 90 74 26 25 80
internal_value=0 -0 -0.0332516 -0.0488064 0 0.0345566 0.109152 -0
internal_count=800 774 241 199 533 125 99 408
shrinkage=0.317716


Tree=50
num_leaves=7
num_cat=0
split_feature=6 0 7 7 6 6
split_gain=0.00596962 0.0262057 0.0250282 0.110581 0.00573426 0.000678924
threshold=25320.250000000004 1.7500000000000002 676.00000000000011 14878.750000000002 1235.5000000000002 22.000000000000004
decision_type=2 2 2 2 2 2
left_child=2 -2 5 4 -4 -1
right_child=1 -3 3 -5 -6 -7
leaf_value=-0 -0 0.024139424419822596 -0 0 -0.059967454765508181 0.0034533054729738643
leaf_count=400 75 36 45 40 114 90
internal_value=0 0.0234277 -0 -0.0585318 -0.159628 0
internal_count=800 111 689 199 159 490
shrinkage=0.317716


Tree=51
num_leaves=9
num_cat=0
split_feature=6 4 0 4 4 4 6 6
split_gain=0.00286453 0.0677679 0.00774862 0.259543 0.0394787 0.00911511 0.00257287 0.000367574
threshold=63940.000000000007 31.750000000000004 6.2500000000000009 22.750000000000004 4.7500000000000009 48.250000000000007 9748.0000000000018 4735.7500000000009
decision_type=2 2 2 2 2 2 2 2
left_child=2 -2 3 4 7 -4 -6 -1
right_child=1 -3 5 -5 6 -7 -8 -9
leaf_value=-0.0019918449963006752 -0 0.038274730214226699 -0 -0.06754437290765479 0.035068454691657126 0.017438904214289851 0 0
leaf_count=376 20 32 136 102 20 24 37 53
internal_value=0 0.0215805 -0 -0.0197556 0 0 0.0883277 -0
internal_count=800 52 748 588 486 160 57 429
shrinkage=0.317716


Tree=52
num_leaves=6
num_cat=0
split_feature=5 5 0 0 0
split_gain=0.0043938 0.00439831 0.0233612 0.000575339 0.0369982
threshold=2056.0000000000005 26.500000000000004 4.7500000000000009 19.750000000000004 6.2500000000000009
decision_type=2 2 2 2 2
left_child=1 3 -3 4 -1
right_child=-2 2 -4 -5 -6
leaf_value=-0 0.0099452848555223686 0 -0.028654867447622998 -0 0.021985472875787098
leaf_count=401 26 199 42 21 111
internal_value=0 -0 -0.0180051 0 0.00583966
internal_count=800 774 241 533 512
shrinkage=0.317716


Tree=53
num_leaves=8
num_cat=0
split_feature=6 8 7 8 7 8 4
split_gain=0.00388872 0.0385722 0.0361801 0.077657 0.0408666 0.0173562 0.112057
threshold=2479.0000000000005 268807.50000000006 3302.5000000000005 86419.000000000015 24091.000000000004 1.7500000000000002 9.2500000000000018
decision_type=2 2 2 2 2 2 2
left_child=5 2 -2 -4 -5 -1 -7
right_child=1 -3 3 4 -6 6 -8
leaf_value=0 -0 -0 -0 0.064391097659846463 0 -0.056595371399847459 0
leaf_count=331 83 59 71 45 22 143 46
internal_value=0 0.0151174 0.0592549 0.0983653 0.1572 -0 -0.0512073
internal_count=800 280 221 138 67 520 189
shrinkage=0.317716


Tree=54
num_leaves=8
num_cat=1
split_feature=7 10 7 7 7 7 7
split_gain=0.00126987 0.00377363 0.0202049 0.074228 0.0151149 0.0557163 0.00371428
threshold=50557.750000000007 0 8083.0000000000009 3302.5000000000005 71.500000000000014 11956.000000000002 18608.500000000004
decision_type=2 5 2 2 2 2 2
left_child=1 2 3 -1 -3 -6 -4
right_child=-2 4 6 -5 5 -7 -8
leaf_value=-0.011105109546919805 0.004867978837261009 0.013192119618953554 -0.034475450766788013 0.043719128348024855 -0.032860064528629974 0 -0
leaf_count=360 33 163 33 49 99 32 31
internal_value=0 -0 -0.0118857 0 0 -0 -0.0807826
internal_count=800 767 473 409 294 131 64
cat_boundaries=0 1
cat_threshold=1048577
shrinkage=0.317716


end of trees

feature importances:
n_table_1.n_15=67
n_table_1.n_16=66
n_table_1.n_12=65
n_1=61
n_table_1.n_11=59
n_table_1.n_19=48
n_table_1.n_3=29
n_table_1.n_27=27
c_table_2.c_4=14
n_table_1.n_10=6
c_table_1.c_4=1

parameters:
[boosting: gbdt]
[objective: binary]
[metric: auc]
[tree_learner: serial]
[device_type: cpu]
[data: ]
[valid: ]
[num_iterations: 100]
[learning_rate: 0.317716]
[num_leaves: 55]
[num_threads: 4]
[max_depth: 7]
[min_data_in_leaf: 20]
[min_sum_hessian_in_leaf: 0.898071]
[bagging_fraction: 1]
[bagging_freq: 44]
[bagging_seed: 3]
[feature_fraction: 0.7]
[feature_fraction_seed: 2]
[early_stopping_round: 0]
[max_delta_step: 0]
[lambda_l1: 1.21623]
[lambda_l2: 1.29282]
[min_gain_to_split: 0]
[drop_rate: 0.1]
[max_drop: 50]
[skip_drop: 0.5]
[xgboost_dart_mode: 0]
[uniform_drop: 0]
[drop_seed: 4]
[top_rate: 0.2]
[other_rate: 0.1]
[min_data_per_group: 100]
[max_cat_threshold: 32]
[cat_l2: 10]
[cat_smooth: 10]
[max_cat_to_onehot: 4]
[top_k: 20]
[monotone_constraints: ]
[feature_contri: ]
[forcedsplits_filename: ]
[refit_decay_rate: 0.9]
[verbosity: -1]
[max_bin: 255]
[min_data_in_bin: 3]
[bin_construct_sample_cnt: 200000]
[histogram_pool_size: -1]
[data_random_seed: 1]
[output_model: LightGBM_model.txt]
[snapshot_freq: -1]
[input_model: ]
[output_result: LightGBM_predict_result.txt]
[initscore_filename: ]
[valid_data_initscores: ]
[pre_partition: 0]
[enable_bundle: 1]
[max_conflict_rate: 0]
[is_enable_sparse: 1]
[sparse_threshold: 0.8]
[use_missing: 1]
[zero_as_missing: 0]
[two_round: 0]
[save_binary: 0]
[enable_load_from_binary_file: 1]
[header: 0]
[label_column: ]
[weight_column: ]
[group_column: ]
[ignore_column: ]
[categorical_feature: ]
[predict_raw_score: 0]
[predict_leaf_index: 0]
[predict_contrib: 0]
[num_iteration_predict: -1]
[pred_early_stop: 0]
[pred_early_stop_freq: 10]
[pred_early_stop_margin: 10]
[convert_model_language: ]
[convert_model: gbdt_prediction.cpp]
[num_class: 1]
[is_unbalance: 0]
[scale_pos_weight: 1]
[sigmoid: 1]
[boost_from_average: 1]
[reg_sqrt: 0]
[alpha: 0.9]
[fair_c: 1]
[poisson_max_delta_step: 0.7]
[tweedie_variance_power: 1.5]
[max_position: 20]
[label_gain: ]
[metric_freq: 1]
[is_provide_training_metric: 0]
[eval_at: ]
[num_machines: 1]
[local_listen_port: 12400]
[time_out: 120]
[machine_list_filename: ]
[machines: ]
[gpu_platform_id: -1]
[gpu_device_id: -1]
[gpu_use_dp: 0]

end of parameters

pandas_categorical:[[0, 1, 2, 3, 4, 5, 6, 7, 8, 9, 10, 11, 12, 13, 14, 15, 16, 17, 18, 19, 20, 21, 22, 23, 24, 25, 26, 27, 28, 29, 30, 31, 32, 33, 34, 35, 36, 37, 38, 39, 40, 41, 42, 43, 44, 45, 46, 47, 48, 49, 50, 51, 52, 53, 54, 55, 56, 57, 58, 59, 60, 61, 62, 63, 64, 65, 66, 67, 68, 69, 70, 71, 72, 73, 74, 75, 76, 77, 78, 79, 80, 81, 82, 83, 84, 85, 86, 87, 88, 89, 90, 91, 92, 93, 94, 95, 96, 97, 98, 99, 100, 101, 102, 103, 104, 105, 106, 107, 108, 109, 110, 111, 112, 113, 114, 115, 116, 117, 118, 119, 120, 121, 122, 123, 124, 125, 126, 127, 128, 129, 130, 131, 132, 133, 134, 135, 136, 137, 138, 139, 140, 141, 142, 143, 144, 145, 146, 147, 148, 149, 150, 151, 152, 153, 154, 155, 156, 157, 158], [0, 1, 2, 3, 4, 5, 6, 7, 8, 9, 10, 11, 12, 13, 14, 15, 16, 17, 18, 19, 20, 21, 22, 23, 24, 25, 26, 27, 28, 29, 30, 31, 32, 33, 34, 35, 36, 37, 38, 39, 40, 41, 42, 43, 44, 45, 46, 47, 48, 49, 50, 51, 52, 53, 54, 55, 56, 57, 58, 59, 60, 61, 62, 63, 64, 65, 66, 67, 68, 69, 70, 71, 72, 73, 74, 75, 76, 77, 78, 79, 80, 81, 82, 83, 84, 85, 86, 87, 88, 89, 90, 91, 92, 93, 94, 95, 96, 97, 98, 99, 100, 101, 102, 103, 104, 105, 106, 107, 108, 109, 110, 111, 112, 113, 114, 115, 116, 117, 118, 119, 120, 121, 122, 123, 124, 125, 126, 127, 128, 129, 130, 131, 132, 133, 134, 135, 136, 137, 138, 139, 140, 141, 142, 143, 144, 145, 146, 147, 148, 149, 150]]
