tree
version=v2
num_class=1
num_tree_per_iteration=1
label_index=0
max_feature_idx=13
objective=binary sigmoid:1
feature_names=c_table_1.c_2 c_table_1.c_3 c_table_1.c_5 n_table_1.n_3 n_table_1.n_10 n_table_1.n_12 n_table_1.n_15 n_table_1.n_16 n_table_1.n_17 n_table_1.n_18 n_table_1.n_19 n_table_1.n_26 n_table_1.n_27 c_table_2.c_4
feature_infos=49:0:5:3:8:19:33:31:47:159:129:39:41:26:141:36:21:78:84:6:74:88:176:90:29:189:30:106:75:110:57:65:77:28:73:197:89:107:155:43:147:40:46:67:69:146:167:10:66:101:11:99:2:48:200:12:13:71:9:60:140:198:52:85:93:154:17:32:34:50:58:64:83:100:117:148:161:175:196:4:59:72:87:91:95:187:20:35:56:98:102:111:116:120:128:144:168:179:185:1:25:42:55:76:92:94:104:112:126:139:162:164:190:15:18:37:51:115:118:127:133:149:158:169:180:182:191:194:203 46:0:74:18:55:6:64:102:68:3:87:45:36:37:84:147:5:48:121:81:86:22:181:10:2:16:92:52:71:56:79:148:109:101:115:169:42:98:19:95:93:188:27:40:114:126:135:53:151:62:106:150:9:33:39:54:94:123:11:14:30:213:8:70:130:146:154:207:23:24:72:120:155:80:100:118:158:166:186:187:200:210:211:34:89:201:1:75:82:111:119:153:163:191:208:20:21:29:58:61:66:116:162:174:183:185:197:212:13:41:43:49:83:85:107:117:127:134:167:170:176:190:193:50:63:78:88:97:122:136:137:168:175:182:203:217:218 2:0:7:8:9:3:10:1:6:17:20:4:22:26:25:12:47:14:5:33:29:11:18:42:24:16:41:19:31:38:13:30:36:43:54:55 [1:175] [1:68.5] [1:8524] [1:263222] [1:249100] [1:418837] [1:574087] [1:1285890] [1:121640] [1:151] 18:0:70:6:20:32:21:40:12:38:10:4:9:46:78:27:60:23:31:7:59:67:11:24:68:107:93:16:55:49:81:131:48:30:72:114:90:51:66:101:104:119:87:15:5:29:111:82:96:89:14:88:100:41:79:80:28:97:113:1:8:33:35:39:61:98:108:120:140:17:45:50:91:25:64:105:106:133:13:19:26:37:42:54:58:69:71:83:95:99:102:118:148
tree_sizes=1416 1185 1136 1083 1124 1502 1083 1269 1257 1014 1282 1104 1225 1189 1072 1139 1062 1113 1276 1092 1099 1353 1263 1123

Tree=0
num_leaves=17
num_cat=1
split_feature=7 13 6 7 7 6 6 3 8 8 3 10 6 6 6 8
split_gain=33.3948 6.47334 4.7978 4.17455 4.90653 2.44681 8.11634 2.36022 2.03317 0.892995 0.733281 0.46908 0.405461 0.350962 1.71174 0.0525164
threshold=18608.500000000004 0 2554.0000000000005 1600.7500000000002 241.00000000000003 108301.00000000001 12519.250000000002 1.7500000000000002 11043.250000000002 983.50000000000011 39.250000000000007 22486.000000000004 28058.500000000004 59645.500000000007 28058.500000000004 8538.2500000000018
decision_type=2 5 2 2 2 2 2 2 2 2 2 2 2 2 2 2
left_child=1 2 15 4 -4 6 -2 9 11 -3 -9 -5 -10 14 -8 -1
right_child=5 7 3 8 -6 -7 13 10 12 -11 -12 -13 -14 -15 -16 -17
leaf_value=-3.3103926292163512 -2.8685688911786351 -3.1288415048486198 -3.2246109813598598 -3.2246109813598598 -2.9975131662025847 -2.7865662839175211 -3.2246109813598598 -3.2786535000918802 -3.2246109813598598 -3.2246109813598598 -3.2085763904297653 -3.3366982371483127 -3.1726980315300608 -3.2246109813598598 -3.1003930356963179 -3.2246109813598598
leaf_count=1488 57 401 102 59 87 67 85 151 87 81 79 177 81 63 68 67
internal_value=0 -0.176595 -0.305229 0 0.625126 1.47269 0.787861 0.191488 -0.239055 0.470839 -0.0226017 -0.542993 0 0.0174576 0.225037 -0.493552
internal_count=3200 2860 2148 593 189 340 273 712 404 482 230 236 168 216 153 1555
cat_boundaries=0 5
cat_threshold=1225858193 143261696 537018432 2048 8
shrinkage=1


Tree=1
num_leaves=14
num_cat=4
split_feature=1 7 10 1 7 10 4 6 13 6 7 5 13
split_gain=27.0134 25.1636 8.11954 7.3752 9.82906 5.31331 4.11211 2.50326 1.6529 0.686765 1.57256 0.485612 0.082055
threshold=0 7072.7500000000009 97927.750000000015 1 1097.5000000000002 1.7500000000000002 4.7500000000000009 883.00000000000011 2 9748.0000000000018 324.25000000000006 126.25000000000001 3
decision_type=5 2 2 5 2 2 2 2 5 2 2 2 5
left_child=5 3 -3 4 -2 8 -4 -5 -1 10 -9 -11 -10
right_child=1 2 6 7 -6 -7 -8 9 12 11 -12 -13 -14
leaf_value=-0.040637434711852952 0.33604706774399934 0 0.42497341130424765 -0.11002373095462287 -0 -0.1272544104566585 0.043522330273205893 -0 0.02299537235151097 0 0.11164188349119501 -0.060880239265505579 -0
leaf_count=890 122 67 174 253 92 731 70 62 108 93 83 121 334
internal_value=0 0.559907 1.75504 0.0975158 0.576424 -0.338981 2.09158 -0.193432 -0.13399 0 0.247665 -0.170257 0.0680745
internal_count=3200 1137 311 826 214 2063 244 612 1332 359 145 214 442
cat_boundaries=0 6 10 13 15
cat_threshold=134483009 1084252160 2160100497 1073750020 1048576 2097664 589856 22086656 537919488 134479872 137367553 268435520 536887296 262864 134217728
shrinkage=0.169796


Tree=2
num_leaves=14
num_cat=4
split_feature=1 7 10 2 9 10 10 13 3 6 7 10 13
split_gain=20.5054 12.1374 5.05702 3.85094 4.33913 3.55844 3.40699 1.41961 1.26762 1.50517 0.344984 0.176245 0.0725392
threshold=0 7072.7500000000009 1.7500000000000002 1 19145.500000000004 7114.7500000000009 97927.750000000015 2 16.000000000000004 557.50000000000011 867.25000000000011 1062.2500000000002 3
decision_type=5 2 2 5 2 2 2 5 2 2 2 2 5
left_child=2 3 7 8 5 -5 -3 -1 9 -2 -11 -10 -9
right_child=1 6 -4 4 -6 -7 -8 12 11 10 -12 -13 -14
leaf_value=-0.036788693645038728 -0.064251916099088993 0 -0.12333356593038769 0 -0 0.25983564164133582 0.23446117862724097 0.021911015807461454 -0 0.089221847968178475 0 -0.0849998083996268 -0
leaf_count=886 97 67 765 77 82 108 240 108 70 68 75 219 338
internal_value=0 0.461042 -0.313897 0.10022 0.400406 1.07675 1.20682 -0.113421 -0.138902 0 0.347944 -0.431475 0.0654098
internal_count=3200 1103 2097 796 267 185 307 1332 529 240 143 289 446
cat_boundaries=0 6 8 11 12
cat_threshold=134483521 1084252416 2160100497 1073750020 1048576 270533120 131796 32768 2150633473 268435521 16384 264912
shrinkage=0.169796


Tree=3
num_leaves=13
num_cat=2
split_feature=6 1 0 6 4 6 10 3 5 10 6 6
split_gain=13.843 9.04163 7.00865 5.64914 5.84295 6.6955 4.20319 1.66901 0.980046 0.500733 0.451853 0.220629
threshold=140616.00000000003 0 1 2328.2500000000005 3.2500000000000004 59307.250000000007 1.7500000000000002 1.7500000000000002 974.50000000000011 2073.2500000000005 42.250000000000007 132478.00000000003
decision_type=2 5 5 2 2 2 2 2 2 2 2 2
left_child=1 6 8 7 5 -5 -1 9 10 -4 -3 -8
right_child=-2 2 3 4 -6 -7 11 -9 -10 -11 -12 -13
leaf_value=-0.016111256985789028 0.30765066507646716 -0 -0 0.21721216404483779 -0 -0 -0.12102727273130694 -0.067991489258999241 0 0.087835016676121175 -0.10414743845150448 -0
leaf_count=1332 33 64 58 336 90 36 721 139 72 78 216 25
internal_value=0 -0.0601645 0.234522 0.463309 0.850329 1.06649 -0.280099 -0 -0.22305 0.321943 -0.516773 -0.670302
internal_count=3200 3167 1089 737 462 372 2078 275 352 136 280 746
cat_boundaries=0 6 12
cat_threshold=134483525 1084252416 2160100481 1073750020 1048576 270533120 2216689920 16402 67109376 0 270338 65536
shrinkage=0.169796


Tree=4
num_leaves=13
num_cat=2
split_feature=13 0 6 12 3 7 3 7 7 6 6 9
split_gain=9.4331 12.0543 7.15905 4.48661 2.89288 2.01416 0.914787 0.239691 3.39081 0.159235 0.30399 0.0941567
threshold=0 1 2328.2500000000005 1.7500000000000002 49.750000000000007 241.00000000000003 16.000000000000004 7072.7500000000009 1984.0000000000002 1.7500000000000002 132478.00000000003 284.50000000000006
decision_type=5 5 2 2 2 2 2 2 2 2 2 2
left_child=3 9 6 -1 5 -4 11 8 -7 -2 -11 -3
right_child=1 2 4 -5 -6 7 -8 -9 -10 10 -12 -13
leaf_value=0.21129923485319624 -0.05572872144822387 0.020512104191129386 0 -0 -0.010540406935992421 0.13683845125667615 -0.079208073086364655 0.157417346580218 -0.0038636535935999928 -0.13368232865520158 -0 -0.012461598458517409
leaf_count=243 1267 80 102 75 51 100 268 256 185 391 26 156
internal_value=0 -0.123549 0.202846 0.559587 0.512744 0.611918 -0.246866 0.715896 0.282414 -0.410123 -0.719187 0
internal_count=3200 2882 1198 318 694 643 504 541 285 1684 417 236
cat_boundaries=0 4 10
cat_threshold=2684651072 65536 8388876 8388864 3290431809 18578 1067008 17408 134217730 536870912
shrinkage=0.169796


Tree=5
num_leaves=19
num_cat=3
split_feature=1 9 4 10 0 5 5 7 7 7 13 10 5 9 7 7 8 9
split_gain=8.81136 6.68791 3.4747 3.2335 2.31045 1.98151 1.71498 1.47207 2.19657 0.952555 0.940964 0.430257 0.992916 0.329587 0.238339 0.145163 0.0295321 0.00427657
threshold=0 40406.500000000007 1.7500000000000002 1.7500000000000002 1 294.25000000000006 1054.0000000000002 25.000000000000004 1922.5000000000002 82784.500000000015 2 42727.750000000007 132.25000000000003 10129.750000000002 61487.500000000007 22582.750000000004 24.250000000000004 164.50000000000003
decision_type=5 2 2 2 5 2 2 2 2 2 5 2 2 2 2 2 2 2
left_child=3 4 5 10 -2 -3 -7 16 13 15 -1 -10 -13 -9 -5 -4 17 -6
right_child=1 2 9 14 7 6 -8 8 11 -11 -12 12 -14 -15 -16 -17 -18 -19
leaf_value=0.02030642434611564 -0.044935735398616637 0.32235996459668792 0 -0.11248722450546664 -0 -0 0.14102980316572597 0.15430938270561248 -0.026045588448465797 0.077927414595834577 -0.023372687393260726 0.080908118604071211 -0 0 -0 -0.037684710693400902 -0.014298452255648211 0.0052683105987921331
leaf_count=119 237 43 48 662 104 76 43 95 99 35 1230 78 45 44 69 33 80 60
internal_value=0 0.259208 0.763614 -0.240385 0 1.10082 0.430498 0.161217 0.376874 0.00226459 -0.0743949 0 0.196444 0.734644 -0.598432 -0.0693882 -0 0
internal_count=3200 1120 278 2080 842 162 119 605 361 116 1349 222 123 139 731 81 244 164
cat_boundaries=0 6 11 14
cat_threshold=134481485 1073766656 2160100497 1073750020 5242880 2097664 2216690952 514 514 0 2 262720 0 64
shrinkage=0.169796


Tree=6
num_leaves=13
num_cat=4
split_feature=13 1 9 0 7 7 13 3 5 8 7 9
split_gain=7.92097 9.84565 6.01644 2.77831 2.04014 1.2778 1.03215 0.962435 0.711363 0.618795 0.554006 0.00577203
threshold=0 1 40406.500000000007 2 25.000000000000004 61487.500000000007 3 43.750000000000007 190.75000000000003 645.25000000000011 7072.7500000000009 164.50000000000003
decision_type=5 5 2 5 2 2 5 2 2 2 2 2
left_child=-1 5 3 -3 6 -2 11 10 9 -6 -4 -5
right_child=1 2 7 4 8 -7 -8 -9 -10 -11 -12 -13
leaf_value=-0.081177752672244974 -0.12993452906549643 -0.040598169826703383 0 -0.0099220069996580687 0 -0 0.034240146033951722 0 0 0.12268464391452767 0.16902896590842398 -0
leaf_count=498 510 228 79 812 109 47 393 40 44 197 175 68
internal_value=0 0.10881 0.261786 0.116171 0.19354 -0.413067 0.0571585 0.790496 0.51588 0.595563 0.873972 -0.0391519
internal_count=3200 2702 2145 1851 1623 557 1273 294 350 306 254 880
cat_boundaries=0 5 11 16 17
cat_threshold=152115328 142737409 604127296 264224 8 134286916 1075863808 2428534913 8196 1048576 270533120 2216689928 2 514 0 8194 1
shrinkage=0.169796


Tree=7
num_leaves=15
num_cat=3
split_feature=13 1 9 4 2 5 5 10 3 3 10 5 5 10
split_gain=7.53393 8.09671 4.08329 4.54805 1.71917 1.14116 0.906349 0.873323 0.726798 0.707953 0.645484 0.0980204 0.21756 1.23383e-05
threshold=0 1 30330.250000000004 1.7500000000000002 2 79.750000000000014 6.2500000000000009 586.00000000000011 40.750000000000007 16.000000000000004 226016.50000000003 1502.5000000000002 2455.0000000000005 307474.00000000006
decision_type=5 5 2 2 5 2 2 2 2 2 2 2 2 2
left_child=-1 10 4 8 9 6 7 -6 -4 -3 -2 -5 -13 -12
right_child=1 2 3 11 5 -7 -8 -9 -10 -11 13 12 -14 -15
leaf_value=-0.07841015315705982 -0.12082269580221454 -0 0.17907603031882299 -0.012863692996484955 0.011402874603325048 0.12482153691367576 -0.028502984043135882 0.10153077665078195 0 -0.0743576853980564 0 0.040861317157048826 -0 -0.00027635479783843906
leaf_count=560 466 221 155 51 1058 73 86 95 36 182 69 41 32 75
internal_value=0 0.102783 0.245725 0.636625 0.100809 0.185962 0.118214 0.185073 0.957733 -0.117012 -0.359744 0 0.101243 -0
internal_count=3200 2640 2030 315 1715 1312 1239 1153 191 403 610 124 73 144
cat_boundaries=0 5 11 13
cat_threshold=1225857152 143261953 604127296 264224 8 134284868 1082155024 2428535937 1073750016 1048576 270532608 204 32768
shrinkage=0.169796


Tree=8
num_leaves=15
num_cat=3
split_feature=13 0 1 12 5 6 7 6 6 10 9 6 9 9
split_gain=5.52291 7.35362 3.02996 2.46603 1.52066 3.26384 0.757339 0.639129 1.38428 0.545761 0.611591 0.218988 0.00839186 0.00137834
threshold=0 1 2 1.7500000000000002 282.25000000000006 557.50000000000011 42425.500000000007 25779.250000000004 14906.500000000002 3.2500000000000004 204740.00000000003 5305.7500000000009 280.75000000000006 67923.250000000015
decision_type=5 5 5 2 2 2 2 2 2 2 2 2 2 2
left_child=3 9 11 -1 5 12 13 8 -7 -2 -11 -3 -4 -6
right_child=1 2 4 -5 6 7 -8 -9 -10 10 -12 -13 -14 -15
leaf_value=0.13504999775027318 -0.041290933969969384 -0.079688284342185722 -0.007744827641305279 -0 -0.028714832382647555 0.083589490173572131 0.045952177712512719 0.22035340384376778 -0 -0.12573385665087633 -0 -0 0 -0
leaf_count=243 1192 283 96 75 108 244 54 41 53 451 74 145 88 53
internal_value=0 -0.117108 0.127647 0.382212 0.261429 0.473106 0 0.671243 0.364113 -0.353863 -0.6442 -0.183751 -0 -0.129753
internal_count=3200 2882 1165 318 737 522 215 338 297 1717 525 428 184 161
cat_boundaries=0 4 10 16
cat_threshold=2684651072 65536 8388876 8388864 3290431809 16530 68175872 17408 2282487808 536870912 134483008 8405264 2147615873 33562624 0 2097152
shrinkage=0.169796


Tree=9
num_leaves=11
num_cat=3
split_feature=13 0 6 4 7 12 13 9 7 6
split_gain=5.56767 4.93912 5.05099 1.23085 1.10782 0.976162 0.851072 0.852086 1.58183 0.204108
threshold=0 1 47280.250000000007 1.7500000000000002 21735.250000000004 36.250000000000007 2 5658.2500000000009 95.500000000000014 14906.500000000002
decision_type=5 5 2 2 2 2 5 2 2 2
left_child=-1 4 5 -4 -2 6 -3 8 -8 -9
right_child=1 2 3 -5 -6 -7 7 9 -10 -11
leaf_value=-0.075182636347827014 -0.085242924474435655 -0.014614786897485526 0.18115632991399286 0 -0 -0.050641011190400514 0.019710791846428884 0.010250252908433058 0.12359067905136027 -0.027292128244492217
leaf_count=491 507 118 92 55 129 120 1200 253 139 96
internal_value=0 0.0693851 0.190763 0.815691 -0.253697 0.0840365 0.126861 0.156978 0.255482 0
internal_count=3200 2709 2073 147 636 1926 1806 1688 1339 349
cat_boundaries=0 5 11 14
cat_threshold=1225857152 143261696 604127296 264224 8 3290432832 131330 68173832 17408 2281709570 536870912 2098192 268435520 24
shrinkage=0.169796


Tree=10
num_leaves=16
num_cat=2
split_feature=1 0 7 7 3 3 3 7 11 7 10 7 7 3 7
split_gain=4.2365 3.26583 3.37657 3.11753 1.21981 1.16336 0.727285 0.58538 0.487935 0.425446 0.169371 0.15009 0.136901 0.0263835 0.00298153
threshold=0 1 26840.500000000004 1097.5000000000002 28.750000000000004 25.750000000000004 33.250000000000007 548.50000000000011 285.25000000000006 89458.000000000015 1.7500000000000002 11380.000000000002 43495.750000000007 37.750000000000007 4388.5000000000009
decision_type=5 5 2 2 2 2 2 2 2 2 2 2 2 2 2
left_child=3 9 5 -1 -4 7 12 10 -7 -2 -3 -9 14 -6 -5
right_child=1 2 4 6 13 8 -8 11 -10 -11 -12 -13 -14 -15 -16
leaf_value=0.15653400069994811 -0.10661233559470999 -0 0.16230456316555991 -0 -0 -0.066926088803581002 0.062308054490595358 0.05226613421333013 0 -0 -0.037601135155944466 0 0 0.013819537527617666 -0.030947996731376118
leaf_count=108 701 1267 29 54 28 388 60 130 81 40 130 42 31 34 77
internal_value=0 -0.119682 -0 0.291678 0.549123 -0.0809468 0.00292439 -0 -0.306706 -0.391256 -0.0520297 0.225491 -0.0307345 0 -0.149558
internal_count=3200 2870 2129 330 91 2038 222 1569 469 741 1397 172 162 62 131
cat_boundaries=0 4 10
cat_threshold=4784128 22085632 1880096768 134479968 4095738984 133122 68173824 17408 2148270080 536870912
shrinkage=0.169796


Tree=11
num_leaves=13
num_cat=2
split_feature=1 9 11 2 3 8 11 9 8 7 7 3
split_gain=3.86043 2.614 1.58803 1.43901 3.26231 0.785445 0.299935 0.515486 0.392444 0.286216 0.247863 0.0682072
threshold=0 40406.500000000007 449.50000000000006 1 1.7500000000000002 43639.750000000007 19.750000000000004 1380.2500000000002 645.25000000000011 61487.500000000007 25.000000000000004 37.750000000000007
decision_type=5 2 2 5 2 2 2 2 2 2 2 2
left_child=9 3 -3 5 6 10 7 8 -5 -1 -2 -4
right_child=1 2 11 4 -6 -7 -8 -9 -10 -11 -12 -13
leaf_value=-0.095362869411467252 0 0.090361920761422035 -0.014579884114820514 -0.00057530932971098126 -0.10022908500397801 -0 0.036388769358456231 -0.045226998699714305 0.057917317933656849 -0 0.101636418658163 0.013032343901471592
leaf_count=774 105 152 65 1313 325 25 83 142 27 69 89 31
internal_value=0 0.0636814 0.360225 -0.000409379 -0.0816916 0.202036 0 -0.0194945 0 -0.335881 0.494518 -0
internal_count=3200 2357 248 2109 1890 219 1565 1482 1340 843 194 96
cat_boundaries=0 6 7
cat_threshold=134481484 1075863552 2160100497 1107304452 5242880 2097664 1053762
shrinkage=0.169796


Tree=12
num_leaves=14
num_cat=3
split_feature=13 1 6 5 5 2 6 10 7 9 5 6 6
split_gain=4.79567 3.66638 1.83856 2.30074 1.79826 1.5623 0.661974 1.13465 0.596138 0.299003 0.0407076 0.0157703 0.000187996
threshold=0 1 25779.250000000004 241.75000000000003 1909.0000000000002 2 19108.750000000004 102.25000000000001 33187.000000000007 1730.5000000000002 1502.5000000000002 2974.0000000000005 59480.500000000007
decision_type=5 5 2 2 2 5 2 2 2 2 2 2 2
left_child=-1 8 5 -4 10 11 7 -7 -2 -9 -5 -3 -10
right_child=1 2 3 4 -6 6 -8 9 12 -11 -12 -13 -14
leaf_value=-0.073119111991321289 -0.102894669611845 -0.065294212867321358 0.18129206071194484 -0.021716081964145866 0.096179078552180192 0.0059194410177002537 -0.0019022428070884759 0.11969860825115652 0 0.026116771989858227 0 -0 -0.00098583473013515101
leaf_count=448 462 170 44 82 34 1129 79 145 60 319 24 122 82
internal_value=0 0.0622744 0.153437 0.487287 0.0665459 0.0747064 0.141396 0.195849 -0.260838 0.375483 -0.0837422 -0.147932 -0
internal_count=3200 2752 2148 184 140 1964 1672 1593 604 464 106 292 142
cat_boundaries=0 5 11 13
cat_threshold=1225857152 143261697 604127232 264224 8 134219332 24592 2428535937 1074274308 1048576 270533120 131100 32768
shrinkage=0.169796


Tree=13
num_leaves=14
num_cat=3
split_feature=13 0 3 1 5 8 10 12 9 3 12 6 3
split_gain=3.87981 4.22826 1.57819 1.36789 1.03537 2.11333 0.791736 0.615477 0.409881 0.396182 0.271064 0.249324 0.160153
threshold=0 1 25.750000000000004 2 6.2500000000000009 645.25000000000011 3.2500000000000004 127.75000000000001 130506.00000000001 16.000000000000004 1.7500000000000002 5305.7500000000009 36.250000000000007
decision_type=5 5 2 5 2 2 2 2 2 2 2 2 2
left_child=2 6 -1 11 5 -5 -2 -8 9 10 -6 -3 -11
right_child=1 3 -4 4 8 -7 7 -9 -10 12 -12 -13 -14
leaf_value=0.10945677466524457 -0.026770693411355163 -0.061993223122632578 -0 0 0.040775798223800383 0.1468214586349639 -0.10473914040810151 -0 0.043384771402560446 -0.047958977883615778 -0 -0 -0
leaf_count=213 1198 201 105 183 104 70 547 72 45 108 42 164 148
internal_value=0 -0.106721 0.308217 0.0833987 0.179848 0.491128 -0.283813 -0.541589 0.0421743 -0 0.118477 -0.114321 -0.136793
internal_count=3200 2882 318 1065 700 253 1817 619 447 402 146 365 256
cat_boundaries=0 4 10 16
cat_threshold=2693006400 65536 8388892 8388864 3290432833 149650 68175872 17408 135004160 536870912 263232 1065232 2147615744 33562624 0 2097152
shrinkage=0.169796


Tree=14
num_leaves=12
num_cat=5
split_feature=13 1 0 7 3 13 6 7 13 10 5
split_gain=4.12325 2.58409 0.933734 2.28917 1.76864 0.830028 0.54431 0.500432 0.28836 0.316207 0.129503
threshold=0 1 2 19.750000000000004 49.750000000000007 3 883.00000000000011 33187.000000000007 4 832.75000000000011 1.7500000000000002
decision_type=5 5 5 2 2 5 2 2 5 2 2
left_child=-1 7 5 8 6 10 -5 -2 9 -4 -3
right_child=1 2 3 4 -6 -7 -8 -9 -10 -11 -12
leaf_value=-0.071569585912816841 -0.10768920155728412 -0 0 0 -0.0030636058576664787 0.014607151332784176 0.083355611141546576 -0 0.015313764732523046 -0.04544760712612806 -0.070734290873551792
leaf_count=423 465 50 794 86 48 102 376 108 444 118 186
internal_value=0 0.0506179 0.119656 0.167455 0.374319 -0.0386591 0.448484 -0.255228 0.000639443 -0.0316331 -0.19056
internal_count=3200 2777 2204 1866 510 338 462 573 1356 912 236
cat_boundaries=0 5 11 17 18 19
cat_threshold=1225857152 143261696 604127232 296992 8 134219328 1075863808 2160100481 1074274308 1048576 270533120 2216690688 16898 16787464 0 8194 536936448 1 1
shrinkage=0.169796


Tree=15
num_leaves=14
num_cat=3
split_feature=1 3 11 11 5 0 9 2 11 9 10 5 10
split_gain=2.20025 2.23267 1.91866 0.934846 0.626155 0.570868 0.924641 0.568298 0.53657 0.337153 0.187081 0.0823106 0.0176745
threshold=0 25.750000000000004 65.500000000000014 412.00000000000006 190.75000000000003 1 219967.00000000003 2 36.250000000000007 40406.500000000007 2269.0000000000005 1297.0000000000002 2325.2500000000005
decision_type=5 2 2 2 2 5 2 5 2 2 2 2 2
left_child=4 2 7 -4 8 -3 -7 12 -1 10 -9 -6 -2
right_child=1 5 3 -5 11 6 -8 9 -10 -11 -12 -13 -14
leaf_value=0.089298164747706146 -5.2489356493176828e-05 0.0019708684628243819 0.1095341220453052 -0 -0.0068879310169748381 -0.093608905426038724 0 -0 0 0 -0.076465717763439495 0.020288093800571984 0.0091945825831529372
leaf_count=132 1294 104 52 91 106 788 20 141 71 23 267 30 81
internal_value=0 -0.0986742 -0 0.420077 0.191178 -0.345338 -0.341932 -0.0730194 0.393764 -0.187135 -0.370989 0 0
internal_count=3200 2861 1949 143 339 912 808 1806 203 431 408 136 1375
cat_boundaries=0 4 11 12
cat_threshold=4259840 22085664 1880096768 134217824 2048 144 10 0 0 0 32 68157961
shrinkage=0.169796


Tree=16
num_leaves=12
num_cat=5
split_feature=13 0 1 6 3 13 10 2 3 10 8
split_gain=3.18182 1.81889 1.23406 1.20165 1.29188 0.593216 0.480442 0.17841 0.139323 0.0897846 0.000491026
threshold=0 1 2 557.50000000000011 48.250000000000007 3 250395.50000000003 4 28.750000000000004 1.7500000000000002 41077.000000000007
decision_type=5 5 5 2 2 5 2 5 2 2 2
left_child=-1 6 8 5 7 9 -2 -5 -3 -4 -8
right_child=1 2 3 4 -6 -7 10 -9 -10 -11 -12
leaf_value=-0.063707422400129346 -0.079791293589235021 -0 -0 -0 -0 0.022361984993296113 0 0.060682481234925728 -0.064962469262695402 -0.031352395367857971 -0.0017412625983087918
leaf_count=425 380 147 749 123 60 449 25 403 216 146 77
internal_value=0 0.0420448 0.106843 0.154338 0.300213 0.0171591 -0.187857 0.358774 -0.11604 -0.0454701 -0
internal_count=3200 2775 2293 1930 586 1344 482 526 363 895 102
cat_boundaries=0 5 11 17 18 19
cat_threshold=152115344 143261696 604127232 264224 8 3290432584 17154 68173832 17408 134217728 536870912 134218816 2105360 2147615889 1073741892 524288 268435456 1 67240024
shrinkage=0.169796


Tree=17
num_leaves=13
num_cat=4
split_feature=13 0 1 6 3 8 5 6 11 11 2 6
split_gain=2.89876 1.86256 0.942203 0.99573 1.12939 0.466548 0.413078 0.212525 0.152061 0.177 0.12237 0.096491
threshold=0 1 2 557.50000000000011 48.250000000000007 36604.000000000007 1.7500000000000002 104714.00000000001 47.500000000000007 36.250000000000007 3 67.000000000000014
decision_type=5 5 5 2 2 2 2 2 2 2 5 2
left_child=-1 5 6 10 8 -2 -3 -8 9 -5 -4 -12
right_child=1 2 3 4 -6 -7 7 -9 -10 -11 11 -13
leaf_value=-0.061724810029519482 -0.10002077925688055 0 -0.0046065554260793324 0.027274780130484136 -0 -0 -0.064504764804837023 -0 0.079737032347792003 -0 0.013071476589859013 -0
leaf_count=444 331 72 118 311 59 104 272 56 184 31 1155 63
internal_value=0 0.0335699 0.0960905 0.139815 0.271977 -0.216638 -0.0807386 -0.273066 0.327182 0.120917 0.011932 0.0471628
internal_count=3200 2756 2321 1921 585 435 400 328 526 342 1336 1218
cat_boundaries=0 5 10 16 17
cat_threshold=1225857152 143261697 604127232 296960 8 3290432584 16642 84951040 17408 134217728 134218820 2105360 2147615889 1107296324 0 268435456 652
shrinkage=0.169796


Tree=18
num_leaves=16
num_cat=2
split_feature=13 1 9 10 8 5 8 11 7 5 9 3 6 8 11
split_gain=2.55274 2.17029 1.52046 2.47606 1.15128 1.03252 0.683305 0.848763 0.656246 0.833486 0.389472 0.323468 0.190667 0.900603 0.109252
threshold=0 1 303.25000000000006 122803.00000000001 10816.750000000002 12.250000000000002 22892.500000000004 16.000000000000004 56972.500000000007 290.50000000000006 69.250000000000014 40.750000000000007 104714.00000000001 7119.2500000000009 409.75000000000006
decision_type=5 5 2 2 2 2 2 2 2 2 2 2 2 2 2
left_child=2 5 -1 -4 -3 10 7 -6 9 -8 -2 -12 13 -7 -10
right_child=1 4 3 -5 6 12 8 -9 14 -11 11 -13 -14 -15 -16
leaf_value=0.093199669420526113 -0 -0.052973306296139049 -0.085334705841285163 0.078927007118710688 -0 0 0 0.094091252801592876 -0 -0.081653871061199104 0.085867209861485577 0 0.019767208279837419 -0.069831127545555982 0.029215767257179368
leaf_count=187 107 1873 97 52 71 152 87 36 66 127 104 29 31 140 41
internal_value=0 -0.105042 0.21913 -0 -0.196401 0.0892452 -0 0.244587 -0.123416 -0.296595 0.337455 0.416315 -0 -0.102619 0
internal_count=3200 2864 336 149 2301 563 428 107 321 214 240 133 323 292 107
cat_boundaries=0 4 9
cat_threshold=2693038656 81920 8388876 8388864 4784168 25232432 806486032 33816672 524288
shrinkage=0.169796


Tree=19
num_leaves=12
num_cat=4
split_feature=13 1 2 7 3 3 12 3 13 10 9
split_gain=2.49085 1.32599 0.623059 0.702554 0.75537 1.0561 0.770052 0.695247 0.388537 1.23968 0.182877
threshold=0 1 2 19.750000000000004 25.750000000000004 33.250000000000007 9.2500000000000018 49.750000000000007 3 832.75000000000011 204740.00000000003
decision_type=5 5 5 2 2 2 2 2 5 2 2
left_child=-1 10 -3 8 6 -6 -5 -7 -4 -10 -2
right_child=1 2 3 4 5 7 -8 -9 9 -11 -12
leaf_value=-0.059846011534443445 -0.081830513125293394 -0.0080538711946698087 0.026926411418499205 0.081344947484199404 -0.04411957166958811 0.048268297625747573 -0 -0 0.0028284554224060755 -0.074282514251775414 -0
leaf_count=423 465 227 110 222 124 216 46 46 1098 171 52
internal_value=0 0.0284657 0.0795654 0.116988 0.227446 0.0147641 0.381793 0.186303 0.00434743 -0.011975 -0.194706
internal_count=3200 2777 2260 2033 654 386 268 262 1379 1269 517
cat_boundaries=0 5 11 13 16
cat_threshold=1225857152 143261696 604127232 296992 8 134219328 1075847440 2160100481 1074274308 1048576 270533120 71450648 32768 10486272 256 80
shrinkage=0.169796


Tree=20
num_leaves=14
num_cat=1
split_feature=1 3 11 7 7 12 3 12 10 9 9 11 10
split_gain=1.4227 1.36626 0.922811 0.558033 0.521981 0.753906 0.567523 0.443529 0.117447 0.411677 0.0905218 0.0651232 0.00743463
threshold=0 25.750000000000004 65.500000000000014 42425.500000000007 2369.5000000000005 3.2500000000000004 33.250000000000007 10.750000000000002 2353.0000000000005 9511.7500000000018 133643.50000000003 32.500000000000007 383.50000000000006
decision_type=5 2 2 2 2 2 2 2 2 2 2 2 2
left_child=4 2 8 -3 5 11 -6 10 12 -10 -4 -1 -2
right_child=1 3 7 -5 6 -7 -8 -9 9 -11 -12 -13 -14
leaf_value=0.092890769637516107 -0.0022393824242333735 -0.064635511459203543 0.094399295520146947 -0 -0.024066623112216638 -0 0.047425851876394365 -0 -0.062579079277405275 -0 0 0 0
leaf_count=87 1351 814 45 85 125 50 49 44 162 205 54 39 90
internal_value=0 -0.0864856 -0 -0.298571 0.145136 0.341637 0 0.263328 -0.0650278 -0.143554 0.425772 0.459374 -0
internal_count=3200 2850 1951 899 350 176 174 143 1808 367 99 126 1441
cat_boundaries=0 4
cat_threshold=4259840 22086688 1880096768 134479936
shrinkage=0.169796


Tree=21
num_leaves=17
num_cat=2
split_feature=13 1 10 9 9 11 3 6 5 10 9 10 3 9 7 9
split_gain=1.78271 1.73209 1.60214 1.26856 0.979437 0.801114 0.479528 0.463647 0.358989 0.34857 0.563198 0.612218 0.227103 0.149152 0.0345307 0.0136851
threshold=0 1 122803.00000000001 303.25000000000006 15400.000000000002 313.75000000000006 39.250000000000007 104714.00000000001 135.25000000000003 1.7500000000000002 6760.7500000000009 29942.500000000004 1.7500000000000002 69.250000000000014 59934.250000000007 214070.00000000003
decision_type=5 5 2 2 2 2 2 2 2 2 2 2 2 2 2 2
left_child=2 4 3 -1 6 9 13 8 -6 -3 -11 -12 -7 -2 -14 -13
right_child=1 5 -4 -5 7 12 -8 -9 -10 10 11 15 14 -15 -16 -17
leaf_value=0.041590800132697607 0 -0.012452508955207499 0.12834310646033814 -0.052695145827165474 0 0.040885055969637811 -0 0.020807197747639481 -0.062075641840861472 -0.10677224417760325 0 -0.041994037816186776 -0.014226110872177174 0.080707134343236467 0 -0
leaf_count=186 114 1185 48 110 55 76 60 31 135 436 77 421 70 135 40 21
internal_value=0 -0.0866248 0.182606 0 0.0884035 -0.168798 0.298237 -0 -0.214828 -0.233209 -0.333858 -0.13751 0 0.403126 -0 -0.224686
internal_count=3200 2856 344 296 530 2326 309 221 190 2140 955 519 186 249 110 442
cat_boundaries=0 4 8
cat_threshold=2684650560 81984 8388876 8388864 4784168 25232432 806486032 168034368
shrinkage=0.169796


Tree=22
num_leaves=15
num_cat=4
split_feature=13 1 13 6 9 1 4 11 6 6 8 3 3 9
split_gain=2.17089 1.19744 1.18535 0.987016 1.68649 0.700022 0.601434 1.34983 1.16693 0.370514 0.217688 0.164947 0.053051 0.0277635
threshold=0 1 2 8639.5000000000018 1264.7500000000002 3 1.7500000000000002 47.500000000000007 53161.750000000007 64271.500000000007 1.7500000000000002 33.250000000000007 40.750000000000007 204740.00000000003
decision_type=5 5 5 2 2 5 2 2 2 2 2 2 2 2
left_child=-1 13 5 4 -4 11 7 10 -9 -8 -7 -3 -13 -2
right_child=1 2 3 -5 -6 6 9 8 -10 -11 -12 12 -14 -15
leaf_value=-0.052007671983804155 -0.058785327285295313 0 0.047165059035647577 0.11162889995173296 -0.052265040081378653 -0 -0.074179329172874911 0.10096243208801951 -0 -0 -0.033576576673207716 0.082004326879922623 0 -0
leaf_count=527 431 129 304 97 73 888 146 63 41 24 325 60 40 52
internal_value=0 0.0333575 0.0857168 0.230357 0.0832929 0 -0.0543077 -0 0.340547 -0.295321 -0.0946887 0.14501 0.359841 -0.163917
internal_count=3200 2673 2190 474 377 1716 1487 1317 104 170 1213 229 100 483
cat_boundaries=0 5 11 14 18
cat_threshold=1225857168 143261696 604127296 296992 8 134284864 2105344 2160231553 1074274340 1048576 2097152 10486785 268435713 16 4194336 25231392 269484032 64
shrinkage=0.169796


Tree=23
num_leaves=13
num_cat=5
split_feature=13 0 2 13 12 9 3 9 1 7 12 3
split_gain=1.93894 1.38841 0.540872 0.936827 0.57917 1.45916 0.17967 0.222338 0.116366 0.115765 0.0239739 0.0140965
threshold=0 1 2 3 3.2500000000000004 69.250000000000014 33.250000000000007 82348.000000000015 4 89458.000000000015 127.75000000000001 33.250000000000007
decision_type=5 5 5 5 2 2 2 2 5 2 2 2
left_child=-1 9 8 -4 5 -5 10 -8 -3 -2 -6 -10
right_child=1 2 3 4 6 -7 7 -9 11 -11 -12 -13
leaf_value=-0.051506834057985396 -0.056848026594779333 0 -0.015242275503489753 0.010852060528843863 -0.017915273270199417 0.081043637606898686 -0 0.039334045937875158 -0.032035388493514651 -0 0 -0
leaf_count=484 405 111 116 1103 122 351 92 49 173 38 24 132
internal_value=0 0.0252229 0.0857311 0.125387 0.16934 0.240241 0 0.119671 -0.0205307 -0.170684 -0.0765588 -0.0779436
internal_count=3200 2716 2273 1857 1741 1454 287 141 416 443 146 305
cat_boundaries=0 5 11 12 15 18
cat_threshold=1225857168 143261697 604127232 296992 8 3290432576 16642 84953088 17408 134225920 536870912 541214232 1024 268452160 8 4194336 8388608 1048592
shrinkage=0.169796


end of trees

feature importances:
n_table_1.n_16=40
n_table_1.n_15=38
n_table_1.n_3=35
n_table_1.n_18=32
n_table_1.n_19=30
c_table_2.c_4=29
c_table_1.c_3=23
n_table_1.n_12=22
n_table_1.n_17=14
n_table_1.n_26=14
c_table_1.c_2=13
n_table_1.n_27=10
c_table_1.c_5=9
n_table_1.n_10=6

parameters:
[boosting: gbdt]
[objective: binary]
[metric: auc]
[tree_learner: serial]
[device_type: cpu]
[data: ]
[valid: ]
[num_iterations: 100]
[learning_rate: 0.169796]
[num_leaves: 100]
[num_threads: 4]
[max_depth: 7]
[min_data_in_leaf: 20]
[min_sum_hessian_in_leaf: 2.00646]
[bagging_fraction: 0.8]
[bagging_freq: 88]
[bagging_seed: 3]
[feature_fraction: 0.8]
[feature_fraction_seed: 2]
[early_stopping_round: 0]
[max_delta_step: 0]
[lambda_l1: 1.57558]
[lambda_l2: 1.35787]
[min_gain_to_split: 0]
[drop_rate: 0.1]
[max_drop: 50]
[skip_drop: 0.5]
[xgboost_dart_mode: 0]
[uniform_drop: 0]
[drop_seed: 4]
[top_rate: 0.2]
[other_rate: 0.1]
[min_data_per_group: 100]
[max_cat_threshold: 32]
[cat_l2: 10]
[cat_smooth: 10]
[max_cat_to_onehot: 4]
[top_k: 20]
[monotone_constraints: ]
[feature_contri: ]
[forcedsplits_filename: ]
[refit_decay_rate: 0.9]
[verbosity: -1]
[max_bin: 255]
[min_data_in_bin: 3]
[bin_construct_sample_cnt: 200000]
[histogram_pool_size: -1]
[data_random_seed: 1]
[output_model: LightGBM_model.txt]
[snapshot_freq: -1]
[input_model: ]
[output_result: LightGBM_predict_result.txt]
[initscore_filename: ]
[valid_data_initscores: ]
[pre_partition: 0]
[enable_bundle: 1]
[max_conflict_rate: 0]
[is_enable_sparse: 1]
[sparse_threshold: 0.8]
[use_missing: 1]
[zero_as_missing: 0]
[two_round: 0]
[save_binary: 0]
[enable_load_from_binary_file: 1]
[header: 0]
[label_column: ]
[weight_column: ]
[group_column: ]
[ignore_column: ]
[categorical_feature: ]
[predict_raw_score: 0]
[predict_leaf_index: 0]
[predict_contrib: 0]
[num_iteration_predict: -1]
[pred_early_stop: 0]
[pred_early_stop_freq: 10]
[pred_early_stop_margin: 10]
[convert_model_language: ]
[convert_model: gbdt_prediction.cpp]
[num_class: 1]
[is_unbalance: 0]
[scale_pos_weight: 1]
[sigmoid: 1]
[boost_from_average: 1]
[reg_sqrt: 0]
[alpha: 0.9]
[fair_c: 1]
[poisson_max_delta_step: 0.7]
[tweedie_variance_power: 1.5]
[max_position: 20]
[label_gain: ]
[metric_freq: 1]
[is_provide_training_metric: 0]
[eval_at: ]
[num_machines: 1]
[local_listen_port: 12400]
[time_out: 120]
[machine_list_filename: ]
[machines: ]
[gpu_platform_id: -1]
[gpu_device_id: -1]
[gpu_use_dp: 0]

end of parameters

pandas_categorical:[[0, 1, 2, 3, 4, 5, 6, 7, 8, 9, 10, 11, 12, 13, 14, 15, 16, 17, 18, 19, 20, 21, 22, 23, 24, 25, 26, 27, 28, 29, 30, 31, 32, 33, 34, 35, 36, 37, 38, 39, 40, 41, 42, 43, 44, 45, 46, 47, 48, 49, 50, 51, 52, 53, 54, 55, 56, 57, 58, 59, 60, 61, 62, 63, 64, 65, 66, 67, 68, 69, 70, 71, 72, 73, 74, 75, 76, 77, 78, 79, 80, 81, 82, 83, 84, 85, 86, 87, 88, 89, 90, 91, 92, 93, 94, 95, 96, 97, 98, 99, 100, 101, 102, 103, 104, 105, 106, 107, 108, 109, 110, 111, 112, 113, 114, 115, 116, 117, 118, 119, 120, 121, 122, 123, 124, 125, 126, 127, 128, 129, 130, 131, 132, 133, 134, 135, 136, 137, 138, 139, 140, 141, 142, 143, 144, 145, 146, 147, 148, 149, 150, 151, 152, 153, 154, 155, 156, 157, 158, 159, 160, 161, 162, 163, 164, 165, 166, 167, 168, 169, 170, 171, 172, 173, 174, 175, 176, 177, 178, 179, 180, 181, 182, 183, 184, 185, 186, 187, 188, 189, 190, 191, 192, 193, 194, 195, 196, 197, 198, 199, 200, 201, 202, 203, 204, 205, 206], [0, 1, 2, 3, 4, 5, 6, 7, 8, 9, 10, 11, 12, 13, 14, 15, 16, 17, 18, 19, 20, 21, 22, 23, 24, 25, 26, 27, 28, 29, 30, 31, 32, 33, 34, 35, 36, 37, 38, 39, 40, 41, 42, 43, 44, 45, 46, 47, 48, 49, 50, 51, 52, 53, 54, 55, 56, 57, 58, 59, 60, 61, 62, 63, 64, 65, 66, 67, 68, 69, 70, 71, 72, 73, 74, 75, 76, 77, 78, 79, 80, 81, 82, 83, 84, 85, 86, 87, 88, 89, 90, 91, 92, 93, 94, 95, 96, 97, 98, 99, 100, 101, 102, 103, 104, 105, 106, 107, 108, 109, 110, 111, 112, 113, 114, 115, 116, 117, 118, 119, 120, 121, 122, 123, 124, 125, 126, 127, 128, 129, 130, 131, 132, 133, 134, 135, 136, 137, 138, 139, 140, 141, 142, 143, 144, 145, 146, 147, 148, 149, 150, 151, 152, 153, 154, 155, 156, 157, 158, 159, 160, 161, 162, 163, 164, 165, 166, 167, 168, 169, 170, 171, 172, 173, 174, 175, 176, 177, 178, 179, 180, 181, 182, 183, 184, 185, 186, 187, 188, 189, 190, 191, 192, 193, 194, 195, 196, 197, 198, 199, 200, 201, 202, 203, 204, 205, 206, 207, 208, 209, 210, 211, 212, 213, 214, 215, 216, 217, 218, 219, 220], [0, 1, 2, 3, 4, 5, 6, 7, 8, 9, 10, 11, 12, 13, 14, 15, 16, 17, 18, 19, 20, 21, 22, 23, 24, 25, 26, 27, 28, 29, 30, 31, 32, 33, 34, 35, 36, 37, 38, 39, 40, 41, 42, 43, 44, 45, 46, 47, 48, 49, 50, 51, 52, 53, 54, 55, 56], [0, 1, 2, 3, 4, 5, 6, 7, 8, 9, 10, 11, 12, 13, 14, 15, 16, 17, 18, 19, 20, 21, 22, 23, 24, 25, 26, 27, 28, 29, 30, 31, 32, 33, 34, 35, 36, 37, 38, 39, 40, 41, 42, 43, 44, 45, 46, 47, 48, 49, 50, 51, 52, 53, 54, 55, 56, 57, 58, 59, 60, 61, 62, 63, 64, 65, 66, 67, 68, 69, 70, 71, 72, 73, 74, 75, 76, 77, 78, 79, 80, 81, 82, 83, 84, 85, 86, 87, 88, 89, 90, 91, 92, 93, 94, 95, 96, 97, 98, 99, 100, 101, 102, 103, 104, 105, 106, 107, 108, 109, 110, 111, 112, 113, 114, 115, 116, 117, 118, 119, 120, 121, 122, 123, 124, 125, 126, 127, 128, 129, 130, 131, 132, 133, 134, 135, 136, 137, 138, 139, 140, 141, 142, 143, 144, 145, 146, 147, 148, 149, 150]]
