tree
version=v2
num_class=1
num_tree_per_iteration=1
label_index=0
max_feature_idx=52
objective=binary sigmoid:1
feature_names=n_1 c_02 c_01 c_table_1.c_1 c_table_1.c_2 n_table_1.n_1 n_table_1.n_2 c_table_1.c_3 c_table_1.c_4 c_table_1.c_5 n_table_1.n_3 n_table_1.n_5 n_table_1.n_6 n_table_1.n_7 n_table_1.n_8 n_table_1.n_9 n_table_1.n_10 n_table_1.n_11 n_table_1.n_12 n_table_1.n_15 n_table_1.n_16 n_table_1.n_17 n_table_1.n_18 n_table_1.n_19 n_table_1.n_20 n_table_1.n_25 n_table_1.n_26 n_table_1.n_27 c_table_2.c_1 c_table_2.c_2 n_table_2.n_1 n_table_2.n_2 c_table_2.c_3 c_table_2.c_4 n_table_2.n_3 c_table_2.c_6 n_table_2.n_5 n_table_2.n_6 n_table_2.n_7 n_table_2.n_8 n_table_2.n_9 n_table_2.n_10 n_table_2.n_11 n_table_2.n_12 n_table_2.n_13 n_table_2.n_14 n_table_3.n_1 n_table_3.n_2 n_table_3.n_3 n_table_3.n_4 n_table_3.n_5 n_table_3.n_6 n_table_3.n_7
feature_infos=[1:335.5] 45:251:29:315:25:16:361:6:204:12:31:52:266:3:155:242:94:147:5:238:17:100:240:307:248:389:28:115:289:161:208:382:26:246:281:41:327:369:49:98:116:157:162:267:337:449:81:46:186:231:300:348:525:23:33:90:156:244:7:27:38:78:151:375:0:48:55:117:124:143:259:370:411:15:182:214:221:373:37:63:70:215:239:319:365:386:482:34:50:164:236:270:376:442:19:59:128:141:146:165:179:284:301:317:68:73:212:241:250:265:287:350:459:35:36:61:75:82:93:118:171:199:234:262:283:344:21:39:196:272:282:309:324:325:326:360:452:527:548:9:22:47:102:163:172:205:207:293:294:297:302:311:366:367:414:429:439:455:476:524:24:80:132:159:210:219:226:255:278:286:292:379:410:457:2:18:40:79:84:85:96:107:140:144:152:153:183:185:197:220:258:310:340:357:374:390:447:450:453:456:473:549:575:10:43:44:64:74:86:101:114:123:133:142:145:158:180:195:216:290:291:330:351:354:388:412:417:430:434:438:444:458:470:472:479:534:535:537:580:14:65:66:88:97:135:139:148:178:189:209:213:225:235:288:295:322:364:377:380:427:432:445:446:463:496:526:530:532:533:546:552:581:1:20:30:32:58:67:71:72:92:113:129:150:168:170:175:177:193:202:217:237:247:249:252:253:256:261:268:276:298:305:308:334:343:346:358:359:363:372:381:407:425:435:437:448:467:480:528:577:623 103:525:561:782:454:101:566:207:632:894:108:9:517:531:769:784:17:575:455:91:607:673:111:195:838:44:265:743:88:226:325:829:130:202:237:503:686:760:866:241:485:685:840:938:12:229:267:478:732:844:6:73:165:300:302:474:814:65:70:86:220:228:287:465:473:479:573:59:68:141:217:314:615:691:847:862:927:1:85:232:775:853:120:138:162:239:360:398:453:542:650:750:905:0:23:56:98:307:353:379:444:466:486:505:869:878:18:19:22:90:127:148:178:270:341:416:449:484:612:631:681:820:859:881:55:62:104:163:264:277:284:333:344:451:496:497:624:672:679:813:892:895:910:916:917:30:36:37:60:76:93:133:155:191:219:238:260:280:288:293:339:387:432:445:468:501:507:514:541:547:549:551:618:678:710:723:801:839:857:877:903:63:139:188:190:221:245:253:308:340:395:483:519:564:580:688:701:702:735:745:826:883:889:929:14:35:45:116:117:121:126:160:171:180:266:285:320:322:327:332:345:349:352:363:392:415:417:441:470:495:521:526:563:574:585:598:600:601:636:646:662:671:682:683:719:734:753:790:794:851:868:885:887:891:896:902:937:973:4:34:53:74:87:89:109:122:123:153:167:172:183:194:199:205:213:222:235:247:249:252:257:273:274:289:309:315:323:329:362:381:397:400:407:448:467:532:548:552:558:560:571:587:610:640:648:674:676:687:708:711:716:727:730:747:756:779:797:803:805:825:842:845:907:908:933:969:15:32:49:71:81:92:102:143:144:168:175:185:187:192:196:204:258:259:272:275:279:292:303:306:317:335:346:356:358:366:378:388:402:408:413:424:446:452:477:482:489:494:502:511:524:538:543:559:562:577:578:604:620:627:637:647:653:655:661:664:665:666:668:677:680:693:695:712:746:778:786:787:793:796:798:800:810:811:822:827:830:860:874:876:880:909:919:931:936:942:944:947:948:953:960:968 1:0 49:0:5:3:8:19:33:31:47:159:129:39:41:26:141:36:21:78:84:6:74:88:176:90:29:189:30:106:75:110:57:65:77:28:73:197:89:107:155:43:147:40:46:67:69:146:167:10:66:101:11:99:2:48:200:12:13:71:9:60:140:198:52:85:93:154:17:32:34:50:58:64:83:100:117:148:161:175:196:4:59:72:87:91:95:187:20:35:56:98:102:111:116:120:128:144:168:179:185:1:25:42:55:76:92:94:104:112:126:139:162:164:190:15:18:37:51:115:118:127:133:149:158:169:180:182:191:194:203 [-183.702:227.833] [-49.8874:81.708399999999997] 46:0:74:18:55:6:64:102:68:3:87:45:36:37:84:147:5:48:121:81:86:22:181:10:2:16:92:52:71:56:79:148:109:101:115:169:42:98:19:95:93:188:27:40:114:126:135:53:151:62:106:150:9:33:39:54:94:123:11:14:30:213:8:70:130:146:154:207:23:24:72:120:155:80:100:118:158:166:186:187:200:210:211:34:89:201:1:75:82:111:119:153:163:191:208:20:21:29:58:61:66:116:162:174:183:185:197:212:13:41:43:49:83:85:107:117:127:134:167:170:176:190:193:50:63:78:88:97:122:136:137:168:175:182:203:217:218 7:0:1:32:49:26:30:62:2:65:86:149:16:69:141:9:61:64:132:19:21:56:25:130:128:153:42:15:20:3:71:66:75:23:68:110:154:4:27:38:99:33:47:80:88:112:113:150:152:8:29:46:79:89:116:122:135:139:17:24:39:123:124:134:18:83:90:126:13:37:51:52:92:94:119:127:140:22:54:57:85:93:103:105:120:125:138:142:146:151:6:31:34:41:48:53:58:70:74:84:91:97:106:114:115:136:137:156:158 2:0:7:8:9:3:10:1:6:17:20:4:22:26:25:12:47:14:5:33:29:11:18:42:24:16:41:19:31:38:13:30:36:43:54:55 [1:175] [1:42400] [1:20947] [1:38456.5] [1:57086.5] [1:1556770] [1:68.5] [1:6121] [1:8524] [1:263222] [1:249100] [1:418837] [1:574087] [1:1285890] [1:19936] [1:25] [1:121640] [1:151] 1:0 3:0:1:5:6:10:4:16:12:15:27:29:74:2:13:7:8:31:9:42:55:38:11:51:30:36:24:48:18:41:68:85:111:79:33:39:84:92:20:49:58:54:46:53:60:19:65:118:47:82:112:56:67:96:28:44:25:32:40:45:50:71:95:23:26:97:21:83:89:108:14:17:22:59:70:77:87:102:113 [-140.964:227.74900000000002] [-55.711999999999996:79.617599999999996] 2:0:23:8:11:6:14:28:54:77:25:19:15:20:27:30:101:12:44:7:13:63:9:34:46:38:70:89:91:143:72:112:16:29:31:73:128:139:24:65:66:69:88:102:118:168:90:18:59:61:141:71:140:147:32:37:39:83:17:126:155:1:62:119:5:10:22:36:93:100:35:137:67:110:122:127:136:176:4:45:47:80:81:82:114:154:40:68:76:96:99:108:115:185:41:53:60:85:113:129:171:172:56:75:79:87:106:142:156:161:178:26:33:43:52:57:92:94:95:97:121:132:134:135:138:152:169 18:0:70:6:20:32:21:40:12:38:10:4:9:46:78:27:60:23:31:7:59:67:11:24:68:107:93:16:55:49:81:131:48:30:72:114:90:51:66:101:104:119:87:15:5:29:111:82:96:89:14:88:100:41:79:80:28:97:113:1:8:33:35:39:61:98:108:120:140:17:45:50:91:25:64:105:106:133:13:19:26:37:42:54:58:69:71:83:95:99:102:118:148 [1:175] 1:0:2:3 [1:86611] [1:6244] [1:510108] [1:4779610] [1:121] [1:4702] [1:1666670] [1:151] [1:395101] [1:275.5] [1:1443570] [1:1061.5] [1:509664] [1:334504] [1:360349] [1:556288] [1:46318]
tree_sizes=1719 1111 1558 1410 1475 1262 1098 1331 1402 1547 1507 1267 1462

Tree=0
num_leaves=21
num_cat=1
split_feature=20 32 24 5 20 39 20 23 30 0 6 13 36 26 41 30 39 22 6 51
split_gain=33.3948 16.6646 14.7856 11.9869 5.00023 6.70229 7.0874 9.94905 3.64619 2.74108 2.63924 2.61036 2.32242 2.24039 2.21727 1.85755 1.27496 0.916179 0.27628 0.0257673
threshold=18608.500000000004 0 3278.5000000000005 168.65850000000003 87.250000000000014 241.00000000000003 1555.0000000000002 7114.7500000000009 176.18700000000004 15.250000000000002 50.77405000000001 12.250000000000002 2019.2500000000002 6.2500000000000009 1.7500000000000002 179.49050000000003 20410.750000000004 9832.7500000000018 45.530850000000008 50947.000000000007
decision_type=2 5 2 2 2 2 2 2 2 2 2 2 2 2 2 2 2 2 2 2
left_child=1 3 -2 8 9 6 7 -6 14 12 18 -8 -3 -9 -1 -10 -5 -13 -4 -14
right_child=2 4 10 16 5 -7 11 13 15 -11 -12 17 19 -15 -16 -17 -18 -19 -20 -21
leaf_value=-3.1855009084644093 -2.7547127555594635 -3.3476548822768599 -3.2085073349664608 -3.3052577663999454 -3.2337099865003633 -3.3496909869072651 -3.1491919613345463 -2.8067614955001465 -3.2246109813598598 -3.2246109813598598 -3.0628469918177492 -3.2246109813598598 -3.2246109813598598 -3.2165418908350087 -2.8417366614120896 -3.1168321076341465 -3.2221413529632761 -3.3228123405240666 -3.2626866424167171 -3.2366249519740871
leaf_count=88 119 1256 55 155 73 231 70 55 66 67 70 71 65 59 102 139 62 198 96 103
internal_value=0 -0.176595 1.47269 0.443306 -0.376487 -0.013 0.25618 1.00421 1.15275 -0.595212 0.313158 -0.100601 -0.649252 1.8128 1.69597 0.29027 -0.184642 -0.418861 -0 -0
internal_count=3200 2860 340 612 2248 757 526 187 395 1491 221 339 1424 114 190 205 217 269 151 168
cat_boundaries=0 5
cat_threshold=546582788 2151694433 201326722 80 6144
shrinkage=1


Tree=1
num_leaves=13
num_cat=2
split_feature=1 34 27 22 21 30 24 7 17 37 50 0
split_gain=51.465 12.6861 9.61816 12.136 6.33162 5.23962 3.73863 2.43337 2.40212 2.09376 1.98425 0.199675
threshold=0 39.250000000000007 34.000000000000007 42301.000000000007 43639.750000000007 173.34400000000002 732.25000000000011 1 211.00000000000003 460.75000000000006 12052.750000000002 15.250000000000002
decision_type=5 2 2 2 2 2 2 5 2 2 2 2
left_child=2 4 3 6 7 -3 -1 -2 10 11 -6 -9
right_child=1 5 -4 -5 8 -7 -8 9 -10 -11 -12 -13
leaf_value=0.20546453451859731 0.021347015658853566 -0 -0 0.56414730054986562 -0.08710702562615727 0.23083307156252048 0 -0.12587840822054483 0.14537054242975583 0 0.06609877545880069 -0
leaf_count=471 109 64 67 77 101 107 95 1878 53 58 47 73
internal_value=0 -0.354585 1.0074 1.5532 -0.510718 0.781923 1.03377 -0.607875 0.154179 -0.608562 -0 -0.724617
internal_count=3200 2490 710 643 2319 171 566 2118 201 2009 148 1951
cat_boundaries=0 15 18
cat_threshold=302059713 2147508292 0 0 268435457 67108864 0 18153472 19528 2281701376 128 2097664 0 0 2050 65540 17891328 131072
shrinkage=0.169796


Tree=2
num_leaves=19
num_cat=4
split_feature=1 7 20 5 27 37 7 23 24 34 23 6 23 35 23 26 22 22
split_gain=34.1995 13.6262 11.7288 7.48945 6.50317 5.56171 3.88857 3.78634 2.73622 2.53718 1.43181 1.42697 0.831874 1.85638 2.1897 0.553586 0.460567 0.441874
threshold=0 1 20461.750000000004 178.48850000000002 30.250000000000004 460.75000000000006 2 24851.500000000004 3116.5000000000005 39.250000000000007 8182.7500000000009 41.170950000000012 122803.00000000001 3 266.50000000000006 258.25000000000006 8798.5000000000018 1.7500000000000002
decision_type=5 5 2 2 2 2 5 2 2 2 2 2 2 1 2 2 2 2
left_child=4 5 6 8 12 9 7 10 -4 -2 -3 16 13 -1 -15 17 -8 -13
right_child=1 2 3 -5 -6 -7 11 -9 -10 -11 -12 15 -14 14 -16 -17 -18 -19
leaf_value=0.19557029421319791 -0.13816039326711843 0 0.38719949633934914 -0 -0 0.062185743111770532 -0.044407352846219821 -0 0.019058938897116937 0 0.26153249604091228 -0 0.36806810773035814 0.10550514538681181 -0.041937771773079058 -0 0.034832205680774005 -0.12982396935041582
leaf_count=297 1502 64 53 54 60 51 78 107 66 92 50 76 67 84 56 65 93 285
internal_value=0 -0.279101 0.152459 1.14029 0.841304 -0.57139 -0.0839699 0.268588 1.67709 -0.75432 1.09881 -0.293534 1.30533 0.91533 0.102481 -0.588674 -0 -0.665831
internal_count=3200 2636 991 173 564 1645 818 221 119 1594 114 597 504 437 140 426 171 361
cat_boundaries=0 15 21 26 27
cat_threshold=302055617 2147508228 131072 0 268435457 0 0 17104896 33572936 2147483648 0 2359808 0 0 2050 263265 8413184 13632641 33554496 0 2097152 65544 17892400 0 262144 524288 1
shrinkage=0.169796


Tree=3
num_leaves=16
num_cat=3
split_feature=7 22 2 39 26 4 47 37 22 24 37 40 26 36 34
split_gain=22.1454 12.7666 10.5273 6.17637 5.49083 4.11634 4.06939 3.60159 5.64941 3.74947 2.68864 0.643085 0.606351 0.18549 0.0169015
threshold=0 36334.750000000007 1 207672.00000000003 449.50000000000006 2 9.2500000000000018 28.750000000000004 15916.000000000002 120.25000000000001 187.75000000000003 22.750000000000004 1145.5000000000002 793.75000000000011 31.750000000000004
decision_type=5 2 5 2 2 5 2 2 2 2 2 2 2 2 2
left_child=2 5 6 10 -3 -2 -1 8 9 -7 11 -4 -6 -9 -12
right_child=1 4 3 -5 12 7 -8 13 -10 -11 14 -13 -14 -15 -16
leaf_value=0.23953106478035718 -0.046262799176428775 0.28310284125666535 -0.12176892003269932 0.076716902093598202 -0 0 -0 -0.033629254557125475 -0.00056905759064922428 0.24604771279386584 -0.0095317249840193106 -0 0.066976762893150452 0 0.0024250388435615331
leaf_count=123 214 212 1586 71 60 93 85 97 99 171 109 59 69 73 79
internal_value=0 0.507455 -0.307222 -0.462623 1.26322 0.107915 0.421786 0.313453 0.733276 1.08767 -0.620084 -0.694187 0.12857 -0 -0
internal_count=3200 1088 2112 1904 341 747 208 533 363 264 1833 1645 129 170 188
cat_boundaries=0 6 34 39
cat_threshold=134481481 1084252160 2160100497 1073750020 1048576 270533120 131074 0 0 0 0 0 0 0 2048 0 0 0 0 0 0 8388640 524288 2151677952 0 0 0 16384 0 0 0 0 2129920 1073741824 69206280 514 514 0 262146
shrinkage=0.169796


Tree=4
num_leaves=17
num_cat=3
split_feature=1 34 17 13 19 43 21 4 24 38 28 20 21 38 12 11
split_gain=24.8119 7.59072 5.12581 4.15207 4.79118 4.04304 3.83468 2.77202 2.53584 2.00313 0.618923 0.53684 0.649662 2.44966 0.509495 0.0921251
threshold=0 39.250000000000007 211.00000000000003 150.25000000000003 2934.2500000000005 37.750000000000007 90.250000000000014 1 2636.5000000000005 5584.7500000000009 2 112.00000000000001 17290.000000000004 19.750000000000004 229.75000000000003 161.50000000000003
decision_type=5 2 2 2 2 2 2 5 2 2 1 2 2 2 2 2
left_child=3 2 7 4 6 -3 10 11 -4 -9 -1 -2 13 -13 -5 -6
right_child=1 5 8 14 15 -7 -8 9 -10 -11 -12 12 -14 -15 -16 -17
leaf_value=0.15901703850886853 -0.012933220345579951 -0.010930879867283201 -0.013262684291612446 0.038163174424017218 0.29649976371232689 0.16856331938573441 -0.028646130399319191 -0.12322797382615401 0.13045720304347197 0 0.022696028857995501 0.16339922498712636 -0 -0 -0.046169743549480002 0.0061248890374314829
leaf_count=179 137 66 102 56 123 105 76 1697 70 115 182 65 84 53 58 32
internal_value=0 -0.281938 -0.427683 0.615898 0.932283 0.48902 0.467046 -0.52268 0.202008 -0.570948 0.682568 0.0120523 0.226875 0.442896 -0 1.56681
internal_count=3200 2494 2323 706 592 171 437 2151 172 1812 361 339 202 118 114 155
cat_boundaries=0 15 21 22
cat_threshold=302059713 2147508292 131072 0 268435457 4 0 22347776 19464 2281701376 128 2359296 0 0 2050 526368 33587712 16778248 0 8194 536870912 2
shrinkage=0.169796


Tree=5
num_leaves=15
num_cat=3
split_feature=32 19 4 34 19 16 32 12 6 31 12 18 22 31
split_gain=15.7803 11.6108 7.54513 6.62999 6.56985 4.59396 2.56331 2.07977 1.96828 1.96086 1.17664 0.555377 0.267774 0.183627
threshold=0 140616.00000000003 1 37.750000000000007 2328.2500000000005 3.2500000000000004 2 112.75000000000001 46.045200000000001 47.386250000000011 28.750000000000004 21.250000000000004 98022.000000000015 48.005900000000004
decision_type=5 2 5 2 2 2 5 2 2 2 2 2 2 2
left_child=-1 2 7 4 6 9 -4 10 -5 -6 13 -8 -7 -2
right_child=1 -3 3 8 5 12 11 -9 -10 -11 -12 -13 -14 -15
leaf_value=-0.096047972177933608 -0.067729687808596825 0.33554576220841409 0.044753530059361987 0.23244894724745388 0.16326099292319948 -0.045639196981552034 -0.047605335895908721 -0.12842259459725594 0 0 0.046432780131685183 0 0 -0
leaf_count=822 137 28 114 113 264 66 1001 272 35 99 93 59 34 63
internal_value=0 0.213019 0.141416 0.288315 0.170781 0.580138 -0.0514636 -0.290542 1.12252 0.799715 -0 -0.184539 -0.0397503 -0.311876
internal_count=3200 2378 2350 1785 1637 463 1174 565 148 363 293 1060 100 200
cat_boundaries=0 6 11 15
cat_threshold=1527300290 1744834692 50340676 4259840 565248 256 3290957128 642 1064960 17408 2147491842 8650752 4210688 0 32
shrinkage=0.169796


Tree=6
num_leaves=11
num_cat=3
split_feature=7 2 33 6 19 36 34 36 16 41
split_gain=15.3435 11.9563 5.60192 3.10223 3.39624 3.34945 3.55382 1.95554 1.91237 3.47332
threshold=0 1 2 60.133350000000007 2426.5000000000005 495.25000000000006 31.750000000000004 30.250000000000004 4.7500000000000009 203.50000000000003
decision_type=5 5 5 2 2 2 2 2 2 2
left_child=-1 -2 -3 4 5 7 -7 -4 9 -6
right_child=1 2 3 -5 8 6 -8 -9 -10 -11
leaf_value=-0.089979596368359879 -0.073153591767400564 -0.040169392859669341 0.03929505170166879 -0.0033527797627918251 0.18268392433704869 -0 0.16365984796580416 -0.064047887250472779 0 -0
leaf_count=857 435 218 506 82 399 170 194 231 62 46
internal_value=0 0.218069 0.382597 0.48485 0.605854 0.307257 0.650474 0 0.884584 0.969614
internal_count=3200 2343 1908 1690 1608 1101 364 737 507 445
cat_boundaries=0 6 36 41
cat_threshold=134483520 1084252432 2160100497 1073750020 1048576 270533120 4096 4096 134218242 4096 4 0 1024 20 0 16384 0 256 0 0 1107296256 0 32 4194304 0 128 0 2 0 128 81920 536870912 64 4 0 1024 152115328 402784512 537018368 262144 8
shrinkage=0.169796


Tree=7
num_leaves=15
num_cat=3
split_feature=32 7 2 30 5 6 20 5 36 11 11 10 41 30
split_gain=11.4968 10.8527 5.06268 5.05533 4.10528 3.2563 2.61206 2.35786 1.51201 1.00807 0.169871 0.23274 0.102023 0.0671441
threshold=0 1 2 164.41050000000004 163.08550000000002 53.687950000000008 43495.750000000007 176.28600000000003 10480.000000000002 1.7500000000000002 97.750000000000014 25.750000000000004 1.7500000000000002 156.58000000000004
decision_type=5 5 5 2 2 2 2 2 2 2 2 2 2 2
left_child=-1 10 -3 4 9 6 -6 8 12 13 -2 -12 -5 -4
right_child=1 2 3 7 5 -7 -8 -9 -10 -11 11 -13 -14 -15
leaf_value=-0.090379147746417032 -0.12479510762661987 -0.043666100462684355 0.011364417032479394 0.039098362394501839 0.15572648205638517 -0 0 -0 0 -0.069381947060114815 0 -0.042158979065937047 0.20284723721839981 -0
leaf_count=822 392 207 478 150 249 99 36 59 73 89 72 96 291 87
internal_value=0 0.146152 0.314231 0.405872 0.207136 0.515332 0.715513 0.824514 0.923438 -0.0132995 -0.395335 -0.0124214 1.03515 0.0234733
internal_count=3200 2378 1818 1611 1038 384 285 573 514 654 560 168 441 565
cat_boundaries=0 6 12 41
cat_threshold=1527300290 1744834692 50340676 4259840 565248 256 134483008 24848 2160100497 8196 1048576 270533120 0 4096 134217728 4096 4 0 0 4 0 0 0 0 0 0 0 0 32 0 0 0 0 2 0 128 81920 536870912 64 4 2147483648
shrinkage=0.169796


Tree=8
num_leaves=17
num_cat=1
split_feature=1 20 39 17 0 37 17 18 37 39 0 6 14 17 50 19
split_gain=14.6971 5.132 3.24876 2.82486 2.69997 2.61897 3.33724 1.99003 1.84149 1.34933 1.07557 0.902013 1.29314 0.296165 0.261055 0.204616
threshold=0 18608.500000000004 207672.00000000003 184.75000000000003 4.7500000000000009 187.75000000000003 228.25000000000003 643.75000000000011 36.250000000000007 6604.0000000000009 18.250000000000004 53.875500000000009 18.250000000000004 4.7500000000000009 16304.500000000002 25.750000000000004
decision_type=5 2 2 2 2 2 2 2 2 2 2 2 2 2 2 2
left_child=3 2 5 4 -1 6 -2 8 -3 -10 15 12 -9 -7 -4 -6
right_child=1 7 14 -5 10 13 -8 11 9 -11 -12 -13 -14 -15 -16 -17
leaf_value=0.1458112231264852 -0.10683470471559385 -0.08352435611070852 -0 -0 -0.033303811525403813 0.018621307360830709 0.014574713357076337 0.17983130935457514 0.10926819575786882 -0 0.077897171475229648 -0 0 -0.039078826815818223 0.061386336679424926 0
leaf_count=360 1903 102 46 52 79 202 72 24 34 32 64 37 59 63 35 36
internal_value=0 -0.247687 -0.408989 0.439156 0.655342 -0.475667 -0.560444 0.132743 -0.0441457 0.206225 0.0363214 0.502041 0.670782 0 0.181623 -0.0452218
internal_count=3200 2609 2321 591 539 2240 1975 288 168 66 179 120 83 265 81 115
cat_boundaries=0 15
cat_threshold=301990081 2147508292 131072 0 268435457 67108864 0 22282240 18504 2281701376 128 2490368 0 0 2050
shrinkage=0.169796


Tree=9
num_leaves=20
num_cat=3
split_feature=1 20 0 27 19 38 22 0 37 19 28 0 42 17 19 0 35 37 34
split_gain=10.3975 4.11502 3.51408 2.43231 2.57788 1.96229 1.5682 1.52698 1.65163 1.28417 1.20071 0.848556 0.752703 0.743934 0.39945 0.339892 0.326329 0.274744 0.19104
threshold=0 18608.500000000004 6.2500000000000009 34.000000000000007 6.2500000000000009 5060.5000000000009 211059.00000000003 1.7500000000000002 3.2500000000000004 12519.250000000002 1 7.7500000000000009 25175.500000000004 292.00000000000006 132478.00000000003 18.250000000000004 2 196.75000000000003 46.750000000000007
decision_type=5 2 2 2 2 2 2 2 2 2 1 2 2 2 2 2 1 2 2
left_child=3 2 5 4 7 12 9 8 -1 10 -3 -4 18 14 -11 17 -9 -13 -2
right_child=1 6 11 -5 -6 -7 -8 16 -10 13 -12 15 -14 -15 -16 -17 -18 -19 -20
leaf_value=0.12680550610533281 -0.10024102272584134 -0 0.079363134178513692 -0.0049076713764591258 0.14373152101727973 0 0.10224884155895245 0 -0 -0.09333630605841152 0.11954623761307988 -0.056026839028312243 -0 0 -0 0 -0.053539030023727348 0 -0
leaf_count=95 1610 27 97 61 220 124 45 51 82 130 21 191 148 43 27 62 62 61 43
internal_value=0 -0.207236 -0.357057 0.372703 0.563231 -0.474053 0.118518 0.115579 0.394399 -0 0.326449 0.00449591 -0.531207 -0.237096 -0.404433 -0.0148668 -0.102512 -0.202668 -0.571159
internal_count=3200 2629 2336 571 510 1925 293 290 177 248 48 411 1801 200 157 314 113 252 1653
cat_boundaries=0 15 16 17
cat_threshold=268439681 2147508228 131072 0 268959745 67108864 0 22347776 33572936 2281701376 128 262144 0 0 2050 2 2
shrinkage=0.169796


Tree=10
num_leaves=17
num_cat=3
split_feature=2 1 20 9 42 43 51 6 6 46 27 22 39 39 42 37
split_gain=7.50367 8.84696 2.52809 3.5503 4.01449 3.04422 1.88744 1.75787 2.19584 1.23492 1.1637 1.02617 0.888591 1.84992 0.867755 0.475541
threshold=0 1 38517.250000000007 2 14.500000000000002 93.250000000000014 24136.750000000004 55.954950000000004 34.763850000000005 141357.50000000003 3.2500000000000004 42847.750000000007 20410.750000000004 322.00000000000006 4950.2500000000009 100.00000000000001
decision_type=5 5 2 5 2 2 2 2 2 2 2 2 2 2 2 2
left_child=15 -2 3 6 7 14 11 8 -5 -8 -7 -3 13 -4 -6 -1
right_child=1 2 12 4 5 10 9 -9 -10 -11 -12 -13 -14 -15 -16 -17
leaf_value=-0.1292386864450516 -0.076028202135049294 -0.08965492673833024 0.010059926497816587 0.040868286550870665 -0.076074692325382789 0.068933924082274001 0.10763393956682372 -0 0.19498591349390726 -0 -0 0 0 0.24371118243408305 0 -0
leaf_count=574 441 303 55 382 370 380 37 70 167 60 78 64 22 31 56 110
internal_value=0 0.11109 0.244577 0.173249 0.280261 0.0362759 -0.134323 0.632264 0.718066 0.145445 0.292649 -0.400079 0.755309 0.89125 -0.308861 -0.450049
internal_count=3200 2516 2075 1967 1503 884 464 619 549 97 458 367 108 86 426 684
cat_boundaries=0 30 47 48
cat_threshold=512 0 150994944 4256 4 32 33792 8212 0 0 0 0 0 0 3221225664 0 32 131072 2147483648 128 0 8194 0 16777344 81922 16384 320 0 0 1024 2357329920 1180162 1073741824 3670036 142606336 2 65536 49280 0 528386 268435456 1073741824 32 0 0 4 8192 608305428
shrinkage=0.169796


Tree=11
num_leaves=15
num_cat=3
split_feature=7 32 4 23 10 6 43 41 50 49 0 30 20 17
split_gain=7.05898 6.98345 3.24302 6.08282 3.49382 3.46716 1.87186 1.85218 0.944781 0.964315 0.704706 0.576456 0.23188 0.173086
threshold=0 1 2 586.00000000000011 49.750000000000007 60.133350000000007 33.250000000000007 168.25000000000003 22547.500000000004 14438.500000000002 18.250000000000004 173.01400000000004 61487.500000000007 126.25000000000001
decision_type=5 5 5 2 2 2 2 2 2 2 2 2 2 2
left_child=12 -2 6 8 5 7 13 -5 10 -10 11 -4 -1 -3
right_child=1 2 3 4 -6 -7 -8 -9 9 -11 -12 -13 -14 -15
leaf_value=-0.1067732599375046 -0.068109848200039597 -0.10598101491281674 -0.033033786480970155 0.15918654681904096 -0.0013491152935641247 -0 0.0089212422831727173 0 0.12170164344798148 -0 0.058170724324750567 0 -0 -0
leaf_count=731 456 191 650 397 40 52 90 55 46 64 50 264 69 45
internal_value=0 0.114319 0.232545 0.321797 0.66477 0.760626 -0.132071 0.854195 0.0329121 0.406528 -0 -0.0841768 -0.407551 -0.524422
internal_count=3200 2400 1944 1618 544 504 326 452 1074 110 964 914 800 236
cat_boundaries=0 6 12 17
cat_threshold=263236 1084252176 12747905 1107304452 0 2097664 1258324162 671109252 50340672 4259840 32768 256 69207296 16658 67118080 1024 134225922
shrinkage=0.169796


Tree=12
num_leaves=15
num_cat=5
split_feature=1 2 13 29 1 4 6 12 6 37 39 5 13 13
split_gain=7.09562 3.49665 3.34635 2.0399 1.89787 2.04715 2.36475 3.15956 1.84942 3.01208 1.59837 0.269391 0.115612 0.00200417
threshold=0 1 44.500000000000007 2 3 4 59.870950000000008 3.2500000000000004 52.498850000000012 153.25000000000003 184031.50000000003 170.7055 150.25000000000003 4.7500000000000009
decision_type=5 5 2 5 5 5 2 2 2 2 2 2 2 2
left_child=2 -2 8 10 -5 -6 7 -7 9 -1 -3 12 -4 -12
right_child=1 3 11 4 5 6 -8 -9 -10 -11 13 -13 -14 -15
leaf_value=0.15654937749664682 -0.082039511825740097 -0.11266077891339482 0.031169925786799845 -0.037679927416670998 -0.026359941950281875 0 -0.0462386530572143 0.10810144144198737 -0 0 0.004125719093470025 -0.036411552228365618 -0 -0
leaf_count=210 637 419 27 208 216 673 99 410 44 69 29 79 42 38
internal_value=0 -0.172573 0.317934 -0.0155189 0.059677 0.150169 0.244293 0.379219 0.620409 0.719634 -0.271796 -0 0.0353979 0
internal_count=3200 2729 471 2092 1606 1398 1182 1083 323 279 486 148 69 67
cat_boundaries=0 15 43 46 62 67
cat_threshold=301990025 2147508228 0 16 268435457 67108864 0 18087936 17480 2147483648 0 262144 0 0 2050 4672 4096 4194306 4256 0 32 32776 139264 512 0 0 256 0 0 0 0 532512 2151809024 2147483648 16777344 0 16386 0 0 81922 0 64 1073741824 3892588242 64 16 131072 512 0 2097156 134225920 2 65536 16512 0 524288 131072 1073741824 32 0 0 4 1679819784 18 68158464 1024 134217728
shrinkage=0.169796


end of trees

feature importances:
n_table_1.n_2=12
n_table_1.n_16=10
n_table_2.n_6=10
n_1=9
n_table_1.n_18=9
c_02=8
n_table_1.n_15=8
n_table_2.n_8=8
c_table_1.c_3=7
n_table_1.n_11=7
n_table_2.n_3=7
n_table_1.n_19=6
n_table_2.n_1=6
c_01=5
c_table_1.c_2=5
n_table_1.n_1=5
n_table_1.n_7=5
n_table_1.n_20=5
c_table_2.c_3=5
n_table_2.n_5=5
n_table_1.n_6=4
n_table_1.n_26=4
n_table_1.n_27=4
n_table_2.n_10=4
n_table_1.n_5=3
n_table_1.n_17=3
n_table_2.n_7=3
n_table_2.n_11=3
n_table_2.n_12=3
n_table_3.n_5=3
n_table_1.n_3=2
n_table_1.n_10=2
n_table_1.n_12=2
c_table_2.c_1=2
n_table_2.n_2=2
c_table_2.c_6=2
n_table_3.n_6=2
c_table_1.c_5=1
n_table_1.n_8=1
c_table_2.c_2=1
c_table_2.c_4=1
n_table_2.n_9=1
n_table_3.n_1=1
n_table_3.n_2=1
n_table_3.n_4=1

parameters:
[boosting: gbdt]
[objective: binary]
[metric: auc]
[tree_learner: serial]
[device_type: cpu]
[data: ]
[valid: ]
[num_iterations: 100]
[learning_rate: 0.169796]
[num_leaves: 100]
[num_threads: 4]
[max_depth: 7]
[min_data_in_leaf: 20]
[min_sum_hessian_in_leaf: 2.00646]
[bagging_fraction: 0.8]
[bagging_freq: 88]
[bagging_seed: 3]
[feature_fraction: 0.8]
[feature_fraction_seed: 2]
[early_stopping_round: 0]
[max_delta_step: 0]
[lambda_l1: 1.57558]
[lambda_l2: 1.35787]
[min_gain_to_split: 0]
[drop_rate: 0.1]
[max_drop: 50]
[skip_drop: 0.5]
[xgboost_dart_mode: 0]
[uniform_drop: 0]
[drop_seed: 4]
[top_rate: 0.2]
[other_rate: 0.1]
[min_data_per_group: 100]
[max_cat_threshold: 32]
[cat_l2: 10]
[cat_smooth: 10]
[max_cat_to_onehot: 4]
[top_k: 20]
[monotone_constraints: ]
[feature_contri: ]
[forcedsplits_filename: ]
[refit_decay_rate: 0.9]
[verbosity: -1]
[max_bin: 255]
[min_data_in_bin: 3]
[bin_construct_sample_cnt: 200000]
[histogram_pool_size: -1]
[data_random_seed: 1]
[output_model: LightGBM_model.txt]
[snapshot_freq: -1]
[input_model: ]
[output_result: LightGBM_predict_result.txt]
[initscore_filename: ]
[valid_data_initscores: ]
[pre_partition: 0]
[enable_bundle: 1]
[max_conflict_rate: 0]
[is_enable_sparse: 1]
[sparse_threshold: 0.8]
[use_missing: 1]
[zero_as_missing: 0]
[two_round: 0]
[save_binary: 0]
[enable_load_from_binary_file: 1]
[header: 0]
[label_column: ]
[weight_column: ]
[group_column: ]
[ignore_column: ]
[categorical_feature: ]
[predict_raw_score: 0]
[predict_leaf_index: 0]
[predict_contrib: 0]
[num_iteration_predict: -1]
[pred_early_stop: 0]
[pred_early_stop_freq: 10]
[pred_early_stop_margin: 10]
[convert_model_language: ]
[convert_model: gbdt_prediction.cpp]
[num_class: 1]
[is_unbalance: 0]
[scale_pos_weight: 1]
[sigmoid: 1]
[boost_from_average: 1]
[reg_sqrt: 0]
[alpha: 0.9]
[fair_c: 1]
[poisson_max_delta_step: 0.7]
[tweedie_variance_power: 1.5]
[max_position: 20]
[label_gain: ]
[metric_freq: 1]
[is_provide_training_metric: 0]
[eval_at: ]
[num_machines: 1]
[local_listen_port: 12400]
[time_out: 120]
[machine_list_filename: ]
[machines: ]
[gpu_platform_id: -1]
[gpu_device_id: -1]
[gpu_use_dp: 0]

end of parameters

pandas_categorical:[[0, 1, 2, 3, 4, 5, 6, 7, 8, 9, 10, 11, 12, 13, 14, 15, 16, 17, 18, 19, 20, 21, 22, 23, 24, 25, 26, 27, 28, 29, 30, 31, 32, 33, 34, 35, 36, 37, 38, 39, 40, 41, 42, 43, 44, 45, 46, 47, 48, 49, 50, 51, 52, 53, 54, 55, 56, 57, 58, 59, 60, 61, 62, 63, 64, 65, 66, 67, 68, 69, 70, 71, 72, 73, 74, 75, 76, 77, 78, 79, 80, 81, 82, 83, 84, 85, 86, 87, 88, 89, 90, 91, 92, 93, 94, 95, 96, 97, 98, 99, 100, 101, 102, 103, 104, 105, 106, 107, 108, 109, 110, 111, 112, 113, 114, 115, 116, 117, 118, 119, 120, 121, 122, 123, 124, 125, 126, 127, 128, 129, 130, 131, 132, 133, 134, 135, 136, 137, 138, 139, 140, 141, 142, 143, 144, 145, 146, 147, 148, 149, 150, 151, 152, 153, 154, 155, 156, 157, 158, 159, 160, 161, 162, 163, 164, 165, 166, 167, 168, 169, 170, 171, 172, 173, 174, 175, 176, 177, 178, 179, 180, 181, 182, 183, 184, 185, 186, 187, 188, 189, 190, 191, 192, 193, 194, 195, 196, 197, 198, 199, 200, 201, 202, 203, 204, 205, 206, 207, 208, 209, 210, 211, 212, 213, 214, 215, 216, 217, 218, 219, 220, 221, 222, 223, 224, 225, 226, 227, 228, 229, 230, 231, 232, 233, 234, 235, 236, 237, 238, 239, 240, 241, 242, 243, 244, 245, 246, 247, 248, 249, 250, 251, 252, 253, 254, 255, 256, 257, 258, 259, 260, 261, 262, 263, 264, 265, 266, 267, 268, 269, 270, 271, 272, 273, 274, 275, 276, 277, 278, 279, 280, 281, 282, 283, 284, 285, 286, 287, 288, 289, 290, 291, 292, 293, 294, 295, 296, 297, 298, 299, 300, 301, 302, 303, 304, 305, 306, 307, 308, 309, 310, 311, 312, 313, 314, 315, 316, 317, 318, 319, 320, 321, 322, 323, 324, 325, 326, 327, 328, 329, 330, 331, 332, 333, 334, 335, 336, 337, 338, 339, 340, 341, 342, 343, 344, 345, 346, 347, 348, 349, 350, 351, 352, 353, 354, 355, 356, 357, 358, 359, 360, 361, 362, 363, 364, 365, 366, 367, 368, 369, 370, 371, 372, 373, 374, 375, 376, 377, 378, 379, 380, 381, 382, 383, 384, 385, 386, 387, 388, 389, 390, 391, 392, 393, 394, 395, 396, 397, 398, 399, 400, 401, 402, 403, 404, 405, 406, 407, 408, 409, 410, 411, 412, 413, 414, 415, 416, 417, 418, 419, 420, 421, 422, 423, 424, 425, 426, 427, 428, 429, 430, 431, 432, 433, 434, 435, 436, 437, 438, 439, 440, 441, 442, 443, 444, 445, 446, 447, 448, 449, 450, 451, 452, 453, 454, 455, 456, 457, 458, 459, 460, 461, 462, 463, 464, 465, 466, 467, 468, 469, 470, 471, 472, 473, 474, 475, 476, 477, 478, 479, 480, 481, 482, 483, 484, 485, 486, 487, 488, 489, 490, 491, 492, 493, 494, 495, 496, 497, 498, 499, 500, 501, 502, 503, 504, 505, 506, 507, 508, 509, 510, 511, 512, 513, 514, 515, 516, 517, 518, 519, 520, 521, 522, 523, 524, 525, 526, 527, 528, 529, 530, 531, 532, 533, 534, 535, 536, 537, 538, 539, 540, 541, 542, 543, 544, 545, 546, 547, 548, 549, 550, 551, 552, 553, 554, 555, 556, 557, 558, 559, 560, 561, 562, 563, 564, 565, 566, 567, 568, 569, 570, 571, 572, 573, 574, 575, 576, 577, 578, 579, 580, 581, 582, 583, 584, 585, 586, 587, 588, 589, 590, 591, 592, 593, 594, 595, 596, 597, 598, 599, 600, 601, 602, 603, 604, 605, 606, 607, 608, 609, 610, 611, 612, 613, 614, 615, 616, 617, 618, 619, 620, 621, 622, 623, 624, 625, 626, 627, 628, 629, 630, 631, 632, 633, 634, 635, 636, 637], [0, 1, 2, 3, 4, 5, 6, 7, 8, 9, 10, 11, 12, 13, 14, 15, 16, 17, 18, 19, 20, 21, 22, 23, 24, 25, 26, 27, 28, 29, 30, 31, 32, 33, 34, 35, 36, 37, 38, 39, 40, 41, 42, 43, 44, 45, 46, 47, 48, 49, 50, 51, 52, 53, 54, 55, 56, 57, 58, 59, 60, 61, 62, 63, 64, 65, 66, 67, 68, 69, 70, 71, 72, 73, 74, 75, 76, 77, 78, 79, 80, 81, 82, 83, 84, 85, 86, 87, 88, 89, 90, 91, 92, 93, 94, 95, 96, 97, 98, 99, 100, 101, 102, 103, 104, 105, 106, 107, 108, 109, 110, 111, 112, 113, 114, 115, 116, 117, 118, 119, 120, 121, 122, 123, 124, 125, 126, 127, 128, 129, 130, 131, 132, 133, 134, 135, 136, 137, 138, 139, 140, 141, 142, 143, 144, 145, 146, 147, 148, 149, 150, 151, 152, 153, 154, 155, 156, 157, 158, 159, 160, 161, 162, 163, 164, 165, 166, 167, 168, 169, 170, 171, 172, 173, 174, 175, 176, 177, 178, 179, 180, 181, 182, 183, 184, 185, 186, 187, 188, 189, 190, 191, 192, 193, 194, 195, 196, 197, 198, 199, 200, 201, 202, 203, 204, 205, 206, 207, 208, 209, 210, 211, 212, 213, 214, 215, 216, 217, 218, 219, 220, 221, 222, 223, 224, 225, 226, 227, 228, 229, 230, 231, 232, 233, 234, 235, 236, 237, 238, 239, 240, 241, 242, 243, 244, 245, 246, 247, 248, 249, 250, 251, 252, 253, 254, 255, 256, 257, 258, 259, 260, 261, 262, 263, 264, 265, 266, 267, 268, 269, 270, 271, 272, 273, 274, 275, 276, 277, 278, 279, 280, 281, 282, 283, 284, 285, 286, 287, 288, 289, 290, 291, 292, 293, 294, 295, 296, 297, 298, 299, 300, 301, 302, 303, 304, 305, 306, 307, 308, 309, 310, 311, 312, 313, 314, 315, 316, 317, 318, 319, 320, 321, 322, 323, 324, 325, 326, 327, 328, 329, 330, 331, 332, 333, 334, 335, 336, 337, 338, 339, 340, 341, 342, 343, 344, 345, 346, 347, 348, 349, 350, 351, 352, 353, 354, 355, 356, 357, 358, 359, 360, 361, 362, 363, 364, 365, 366, 367, 368, 369, 370, 371, 372, 373, 374, 375, 376, 377, 378, 379, 380, 381, 382, 383, 384, 385, 386, 387, 388, 389, 390, 391, 392, 393, 394, 395, 396, 397, 398, 399, 400, 401, 402, 403, 404, 405, 406, 407, 408, 409, 410, 411, 412, 413, 414, 415, 416, 417, 418, 419, 420, 421, 422, 423, 424, 425, 426, 427, 428, 429, 430, 431, 432, 433, 434, 435, 436, 437, 438, 439, 440, 441, 442, 443, 444, 445, 446, 447, 448, 449, 450, 451, 452, 453, 454, 455, 456, 457, 458, 459, 460, 461, 462, 463, 464, 465, 466, 467, 468, 469, 470, 471, 472, 473, 474, 475, 476, 477, 478, 479, 480, 481, 482, 483, 484, 485, 486, 487, 488, 489, 490, 491, 492, 493, 494, 495, 496, 497, 498, 499, 500, 501, 502, 503, 504, 505, 506, 507, 508, 509, 510, 511, 512, 513, 514, 515, 516, 517, 518, 519, 520, 521, 522, 523, 524, 525, 526, 527, 528, 529, 530, 531, 532, 533, 534, 535, 536, 537, 538, 539, 540, 541, 542, 543, 544, 545, 546, 547, 548, 549, 550, 551, 552, 553, 554, 555, 556, 557, 558, 559, 560, 561, 562, 563, 564, 565, 566, 567, 568, 569, 570, 571, 572, 573, 574, 575, 576, 577, 578, 579, 580, 581, 582, 583, 584, 585, 586, 587, 588, 589, 590, 591, 592, 593, 594, 595, 596, 597, 598, 599, 600, 601, 602, 603, 604, 605, 606, 607, 608, 609, 610, 611, 612, 613, 614, 615, 616, 617, 618, 619, 620, 621, 622, 623, 624, 625, 626, 627, 628, 629, 630, 631, 632, 633, 634, 635, 636, 637, 638, 639, 640, 641, 642, 643, 644, 645, 646, 647, 648, 649, 650, 651, 652, 653, 654, 655, 656, 657, 658, 659, 660, 661, 662, 663, 664, 665, 666, 667, 668, 669, 670, 671, 672, 673, 674, 675, 676, 677, 678, 679, 680, 681, 682, 683, 684, 685, 686, 687, 688, 689, 690, 691, 692, 693, 694, 695, 696, 697, 698, 699, 700, 701, 702, 703, 704, 705, 706, 707, 708, 709, 710, 711, 712, 713, 714, 715, 716, 717, 718, 719, 720, 721, 722, 723, 724, 725, 726, 727, 728, 729, 730, 731, 732, 733, 734, 735, 736, 737, 738, 739, 740, 741, 742, 743, 744, 745, 746, 747, 748, 749, 750, 751, 752, 753, 754, 755, 756, 757, 758, 759, 760, 761, 762, 763, 764, 765, 766, 767, 768, 769, 770, 771, 772, 773, 774, 775, 776, 777, 778, 779, 780, 781, 782, 783, 784, 785, 786, 787, 788, 789, 790, 791, 792, 793, 794, 795, 796, 797, 798, 799, 800, 801, 802, 803, 804, 805, 806, 807, 808, 809, 810, 811, 812, 813, 814, 815, 816, 817, 818, 819, 820, 821, 822, 823, 824, 825, 826, 827, 828, 829, 830, 831, 832, 833, 834, 835, 836, 837, 838, 839, 840, 841, 842, 843, 844, 845, 846, 847, 848, 849, 850, 851, 852, 853, 854, 855, 856, 857, 858, 859, 860, 861, 862, 863, 864, 865, 866, 867, 868, 869, 870, 871, 872, 873, 874, 875, 876, 877, 878, 879, 880, 881, 882, 883, 884, 885, 886, 887, 888, 889, 890, 891, 892, 893, 894, 895, 896, 897, 898, 899, 900, 901, 902, 903, 904, 905, 906, 907, 908, 909, 910, 911, 912, 913, 914, 915, 916, 917, 918, 919, 920, 921, 922, 923, 924, 925, 926, 927, 928, 929, 930, 931, 932, 933, 934, 935, 936, 937, 938, 939, 940, 941, 942, 943, 944, 945, 946, 947, 948, 949, 950, 951, 952, 953, 954, 955, 956, 957, 958, 959, 960, 961, 962, 963, 964, 965, 966, 967, 968, 969, 970, 971, 972, 973], [0, 1], [0, 1, 2, 3, 4, 5, 6, 7, 8, 9, 10, 11, 12, 13, 14, 15, 16, 17, 18, 19, 20, 21, 22, 23, 24, 25, 26, 27, 28, 29, 30, 31, 32, 33, 34, 35, 36, 37, 38, 39, 40, 41, 42, 43, 44, 45, 46, 47, 48, 49, 50, 51, 52, 53, 54, 55, 56, 57, 58, 59, 60, 61, 62, 63, 64, 65, 66, 67, 68, 69, 70, 71, 72, 73, 74, 75, 76, 77, 78, 79, 80, 81, 82, 83, 84, 85, 86, 87, 88, 89, 90, 91, 92, 93, 94, 95, 96, 97, 98, 99, 100, 101, 102, 103, 104, 105, 106, 107, 108, 109, 110, 111, 112, 113, 114, 115, 116, 117, 118, 119, 120, 121, 122, 123, 124, 125, 126, 127, 128, 129, 130, 131, 132, 133, 134, 135, 136, 137, 138, 139, 140, 141, 142, 143, 144, 145, 146, 147, 148, 149, 150, 151, 152, 153, 154, 155, 156, 157, 158, 159, 160, 161, 162, 163, 164, 165, 166, 167, 168, 169, 170, 171, 172, 173, 174, 175, 176, 177, 178, 179, 180, 181, 182, 183, 184, 185, 186, 187, 188, 189, 190, 191, 192, 193, 194, 195, 196, 197, 198, 199, 200, 201, 202, 203, 204, 205, 206], [0, 1, 2, 3, 4, 5, 6, 7, 8, 9, 10, 11, 12, 13, 14, 15, 16, 17, 18, 19, 20, 21, 22, 23, 24, 25, 26, 27, 28, 29, 30, 31, 32, 33, 34, 35, 36, 37, 38, 39, 40, 41, 42, 43, 44, 45, 46, 47, 48, 49, 50, 51, 52, 53, 54, 55, 56, 57, 58, 59, 60, 61, 62, 63, 64, 65, 66, 67, 68, 69, 70, 71, 72, 73, 74, 75, 76, 77, 78, 79, 80, 81, 82, 83, 84, 85, 86, 87, 88, 89, 90, 91, 92, 93, 94, 95, 96, 97, 98, 99, 100, 101, 102, 103, 104, 105, 106, 107, 108, 109, 110, 111, 112, 113, 114, 115, 116, 117, 118, 119, 120, 121, 122, 123, 124, 125, 126, 127, 128, 129, 130, 131, 132, 133, 134, 135, 136, 137, 138, 139, 140, 141, 142, 143, 144, 145, 146, 147, 148, 149, 150, 151, 152, 153, 154, 155, 156, 157, 158, 159, 160, 161, 162, 163, 164, 165, 166, 167, 168, 169, 170, 171, 172, 173, 174, 175, 176, 177, 178, 179, 180, 181, 182, 183, 184, 185, 186, 187, 188, 189, 190, 191, 192, 193, 194, 195, 196, 197, 198, 199, 200, 201, 202, 203, 204, 205, 206, 207, 208, 209, 210, 211, 212, 213, 214, 215, 216, 217, 218, 219, 220], [0, 1, 2, 3, 4, 5, 6, 7, 8, 9, 10, 11, 12, 13, 14, 15, 16, 17, 18, 19, 20, 21, 22, 23, 24, 25, 26, 27, 28, 29, 30, 31, 32, 33, 34, 35, 36, 37, 38, 39, 40, 41, 42, 43, 44, 45, 46, 47, 48, 49, 50, 51, 52, 53, 54, 55, 56, 57, 58, 59, 60, 61, 62, 63, 64, 65, 66, 67, 68, 69, 70, 71, 72, 73, 74, 75, 76, 77, 78, 79, 80, 81, 82, 83, 84, 85, 86, 87, 88, 89, 90, 91, 92, 93, 94, 95, 96, 97, 98, 99, 100, 101, 102, 103, 104, 105, 106, 107, 108, 109, 110, 111, 112, 113, 114, 115, 116, 117, 118, 119, 120, 121, 122, 123, 124, 125, 126, 127, 128, 129, 130, 131, 132, 133, 134, 135, 136, 137, 138, 139, 140, 141, 142, 143, 144, 145, 146, 147, 148, 149, 150, 151, 152, 153, 154, 155, 156, 157, 158], [0, 1, 2, 3, 4, 5, 6, 7, 8, 9, 10, 11, 12, 13, 14, 15, 16, 17, 18, 19, 20, 21, 22, 23, 24, 25, 26, 27, 28, 29, 30, 31, 32, 33, 34, 35, 36, 37, 38, 39, 40, 41, 42, 43, 44, 45, 46, 47, 48, 49, 50, 51, 52, 53, 54, 55, 56], [0, 1], [0, 1, 2, 3, 4, 5, 6, 7, 8, 9, 10, 11, 12, 13, 14, 15, 16, 17, 18, 19, 20, 21, 22, 23, 24, 25, 26, 27, 28, 29, 30, 31, 32, 33, 34, 35, 36, 37, 38, 39, 40, 41, 42, 43, 44, 45, 46, 47, 48, 49, 50, 51, 52, 53, 54, 55, 56, 57, 58, 59, 60, 61, 62, 63, 64, 65, 66, 67, 68, 69, 70, 71, 72, 73, 74, 75, 76, 77, 78, 79, 80, 81, 82, 83, 84, 85, 86, 87, 88, 89, 90, 91, 92, 93, 94, 95, 96, 97, 98, 99, 100, 101, 102, 103, 104, 105, 106, 107, 108, 109, 110, 111, 112, 113, 114, 115, 116, 117, 118, 119, 120, 121, 122, 123, 124, 125, 126, 127, 128], [0, 1, 2, 3, 4, 5, 6, 7, 8, 9, 10, 11, 12, 13, 14, 15, 16, 17, 18, 19, 20, 21, 22, 23, 24, 25, 26, 27, 28, 29, 30, 31, 32, 33, 34, 35, 36, 37, 38, 39, 40, 41, 42, 43, 44, 45, 46, 47, 48, 49, 50, 51, 52, 53, 54, 55, 56, 57, 58, 59, 60, 61, 62, 63, 64, 65, 66, 67, 68, 69, 70, 71, 72, 73, 74, 75, 76, 77, 78, 79, 80, 81, 82, 83, 84, 85, 86, 87, 88, 89, 90, 91, 92, 93, 94, 95, 96, 97, 98, 99, 100, 101, 102, 103, 104, 105, 106, 107, 108, 109, 110, 111, 112, 113, 114, 115, 116, 117, 118, 119, 120, 121, 122, 123, 124, 125, 126, 127, 128, 129, 130, 131, 132, 133, 134, 135, 136, 137, 138, 139, 140, 141, 142, 143, 144, 145, 146, 147, 148, 149, 150, 151, 152, 153, 154, 155, 156, 157, 158, 159, 160, 161, 162, 163, 164, 165, 166, 167, 168, 169, 170, 171, 172, 173, 174, 175, 176, 177, 178, 179, 180, 181, 182, 183, 184, 185, 186, 187, 188, 189, 190, 191, 192, 193, 194, 195], [0, 1, 2, 3, 4, 5, 6, 7, 8, 9, 10, 11, 12, 13, 14, 15, 16, 17, 18, 19, 20, 21, 22, 23, 24, 25, 26, 27, 28, 29, 30, 31, 32, 33, 34, 35, 36, 37, 38, 39, 40, 41, 42, 43, 44, 45, 46, 47, 48, 49, 50, 51, 52, 53, 54, 55, 56, 57, 58, 59, 60, 61, 62, 63, 64, 65, 66, 67, 68, 69, 70, 71, 72, 73, 74, 75, 76, 77, 78, 79, 80, 81, 82, 83, 84, 85, 86, 87, 88, 89, 90, 91, 92, 93, 94, 95, 96, 97, 98, 99, 100, 101, 102, 103, 104, 105, 106, 107, 108, 109, 110, 111, 112, 113, 114, 115, 116, 117, 118, 119, 120, 121, 122, 123, 124, 125, 126, 127, 128, 129, 130, 131, 132, 133, 134, 135, 136, 137, 138, 139, 140, 141, 142, 143, 144, 145, 146, 147, 148, 149, 150], [0, 1, 2, 3]]
