tree
version=v2
num_class=1
num_tree_per_iteration=1
label_index=0
max_feature_idx=23
objective=binary sigmoid:1
feature_names=n_1 c_table_1.c_1 c_table_1.c_2 n_table_1.n_1 c_table_1.c_5 n_table_1.n_3 n_table_1.n_5 n_table_1.n_6 n_table_1.n_7 n_table_1.n_8 n_table_1.n_9 n_table_1.n_10 n_table_1.n_11 n_table_1.n_12 n_table_1.n_15 n_table_1.n_16 n_table_1.n_17 n_table_1.n_18 n_table_1.n_19 n_table_1.n_20 n_table_1.n_25 n_table_1.n_26 n_table_1.n_27 c_table_2.c_1
feature_infos=[1:61] 1:0 3:0:5:4:20:21:36:8:11:25:1:62:33:44:56:135:2:6:18:31:40:153:30:43:49:85:98:9:19:28:38:42:69:87:99:29:54:58:59:80:84:101:121:134:158:177 [-176.16200000000001:192.38099999999997] 4:0:10:3:8:1:7:14:9:13:26:24:15:5:16:20:2:11:28:33:35:39 [1:173.5] [1:3379] [1:46363] [1:3314.5] [1:517224] [1:891542] [1:46] [1:6121] [1:7070.5] [1:274774] [1:175798] [1:448222] [1:441384] [1:1178200] [1:10784.5] [1:38.5] [1:121640] [1:151] 1:0
tree_sizes=931 752 727 669 664 713

Tree=0
num_leaves=11
num_cat=1
split_feature=8 13 3 10 23 3 0 3 3 18
split_gain=2.76713 1.53631 1.31285 1.19024 0.499006 0.401975 0.277277 0.431707 0.219942 0.0251421
threshold=334.75000000000006 321.25000000000006 170.89600000000004 13903.000000000002 0 164.7055 1.7500000000000002 151.91200000000003 188.03450000000004 1056.2500000000002
decision_type=2 2 2 2 1 2 2 2 2 2
left_child=1 2 4 -3 5 9 7 -6 -4 -1
right_child=-2 3 8 -5 6 -7 -8 -9 -10 -11
leaf_value=-3.1892627669877012 -2.5795078612308489 -2.5837176809360294 -3.3542680142836181 -3.0263401186402326 -3.0263401186402326 -3.0263401186402326 -3.0263401186402326 -2.7640430189709555 -3.0263401186402326 -3.0263401186402326
leaf_count=188 48 24 137 35 147 28 108 37 24 24
internal_value=0 -0.0875825 -0.196394 0.366343 -0 -0.194188 0.0524847 0.180762 -0.542003 -0.280547
internal_count=800 752 693 59 532 240 292 184 161 212
cat_boundaries=0 1
cat_threshold=1
shrinkage=1


Tree=1
num_leaves=9
num_cat=1
split_feature=0 6 6 15 15 23 19 13
split_gain=2.08688 1.2283 5.13924 1.04092 0.798732 0.159144 0.103597 0.101394
threshold=15.250000000000002 1.7500000000000002 7.7500000000000009 9.2500000000000018 17464.000000000004 0 3.2500000000000004 1.7500000000000002
decision_type=2 2 2 2 2 1 2 2
left_child=1 4 -3 -4 6 -2 -1 -5
right_child=5 2 3 7 -6 -7 -8 -9
leaf_value=-0.03250089352512274 0 0.73689461037022619 0.035710669039583365 -0 0 0.44042118843190864 -0.27325597088044806 -0.24836917467319247
leaf_count=363 32 22 43 25 30 38 153 94
internal_value=0 -0.0684634 0.140723 -0.086258 -0.219387 0.642222 -0.293175 -0.401257
internal_count=800 730 184 162 546 70 516 119
cat_boundaries=0 1
cat_threshold=2
shrinkage=0.544036


Tree=2
num_leaves=9
num_cat=0
split_feature=21 15 8 8 6 5 0 0
split_gain=1.30517 3.71731 0.410705 0.691049 0.263177 0.295979 0.00363158 0.0839631
threshold=1.7500000000000002 205.00000000000003 163.00000000000003 6.2500000000000009 7.7500000000000009 31.750000000000004 16.750000000000004 1.7500000000000002
decision_type=2 2 2 2 2 2 2 2
left_child=2 -2 3 6 5 -3 7 -1
right_child=1 4 -4 -5 -6 -7 -8 -9
leaf_value=0 0.64058417020599201 0.15949893031305615 0.0049330599529342923 -0.22799204560725889 -0.13199177374342511 -0 0 -0.066582459290522922
leaf_count=296 31 34 42 156 70 34 33 104
internal_value=0 0.344291 -0.071263 -0.148193 -0 0.0513322 -0 -0.0142752
internal_count=800 169 631 589 138 68 433 400
shrinkage=0.544036


Tree=3
num_leaves=8
num_cat=1
split_feature=14 6 19 10 23 12 14
split_gain=1.04386 1.47525 0.900913 1.01624 0.426357 0.326076 0.0599012
threshold=1273.7500000000002 13.000000000000002 3692.5000000000005 33.250000000000007 0 3.2500000000000004 1.7500000000000002
decision_type=2 2 2 2 1 2 2
left_child=4 2 3 -2 6 -3 -1
right_child=1 5 -4 -5 -6 -7 -8
leaf_value=0.033325288389806688 -0 0 -0 0.44923468560103214 -0.12520002947592959 -0.14796957259062327 -0.033700846948505038
leaf_count=253 37 27 20 76 258 81 48
internal_value=0 0.261053 0.518623 0.660017 -0.0863472 -0 0
internal_count=800 241 133 113 559 108 301
cat_boundaries=0 1
cat_threshold=2
shrinkage=0.544036


Tree=4
num_leaves=8
num_cat=2
split_feature=4 6 15 15 17 17 23
split_gain=1.40546 1.23978 0.883176 0.434935 0.0695445 0.0596242 0.0193097
threshold=0 1.7500000000000002 4.7500000000000009 1168.0000000000002 40861.750000000007 1051.0000000000002 1
decision_type=5 2 2 2 2 2 1
left_child=2 4 6 -3 5 -2 -1
right_child=1 3 -4 -5 -6 -7 -8
leaf_value=-0.026043174621396669 0 0.44695072269692404 -0.28129413260553926 0 0.06942700377903456 -0.069272707354898447 0
leaf_count=195 46 49 141 33 28 58 250
internal_value=0 0.189629 -0.128771 0.629546 0 -0.0508809 -0
internal_count=800 214 586 82 132 104 445
cat_boundaries=0 1 2
cat_threshold=67134481 1
shrinkage=0.544036


Tree=5
num_leaves=9
num_cat=0
split_feature=21 18 12 13 19 15 18 15
split_gain=0.338013 0.544892 0.503813 0.271802 0.116152 1.14066 0.00891085 0.00291513
threshold=190.00000000000003 285445.50000000006 4.7500000000000009 361.00000000000006 101.50000000000001 1168.0000000000002 6.2500000000000009 40159.750000000007
decision_type=2 2 2 2 2 2 2 2
left_child=2 -2 4 -4 6 -6 -1 -7
right_child=1 -3 3 -5 5 7 -8 -9
leaf_value=-0 0.23253185148680861 -0 -0.19873778229769104 0 0.29857053254594906 -0.01439334107666778 -0.034925805063427601 0
leaf_count=397 45 24 128 21 40 60 64 21
internal_value=0 0.212442 -0.0472443 -0.270704 0 0.116971 -0.0169343 -0
internal_count=800 69 731 149 582 121 461 81
shrinkage=0.544036


end of trees

feature importances:
n_table_1.n_16=7
n_table_1.n_5=5
n_1=4
n_table_1.n_1=4
c_table_2.c_1=4
n_table_1.n_7=3
n_table_1.n_12=3
n_table_1.n_19=3
n_table_1.n_20=3
n_table_1.n_9=2
n_table_1.n_11=2
n_table_1.n_15=2
n_table_1.n_18=2
n_table_1.n_26=2
c_table_1.c_5=1
n_table_1.n_3=1

parameters:
[boosting: gbdt]
[objective: binary]
[metric: auc]
[tree_learner: serial]
[device_type: cpu]
[data: ]
[valid: ]
[num_iterations: 100]
[learning_rate: 0.544036]
[num_leaves: 55]
[num_threads: 4]
[max_depth: 7]
[min_data_in_leaf: 20]
[min_sum_hessian_in_leaf: 1.04542]
[bagging_fraction: 0.5]
[bagging_freq: 0]
[bagging_seed: 3]
[feature_fraction: 0.6]
[feature_fraction_seed: 2]
[early_stopping_round: 0]
[max_delta_step: 0]
[lambda_l1: 1.73556]
[lambda_l2: 1.58941]
[min_gain_to_split: 0]
[drop_rate: 0.1]
[max_drop: 50]
[skip_drop: 0.5]
[xgboost_dart_mode: 0]
[uniform_drop: 0]
[drop_seed: 4]
[top_rate: 0.2]
[other_rate: 0.1]
[min_data_per_group: 100]
[max_cat_threshold: 32]
[cat_l2: 10]
[cat_smooth: 10]
[max_cat_to_onehot: 4]
[top_k: 20]
[monotone_constraints: ]
[feature_contri: ]
[forcedsplits_filename: ]
[refit_decay_rate: 0.9]
[verbosity: -1]
[max_bin: 255]
[min_data_in_bin: 3]
[bin_construct_sample_cnt: 200000]
[histogram_pool_size: -1]
[data_random_seed: 1]
[output_model: LightGBM_model.txt]
[snapshot_freq: -1]
[input_model: ]
[output_result: LightGBM_predict_result.txt]
[initscore_filename: ]
[valid_data_initscores: ]
[pre_partition: 0]
[enable_bundle: 1]
[max_conflict_rate: 0]
[is_enable_sparse: 1]
[sparse_threshold: 0.8]
[use_missing: 1]
[zero_as_missing: 0]
[two_round: 0]
[save_binary: 0]
[enable_load_from_binary_file: 1]
[header: 0]
[label_column: ]
[weight_column: ]
[group_column: ]
[ignore_column: ]
[categorical_feature: ]
[predict_raw_score: 0]
[predict_leaf_index: 0]
[predict_contrib: 0]
[num_iteration_predict: -1]
[pred_early_stop: 0]
[pred_early_stop_freq: 10]
[pred_early_stop_margin: 10]
[convert_model_language: ]
[convert_model: gbdt_prediction.cpp]
[num_class: 1]
[is_unbalance: 0]
[scale_pos_weight: 1]
[sigmoid: 1]
[boost_from_average: 1]
[reg_sqrt: 0]
[alpha: 0.9]
[fair_c: 1]
[poisson_max_delta_step: 0.7]
[tweedie_variance_power: 1.5]
[max_position: 20]
[label_gain: ]
[metric_freq: 1]
[is_provide_training_metric: 0]
[eval_at: ]
[num_machines: 1]
[local_listen_port: 12400]
[time_out: 120]
[machine_list_filename: ]
[machines: ]
[gpu_platform_id: -1]
[gpu_device_id: -1]
[gpu_use_dp: 0]

end of parameters

pandas_categorical:[[0, 1, 2], [0, 1, 2, 3, 4, 5, 6, 7, 8, 9, 10, 11, 12, 13, 14, 15, 16, 17, 18, 19, 20, 21, 22, 23, 24, 25, 26, 27, 28, 29, 30, 31, 32, 33, 34, 35, 36, 37, 38, 39, 40, 41, 42, 43, 44, 45, 46, 47, 48, 49, 50, 51, 52, 53, 54, 55, 56, 57, 58, 59, 60, 61, 62, 63, 64, 65, 66, 67, 68, 69, 70, 71, 72, 73, 74, 75, 76, 77, 78, 79, 80, 81, 82, 83, 84, 85, 86, 87, 88, 89, 90, 91, 92, 93, 94, 95, 96, 97, 98, 99, 100, 101, 102, 103, 104, 105, 106, 107, 108, 109, 110, 111, 112, 113, 114, 115, 116, 117, 118, 119, 120, 121, 122, 123, 124, 125, 126, 127, 128, 129, 130, 131, 132, 133, 134, 135, 136, 137, 138, 139, 140, 141, 142, 143, 144, 145, 146, 147, 148, 149, 150, 151, 152, 153, 154, 155, 156, 157, 158, 159, 160, 161, 162, 163, 164, 165, 166, 167, 168, 169, 170, 171, 172, 173, 174, 175, 176, 177, 178, 179, 180, 181, 182, 183, 184], [0, 1, 2, 3, 4, 5, 6, 7, 8, 9, 10, 11, 12, 13, 14, 15, 16, 17, 18, 19, 20, 21, 22, 23, 24, 25, 26, 27, 28, 29, 30, 31, 32, 33, 34, 35, 36, 37, 38, 39, 40, 41, 42, 43, 44, 45, 46, 47, 48, 49, 50, 51, 52, 53, 54], [0, 1]]
