tree
version=v2
num_class=1
num_tree_per_iteration=1
label_index=0
max_feature_idx=52
objective=binary sigmoid:1
feature_names=n_1 c_02 c_01 c_table_1.c_1 c_table_1.c_2 n_table_1.n_1 n_table_1.n_2 c_table_1.c_3 c_table_1.c_4 c_table_1.c_5 n_table_1.n_3 n_table_1.n_5 n_table_1.n_6 n_table_1.n_7 n_table_1.n_8 n_table_1.n_9 n_table_1.n_10 n_table_1.n_11 n_table_1.n_12 n_table_1.n_15 n_table_1.n_16 n_table_1.n_17 n_table_1.n_18 n_table_1.n_19 n_table_1.n_20 n_table_1.n_25 n_table_1.n_26 n_table_1.n_27 c_table_2.c_1 c_table_2.c_2 n_table_2.n_1 n_table_2.n_2 c_table_2.c_3 c_table_2.c_4 n_table_2.n_3 c_table_2.c_6 n_table_2.n_5 n_table_2.n_6 n_table_2.n_7 n_table_2.n_8 n_table_2.n_9 n_table_2.n_10 n_table_2.n_11 n_table_2.n_12 n_table_2.n_13 n_table_2.n_14 n_table_3.n_1 n_table_3.n_2 n_table_3.n_3 n_table_3.n_4 n_table_3.n_5 n_table_3.n_6 n_table_3.n_7
feature_infos=[1:323.5] 45:29:251:315:12:6:16:31:361:7:25:5:266:52:94:161:204:238:307:382:3:98:162:389:0:26:81:115:116:242:369:24:49:55:70:93:100:147:155:208:244:246:248:267:317:17:28:41:68:75:156:157:171:186:215:231:240:241:259:262:301:348:386:446:19:21:35:37:38:46:47:48:63:73:78:79:90:117:124:128:143:164:189:207:212:221:270:283:289:322:327:344:350:374:388:449:457:476 632:103:101:782:9:207:454:525:607:829:108:229:455:561:44:85:91:130:217:226:235:314:325:566:685:750:760:769:866:12:17:195:202:485:531:673:19:111:120:178:245:265:287:293:307:470:563:631:678:743:784:840:847:889:894:917:6:37:59:86:98:148:155:162:172:220:228:232:239:285:288:300:302:348:387:444:449:466:474:478:497:517:558:560:573:575:671:676:682:732:775:813:838:862:869:881:883:927:938 1:0 5:0:49:8:33:3:26:31:39:84:176:29:129:6:41:21:47:57:74:78:141:159:19:88:106:110:65:87:90:189:30:43:77:10:11:36:75:83:91:144:46:71:73:107:140:154:164:167:198 [-183.702:210.73699999999999] [1:81.708399999999997] 46:0:64:36:18:6:102:45:84:121:55:81:181:10:48:74:86:147:22:52:68:87:16:79:148:2:92:109:115:188:3:11:56:94:106:135:19:70:71:101:114:169:1:5:23:27:33:53:72:95:98:146:151:200:208 7:0:1:49:65:32:30:2:26:42:132:141:61:130:86:25:62:149:16:38:64:80:153:8:19:46:47:52:56:66:68:69:116:122:126:138:140 2:0:7:3:9:8:1:10:20:22:6:17:4:26:25:12:33:47:29 [1:175] [1:42400] [1:7807] [1:38456.5] [1:29941] [1:1556770] [1:68.5] [1:4433.5] [1:8524] [1:237038] [1:185158] [1:295586] [1:331534] [1:882506] [1:12652] [1:25] [1:24718] [1:151] 1:0 3:0:1:5:16:6:12:10:4:13:15:27:8:36:42:29:31:2:9:11:38:48:74:18:24:41:55:7:46:84:20:30:33:39:50:53:58:65:79 [-1.2384700000000002:227.74900000000002] [-55.711999999999996:79.617599999999996] 2:0:23:8:11:14:6:15:54:25:44:77:101:13:19:20:27:34:70:89:143:16:28:69:91:37:46:72:139:7:12:24:38:63:90:102:5:9:31:32:65:66:73:100:119:18:30:36:45:61:71:75:81:112:128 18:0:70:6:12:21:32:20:10:60:9:27:31:38:107:40:59:67:68:4:46:72:7:16:48:49:51:55:66:78:11:24:30:93:96:119 [1:175] 1:0:2 [1:86611] [1:6244] [1:510108] [1:4779610] [1:121] [1:3722.5] [1:1666670] [1:151] [1:395101] [1:275.5] [1:1233060] [1:469] [1:509664] [1:235642] [1:360349] [1:556288] [1:46318]
tree_sizes=1059 905 902 853 853 884 940 799 733

Tree=0
num_leaves=13
num_cat=0
split_feature=18 0 5 15 5 43 24 48 42 39 39 41
split_gain=8.06094 4.79392 3.93466 4.62382 2.7447 1.39428 1.35571 2.08396 1.27908 0.276009 1.3694 0.191516
threshold=100.00000000000001 6.2500000000000009 179.14900000000003 31805.500000000004 168.48150000000001 105.25000000000001 4127.5000000000009 17161.000000000004 3229.7500000000005 18422.500000000004 2681.5000000000005 304.75000000000006
decision_type=2 2 2 2 2 2 2 2 2 2 2 2
left_child=1 5 3 6 8 11 7 -2 -3 10 -7 -1
right_child=2 4 -4 -5 -6 9 -8 -9 -10 -11 -12 -13
leaf_value=-3.3140430125402416 -2.4667958311242457 -2.4170040264879944 -2.9444389791664403 -1.7783970657999904 -3.0131113506131588 -2.9444389791664403 -2.9707948901583796 -2.9444389791664403 -2.9444389791664403 -3.0602904236734338 -2.5497805147594246 -2.9444389791664403
leaf_count=328 64 70 46 32 44 28 38 23 25 52 25 25
internal_value=0 -0.270961 0.722446 1.04063 0.282528 -0.521086 0.134775 0.509348 0.739841 -0 0.149612 -0.649044
internal_count=800 597 203 157 139 458 125 87 95 105 53 353
shrinkage=1


Tree=1
num_leaves=12
num_cat=1
split_feature=9 17 36 24 36 6 22 39 15 49 30
split_gain=3.86899 4.70556 3.47197 2.37825 1.96369 1.37463 1.24955 0.693289 0.404179 0.141584 0.0994811
threshold=0 6.2500000000000009 454.00000000000006 3314.5000000000005 846.25000000000011 45.278900000000007 102161.00000000001 18422.500000000004 57082.000000000007 4774.0000000000009 181.06300000000002
decision_type=5 2 2 2 2 2 2 2 2 2 2
left_child=1 -1 6 -3 5 -4 8 9 10 -6 -2
right_child=2 3 4 -5 7 -7 -8 -9 -10 -11 -12
leaf_value=-0 -0.33368915179022557 0.99393557014234635 0.46661273698276817 0 0.10334159601680372 -0 0 -0.20725624791414024 -0 -0 -0
leaf_count=45 402 30 52 26 40 25 31 73 26 21 29
internal_value=0 0.364376 -0.18721 1.39398 0.0927836 0.581843 -0.471839 -0.0674865 -0.547496 0 -0.590465
internal_count=800 101 699 56 211 77 488 134 457 61 431
cat_boundaries=0 1
cat_threshold=68158466
shrinkage=0.544036


Tree=2
num_leaves=12
num_cat=1
split_feature=22 32 11 38 42 27 5 17 26 11 27
split_gain=1.75834 2.08183 1.23036 1.46699 1.17033 0.98981 1.3398 1.17913 0.892951 0.173889 0.141696
threshold=84220.750000000015 0 384.25000000000006 64.750000000000014 40571.500000000007 3.2500000000000004 171.77850000000004 3.2500000000000004 873.25000000000011 4.7500000000000009 72.250000000000014
decision_type=2 5 2 2 2 2 2 2 2 2 2
left_child=1 5 3 -2 8 6 7 9 -3 -1 -7
right_child=2 4 -4 -5 -6 10 -8 -9 -10 -11 -12
leaf_value=0.07909707882562346 0.55465449971631298 -0.36178946216107433 -0 -0 0 -0.11003160750410382 -0 0.54796026807406428 0 -0 0
leaf_count=166 28 275 26 20 72 47 71 29 21 24 21
internal_value=0 -0.129601 0.425471 0.697161 -0.296532 0.077188 0.291871 0.473408 -0.580498 0 -0.0596908
internal_count=800 726 74 48 368 358 290 219 296 190 68
cat_boundaries=0 1
cat_threshold=8405253
shrinkage=0.544036


Tree=3
num_leaves=12
num_cat=0
split_feature=37 19 46 36 10 36 5 26 36 50 0
split_gain=1.38248 1.82503 0.963215 1.42243 0.674422 0.720425 0.530381 0.819341 0.281365 0.0428259 0.0364647
threshold=49.750000000000007 25320.250000000004 294193.00000000006 448.00000000000006 43.750000000000007 3778.0000000000005 175.51600000000005 1676.5000000000002 5994.2500000000009 2586.2500000000005 16.750000000000004
decision_type=2 2 2 2 2 2 2 2 2 2 2
left_child=1 4 3 -2 5 10 7 -3 9 -5 -1
right_child=2 6 -4 8 -6 -7 -8 -9 -10 -11 -12
leaf_value=-0.26499365640538158 -0 0.30964869545692841 -0 0 0 0 -0 -0 0 0.41700082814994083 -0
leaf_count=418 58 32 45 29 34 28 28 20 25 60 23
internal_value=0 -0.159844 0.227878 0.38339 -0.339383 -0.405203 0.127295 0.331481 0.573232 0.652957 -0.468142
internal_count=800 583 217 172 503 469 80 52 114 89 441
shrinkage=0.544036


Tree=4
num_leaves=11
num_cat=2
split_feature=9 19 17 29 19 50 47 0 19 19
split_gain=1.13912 1.82909 1.14681 0.196512 0.665258 0.340971 0.163409 0.152361 0.368539 0.605243
threshold=0 4735.7500000000009 21.250000000000004 1 1180.0000000000002 44331.250000000007 92.500000000000014 1.7500000000000002 12943.000000000002 80094.250000000015
decision_type=5 2 2 5 2 2 2 2 2 2
left_child=2 6 3 4 -1 -5 -2 8 -3 -10
right_child=1 7 -4 5 -6 -7 -8 -9 9 -11
leaf_value=0.16868875739651798 -0.33838280935291276 0 0.30140268069536469 -0.1846890689302885 -0 0 -0 0.087275553259975394 -0.23396169555614107 0
leaf_count=183 192 34 38 122 21 31 23 52 81 23
internal_value=0 -0.151619 0.123771 0 0.0742241 -0.071971 -0.567675 0 -0.0402554 -0.227886
internal_count=800 405 395 357 204 153 215 190 138 104
cat_boundaries=0 1 2
cat_threshold=1049603 11
shrinkage=0.544036


Tree=5
num_leaves=12
num_cat=0
split_feature=20 24 19 12 27 22 30 30 52 39 23
split_gain=0.617803 0.823123 0.559703 0.876637 0.620456 0.41933 0.305246 0.259165 0.304921 0.13595 0.0642991
threshold=50557.750000000007 701.50000000000011 250.75000000000003 19.750000000000004 1.7500000000000002 113580.00000000001 181.06300000000002 162.75600000000003 4481.5000000000009 118604.50000000001 631.00000000000011
decision_type=2 2 2 2 2 2 2 2 2 2 2
left_child=1 2 7 -4 -5 6 -3 10 9 -9 -1
right_child=-2 5 3 4 -6 -7 -8 8 -10 -11 -12
leaf_value=0.047685423500643954 0.17361018429802288 -0.23394308141642242 -0 0.37736807161634872 -0 0 0 -0.20514211920063669 0 -0 -0
leaf_count=175 33 172 52 33 34 37 22 129 27 36 50
internal_value=0 -0.068011 0 0.276718 0.51573 -0.268838 -0.363899 -0.0366566 -0.18297 -0.289412 0
internal_count=800 767 536 119 67 231 194 417 192 165 225
shrinkage=0.544036


Tree=6
num_leaves=12
num_cat=1
split_feature=7 18 0 42 51 30 27 40 13 6 42
split_gain=0.461956 1.73025 0.901281 0.623447 0.478963 0.393206 0.192375 0.463868 0.406055 0.155832 0.0074113
threshold=0 100.00000000000001 3.2500000000000004 2378.5000000000005 29449.750000000004 163.41850000000002 3.2500000000000004 1.7500000000000002 91.750000000000014 41.202450000000006 90352.750000000015
decision_type=5 2 2 2 2 2 2 2 2 2 2
left_child=2 4 5 -4 -2 -1 8 9 -3 -8 -7
right_child=1 6 3 -5 -6 10 7 -9 -10 -11 -12
leaf_value=0.049505951071664354 -0.32267463652561451 -0 0.29329363542206721 -0 -0 -0.15363470821287886 0 0.0603881628605554 0.20182972359230664 -0.17745209053130692 -0
leaf_count=136 227 37 70 29 47 92 21 27 31 61 22
internal_value=0 -0.0911845 0.0870267 0.400466 -0.476816 -0 0 -0 0.173307 -0.246642 -0.250522
internal_count=800 451 349 99 274 250 177 109 68 82 114
cat_boundaries=0 4
cat_threshold=1 65552 0 64
shrinkage=0.544036


Tree=7
num_leaves=10
num_cat=2
split_feature=9 41 43 13 13 6 32 43 17
split_gain=0.300595 0.799281 0.861789 0.47208 0.724173 0.0759616 0.0330719 0.0296429 0.323761
threshold=0 33.250000000000007 93.250000000000014 1.7500000000000002 298.00000000000006 42.70770000000001 1 4.7500000000000009 10.750000000000002
decision_type=5 2 2 2 2 2 5 2 2
left_child=1 2 7 6 -5 -3 -2 8 -1
right_child=3 5 -4 4 -6 -7 -8 -9 -10
leaf_value=-0 0.017582911162115675 0 0.34522736339830823 -0.26761989510173079 0 -0.080509025410852531 -0.015307816894279881 -0 0.13431438279977853
leaf_count=79 142 25 39 158 40 43 178 47 49
internal_value=0 0.0698707 0.281068 -0.0746379 -0.296808 -0 0 0 0.0623376
internal_count=800 282 214 518 198 68 320 175 128
cat_boundaries=0 1 2
cat_threshold=1050246 8388613
shrinkage=0.544036


Tree=8
num_leaves=9
num_cat=1
split_feature=4 41 6 20 24 18 17 19
split_gain=0.223846 0.482036 0.496554 0.284839 0.78242 0.30245 0.0309921 0.122543
threshold=0 1.7500000000000002 46.483500000000006 50557.750000000007 523.00000000000011 979.00000000000011 3.2500000000000004 250.75000000000003
decision_type=5 2 2 2 2 2 2 2
left_child=1 2 -1 4 6 -6 -2 -8
right_child=3 -3 -4 -5 5 -7 7 -9
leaf_value=-0 -0.017525015406248783 -0 0.29893067209958807 0 -0.27499603009981283 -0 -0 0.094005375565768351
leaf_count=34 392 43 32 31 161 30 32 45
internal_value=0 0.0725936 0.368487 -0.0577363 -0.130694 -0.37331 -0 0.0505659
internal_count=800 109 66 691 660 191 469 77
cat_boundaries=0 3
cat_threshold=296 131072 1048576
shrinkage=0.544036


end of trees

feature importances:
n_table_1.n_15=7
n_table_1.n_11=5
n_table_2.n_5=5
n_1=4
n_table_1.n_1=4
n_table_1.n_2=4
n_table_1.n_20=4
n_table_1.n_27=4
n_table_2.n_1=4
n_table_2.n_8=4
n_table_2.n_11=4
c_table_1.c_5=3
n_table_1.n_7=3
n_table_1.n_12=3
n_table_1.n_18=3
n_table_2.n_10=3
n_table_2.n_12=3
n_table_1.n_5=2
n_table_1.n_9=2
n_table_1.n_16=2
n_table_1.n_26=2
c_table_2.c_3=2
n_table_3.n_5=2
c_table_1.c_2=1
c_table_1.c_3=1
n_table_1.n_3=1
n_table_1.n_6=1
n_table_1.n_19=1
c_table_2.c_2=1
n_table_2.n_6=1
n_table_2.n_7=1
n_table_2.n_9=1
n_table_3.n_1=1
n_table_3.n_2=1
n_table_3.n_3=1
n_table_3.n_4=1
n_table_3.n_6=1
n_table_3.n_7=1

parameters:
[boosting: gbdt]
[objective: binary]
[metric: auc]
[tree_learner: serial]
[device_type: cpu]
[data: ]
[valid: ]
[num_iterations: 100]
[learning_rate: 0.544036]
[num_leaves: 55]
[num_threads: 4]
[max_depth: 7]
[min_data_in_leaf: 20]
[min_sum_hessian_in_leaf: 1.04542]
[bagging_fraction: 0.5]
[bagging_freq: 0]
[bagging_seed: 3]
[feature_fraction: 0.6]
[feature_fraction_seed: 2]
[early_stopping_round: 0]
[max_delta_step: 0]
[lambda_l1: 1.73556]
[lambda_l2: 1.58941]
[min_gain_to_split: 0]
[drop_rate: 0.1]
[max_drop: 50]
[skip_drop: 0.5]
[xgboost_dart_mode: 0]
[uniform_drop: 0]
[drop_seed: 4]
[top_rate: 0.2]
[other_rate: 0.1]
[min_data_per_group: 100]
[max_cat_threshold: 32]
[cat_l2: 10]
[cat_smooth: 10]
[max_cat_to_onehot: 4]
[top_k: 20]
[monotone_constraints: ]
[feature_contri: ]
[forcedsplits_filename: ]
[refit_decay_rate: 0.9]
[verbosity: -1]
[max_bin: 255]
[min_data_in_bin: 3]
[bin_construct_sample_cnt: 200000]
[histogram_pool_size: -1]
[data_random_seed: 1]
[output_model: LightGBM_model.txt]
[snapshot_freq: -1]
[input_model: ]
[output_result: LightGBM_predict_result.txt]
[initscore_filename: ]
[valid_data_initscores: ]
[pre_partition: 0]
[enable_bundle: 1]
[max_conflict_rate: 0]
[is_enable_sparse: 1]
[sparse_threshold: 0.8]
[use_missing: 1]
[zero_as_missing: 0]
[two_round: 0]
[save_binary: 0]
[enable_load_from_binary_file: 1]
[header: 0]
[label_column: ]
[weight_column: ]
[group_column: ]
[ignore_column: ]
[categorical_feature: ]
[predict_raw_score: 0]
[predict_leaf_index: 0]
[predict_contrib: 0]
[num_iteration_predict: -1]
[pred_early_stop: 0]
[pred_early_stop_freq: 10]
[pred_early_stop_margin: 10]
[convert_model_language: ]
[convert_model: gbdt_prediction.cpp]
[num_class: 1]
[is_unbalance: 0]
[scale_pos_weight: 1]
[sigmoid: 1]
[boost_from_average: 1]
[reg_sqrt: 0]
[alpha: 0.9]
[fair_c: 1]
[poisson_max_delta_step: 0.7]
[tweedie_variance_power: 1.5]
[max_position: 20]
[label_gain: ]
[metric_freq: 1]
[is_provide_training_metric: 0]
[eval_at: ]
[num_machines: 1]
[local_listen_port: 12400]
[time_out: 120]
[machine_list_filename: ]
[machines: ]
[gpu_platform_id: -1]
[gpu_device_id: -1]
[gpu_use_dp: 0]

end of parameters

pandas_categorical:[[0, 1, 2, 3, 4, 5, 6, 7, 8, 9, 10, 11, 12, 13, 14, 15, 16, 17, 18, 19, 20, 21, 22, 23, 24, 25, 26, 27, 28, 29, 30, 31, 32, 33, 34, 35, 36, 37, 38, 39, 40, 41, 42, 43, 44, 45, 46, 47, 48, 49, 50, 51, 52, 53, 54, 55, 56, 57, 58, 59, 60, 61, 62, 63, 64, 65, 66, 67, 68, 69, 70, 71, 72, 73, 74, 75, 76, 77, 78, 79, 80, 81, 82, 83, 84, 85, 86, 87, 88, 89, 90, 91, 92, 93, 94, 95, 96, 97, 98, 99, 100, 101, 102, 103, 104, 105, 106, 107, 108, 109, 110, 111, 112, 113, 114, 115, 116, 117, 118, 119, 120, 121, 122, 123, 124, 125, 126, 127, 128, 129, 130, 131, 132, 133, 134, 135, 136, 137, 138, 139, 140, 141, 142, 143, 144, 145, 146, 147, 148, 149, 150, 151, 152, 153, 154, 155, 156, 157, 158, 159, 160, 161, 162, 163, 164, 165, 166, 167, 168, 169, 170, 171, 172, 173, 174, 175, 176, 177, 178, 179, 180, 181, 182, 183, 184, 185, 186, 187, 188, 189, 190, 191, 192, 193, 194, 195, 196, 197, 198, 199, 200, 201, 202, 203, 204, 205, 206, 207, 208, 209, 210, 211, 212, 213, 214, 215, 216, 217, 218, 219, 220, 221, 222, 223, 224, 225, 226, 227, 228, 229, 230, 231, 232, 233, 234, 235, 236, 237, 238, 239, 240, 241, 242, 243, 244, 245, 246, 247, 248, 249, 250, 251, 252, 253, 254, 255, 256, 257, 258, 259, 260, 261, 262, 263, 264, 265, 266, 267, 268, 269, 270, 271, 272, 273, 274, 275, 276, 277, 278, 279, 280, 281, 282, 283, 284, 285, 286, 287, 288, 289, 290, 291, 292, 293, 294, 295, 296, 297, 298, 299, 300, 301, 302, 303, 304, 305, 306, 307, 308, 309, 310, 311, 312, 313, 314, 315, 316, 317, 318, 319, 320, 321, 322, 323, 324, 325, 326, 327, 328, 329, 330, 331, 332, 333, 334, 335, 336, 337, 338, 339, 340, 341, 342, 343, 344, 345, 346, 347, 348, 349, 350, 351, 352, 353, 354, 355, 356, 357, 358, 359, 360, 361, 362, 363, 364, 365, 366, 367, 368, 369, 370, 371, 372, 373, 374, 375, 376, 377, 378, 379, 380, 381, 382, 383, 384, 385, 386, 387, 388, 389, 390, 391, 392, 393, 394, 395, 396, 397, 398, 399, 400, 401, 402, 403, 404, 405, 406, 407, 408, 409, 410, 411, 412, 413, 414, 415, 416, 417, 418, 419, 420, 421, 422, 423, 424, 425, 426, 427, 428, 429, 430, 431, 432, 433, 434, 435, 436, 437, 438, 439, 440, 441, 442, 443, 444, 445, 446, 447, 448, 449, 450, 451, 452, 453, 454, 455, 456, 457, 458, 459, 460, 461, 462, 463, 464, 465, 466, 467, 468, 469, 470, 471, 472, 473, 474, 475, 476, 477, 478, 479, 480, 481, 482, 483, 484, 485, 486, 487, 488, 489, 490, 491, 492, 493, 494, 495, 496, 497, 498, 499, 500, 501, 502, 503, 504, 505, 506, 507, 508, 509, 510, 511, 512, 513, 514, 515, 516, 517, 518, 519, 520, 521, 522, 523, 524, 525, 526, 527, 528, 529, 530, 531, 532, 533, 534, 535, 536, 537, 538, 539, 540, 541, 542, 543, 544, 545, 546, 547, 548, 549, 550, 551, 552, 553, 554, 555, 556, 557, 558, 559, 560, 561, 562, 563, 564, 565, 566, 567, 568, 569, 570, 571, 572, 573, 574, 575, 576, 577, 578, 579, 580, 581, 582, 583, 584, 585, 586, 587, 588, 589, 590, 591, 592, 593, 594, 595, 596, 597, 598, 599, 600, 601, 602, 603, 604, 605, 606, 607, 608, 609, 610, 611, 612, 613, 614, 615, 616, 617, 618, 619, 620, 621, 622, 623, 624, 625, 626, 627, 628, 629, 630, 631, 632, 633, 634, 635, 636, 637], [0, 1, 2, 3, 4, 5, 6, 7, 8, 9, 10, 11, 12, 13, 14, 15, 16, 17, 18, 19, 20, 21, 22, 23, 24, 25, 26, 27, 28, 29, 30, 31, 32, 33, 34, 35, 36, 37, 38, 39, 40, 41, 42, 43, 44, 45, 46, 47, 48, 49, 50, 51, 52, 53, 54, 55, 56, 57, 58, 59, 60, 61, 62, 63, 64, 65, 66, 67, 68, 69, 70, 71, 72, 73, 74, 75, 76, 77, 78, 79, 80, 81, 82, 83, 84, 85, 86, 87, 88, 89, 90, 91, 92, 93, 94, 95, 96, 97, 98, 99, 100, 101, 102, 103, 104, 105, 106, 107, 108, 109, 110, 111, 112, 113, 114, 115, 116, 117, 118, 119, 120, 121, 122, 123, 124, 125, 126, 127, 128, 129, 130, 131, 132, 133, 134, 135, 136, 137, 138, 139, 140, 141, 142, 143, 144, 145, 146, 147, 148, 149, 150, 151, 152, 153, 154, 155, 156, 157, 158, 159, 160, 161, 162, 163, 164, 165, 166, 167, 168, 169, 170, 171, 172, 173, 174, 175, 176, 177, 178, 179, 180, 181, 182, 183, 184, 185, 186, 187, 188, 189, 190, 191, 192, 193, 194, 195, 196, 197, 198, 199, 200, 201, 202, 203, 204, 205, 206, 207, 208, 209, 210, 211, 212, 213, 214, 215, 216, 217, 218, 219, 220, 221, 222, 223, 224, 225, 226, 227, 228, 229, 230, 231, 232, 233, 234, 235, 236, 237, 238, 239, 240, 241, 242, 243, 244, 245, 246, 247, 248, 249, 250, 251, 252, 253, 254, 255, 256, 257, 258, 259, 260, 261, 262, 263, 264, 265, 266, 267, 268, 269, 270, 271, 272, 273, 274, 275, 276, 277, 278, 279, 280, 281, 282, 283, 284, 285, 286, 287, 288, 289, 290, 291, 292, 293, 294, 295, 296, 297, 298, 299, 300, 301, 302, 303, 304, 305, 306, 307, 308, 309, 310, 311, 312, 313, 314, 315, 316, 317, 318, 319, 320, 321, 322, 323, 324, 325, 326, 327, 328, 329, 330, 331, 332, 333, 334, 335, 336, 337, 338, 339, 340, 341, 342, 343, 344, 345, 346, 347, 348, 349, 350, 351, 352, 353, 354, 355, 356, 357, 358, 359, 360, 361, 362, 363, 364, 365, 366, 367, 368, 369, 370, 371, 372, 373, 374, 375, 376, 377, 378, 379, 380, 381, 382, 383, 384, 385, 386, 387, 388, 389, 390, 391, 392, 393, 394, 395, 396, 397, 398, 399, 400, 401, 402, 403, 404, 405, 406, 407, 408, 409, 410, 411, 412, 413, 414, 415, 416, 417, 418, 419, 420, 421, 422, 423, 424, 425, 426, 427, 428, 429, 430, 431, 432, 433, 434, 435, 436, 437, 438, 439, 440, 441, 442, 443, 444, 445, 446, 447, 448, 449, 450, 451, 452, 453, 454, 455, 456, 457, 458, 459, 460, 461, 462, 463, 464, 465, 466, 467, 468, 469, 470, 471, 472, 473, 474, 475, 476, 477, 478, 479, 480, 481, 482, 483, 484, 485, 486, 487, 488, 489, 490, 491, 492, 493, 494, 495, 496, 497, 498, 499, 500, 501, 502, 503, 504, 505, 506, 507, 508, 509, 510, 511, 512, 513, 514, 515, 516, 517, 518, 519, 520, 521, 522, 523, 524, 525, 526, 527, 528, 529, 530, 531, 532, 533, 534, 535, 536, 537, 538, 539, 540, 541, 542, 543, 544, 545, 546, 547, 548, 549, 550, 551, 552, 553, 554, 555, 556, 557, 558, 559, 560, 561, 562, 563, 564, 565, 566, 567, 568, 569, 570, 571, 572, 573, 574, 575, 576, 577, 578, 579, 580, 581, 582, 583, 584, 585, 586, 587, 588, 589, 590, 591, 592, 593, 594, 595, 596, 597, 598, 599, 600, 601, 602, 603, 604, 605, 606, 607, 608, 609, 610, 611, 612, 613, 614, 615, 616, 617, 618, 619, 620, 621, 622, 623, 624, 625, 626, 627, 628, 629, 630, 631, 632, 633, 634, 635, 636, 637, 638, 639, 640, 641, 642, 643, 644, 645, 646, 647, 648, 649, 650, 651, 652, 653, 654, 655, 656, 657, 658, 659, 660, 661, 662, 663, 664, 665, 666, 667, 668, 669, 670, 671, 672, 673, 674, 675, 676, 677, 678, 679, 680, 681, 682, 683, 684, 685, 686, 687, 688, 689, 690, 691, 692, 693, 694, 695, 696, 697, 698, 699, 700, 701, 702, 703, 704, 705, 706, 707, 708, 709, 710, 711, 712, 713, 714, 715, 716, 717, 718, 719, 720, 721, 722, 723, 724, 725, 726, 727, 728, 729, 730, 731, 732, 733, 734, 735, 736, 737, 738, 739, 740, 741, 742, 743, 744, 745, 746, 747, 748, 749, 750, 751, 752, 753, 754, 755, 756, 757, 758, 759, 760, 761, 762, 763, 764, 765, 766, 767, 768, 769, 770, 771, 772, 773, 774, 775, 776, 777, 778, 779, 780, 781, 782, 783, 784, 785, 786, 787, 788, 789, 790, 791, 792, 793, 794, 795, 796, 797, 798, 799, 800, 801, 802, 803, 804, 805, 806, 807, 808, 809, 810, 811, 812, 813, 814, 815, 816, 817, 818, 819, 820, 821, 822, 823, 824, 825, 826, 827, 828, 829, 830, 831, 832, 833, 834, 835, 836, 837, 838, 839, 840, 841, 842, 843, 844, 845, 846, 847, 848, 849, 850, 851, 852, 853, 854, 855, 856, 857, 858, 859, 860, 861, 862, 863, 864, 865, 866, 867, 868, 869, 870, 871, 872, 873, 874, 875, 876, 877, 878, 879, 880, 881, 882, 883, 884, 885, 886, 887, 888, 889, 890, 891, 892, 893, 894, 895, 896, 897, 898, 899, 900, 901, 902, 903, 904, 905, 906, 907, 908, 909, 910, 911, 912, 913, 914, 915, 916, 917, 918, 919, 920, 921, 922, 923, 924, 925, 926, 927, 928, 929, 930, 931, 932, 933, 934, 935, 936, 937, 938, 939, 940, 941, 942, 943, 944, 945, 946, 947, 948, 949, 950, 951, 952, 953, 954, 955, 956, 957, 958, 959, 960, 961, 962, 963, 964, 965, 966, 967, 968, 969, 970, 971, 972, 973], [0, 1], [0, 1, 2, 3, 4, 5, 6, 7, 8, 9, 10, 11, 12, 13, 14, 15, 16, 17, 18, 19, 20, 21, 22, 23, 24, 25, 26, 27, 28, 29, 30, 31, 32, 33, 34, 35, 36, 37, 38, 39, 40, 41, 42, 43, 44, 45, 46, 47, 48, 49, 50, 51, 52, 53, 54, 55, 56, 57, 58, 59, 60, 61, 62, 63, 64, 65, 66, 67, 68, 69, 70, 71, 72, 73, 74, 75, 76, 77, 78, 79, 80, 81, 82, 83, 84, 85, 86, 87, 88, 89, 90, 91, 92, 93, 94, 95, 96, 97, 98, 99, 100, 101, 102, 103, 104, 105, 106, 107, 108, 109, 110, 111, 112, 113, 114, 115, 116, 117, 118, 119, 120, 121, 122, 123, 124, 125, 126, 127, 128, 129, 130, 131, 132, 133, 134, 135, 136, 137, 138, 139, 140, 141, 142, 143, 144, 145, 146, 147, 148, 149, 150, 151, 152, 153, 154, 155, 156, 157, 158, 159, 160, 161, 162, 163, 164, 165, 166, 167, 168, 169, 170, 171, 172, 173, 174, 175, 176, 177, 178, 179, 180, 181, 182, 183, 184, 185, 186, 187, 188, 189, 190, 191, 192, 193, 194, 195, 196, 197, 198, 199, 200, 201, 202, 203, 204, 205, 206], [0, 1, 2, 3, 4, 5, 6, 7, 8, 9, 10, 11, 12, 13, 14, 15, 16, 17, 18, 19, 20, 21, 22, 23, 24, 25, 26, 27, 28, 29, 30, 31, 32, 33, 34, 35, 36, 37, 38, 39, 40, 41, 42, 43, 44, 45, 46, 47, 48, 49, 50, 51, 52, 53, 54, 55, 56, 57, 58, 59, 60, 61, 62, 63, 64, 65, 66, 67, 68, 69, 70, 71, 72, 73, 74, 75, 76, 77, 78, 79, 80, 81, 82, 83, 84, 85, 86, 87, 88, 89, 90, 91, 92, 93, 94, 95, 96, 97, 98, 99, 100, 101, 102, 103, 104, 105, 106, 107, 108, 109, 110, 111, 112, 113, 114, 115, 116, 117, 118, 119, 120, 121, 122, 123, 124, 125, 126, 127, 128, 129, 130, 131, 132, 133, 134, 135, 136, 137, 138, 139, 140, 141, 142, 143, 144, 145, 146, 147, 148, 149, 150, 151, 152, 153, 154, 155, 156, 157, 158, 159, 160, 161, 162, 163, 164, 165, 166, 167, 168, 169, 170, 171, 172, 173, 174, 175, 176, 177, 178, 179, 180, 181, 182, 183, 184, 185, 186, 187, 188, 189, 190, 191, 192, 193, 194, 195, 196, 197, 198, 199, 200, 201, 202, 203, 204, 205, 206, 207, 208, 209, 210, 211, 212, 213, 214, 215, 216, 217, 218, 219, 220], [0, 1, 2, 3, 4, 5, 6, 7, 8, 9, 10, 11, 12, 13, 14, 15, 16, 17, 18, 19, 20, 21, 22, 23, 24, 25, 26, 27, 28, 29, 30, 31, 32, 33, 34, 35, 36, 37, 38, 39, 40, 41, 42, 43, 44, 45, 46, 47, 48, 49, 50, 51, 52, 53, 54, 55, 56, 57, 58, 59, 60, 61, 62, 63, 64, 65, 66, 67, 68, 69, 70, 71, 72, 73, 74, 75, 76, 77, 78, 79, 80, 81, 82, 83, 84, 85, 86, 87, 88, 89, 90, 91, 92, 93, 94, 95, 96, 97, 98, 99, 100, 101, 102, 103, 104, 105, 106, 107, 108, 109, 110, 111, 112, 113, 114, 115, 116, 117, 118, 119, 120, 121, 122, 123, 124, 125, 126, 127, 128, 129, 130, 131, 132, 133, 134, 135, 136, 137, 138, 139, 140, 141, 142, 143, 144, 145, 146, 147, 148, 149, 150, 151, 152, 153, 154, 155, 156, 157, 158], [0, 1, 2, 3, 4, 5, 6, 7, 8, 9, 10, 11, 12, 13, 14, 15, 16, 17, 18, 19, 20, 21, 22, 23, 24, 25, 26, 27, 28, 29, 30, 31, 32, 33, 34, 35, 36, 37, 38, 39, 40, 41, 42, 43, 44, 45, 46, 47, 48, 49, 50, 51, 52, 53, 54, 55, 56], [0, 1], [0, 1, 2, 3, 4, 5, 6, 7, 8, 9, 10, 11, 12, 13, 14, 15, 16, 17, 18, 19, 20, 21, 22, 23, 24, 25, 26, 27, 28, 29, 30, 31, 32, 33, 34, 35, 36, 37, 38, 39, 40, 41, 42, 43, 44, 45, 46, 47, 48, 49, 50, 51, 52, 53, 54, 55, 56, 57, 58, 59, 60, 61, 62, 63, 64, 65, 66, 67, 68, 69, 70, 71, 72, 73, 74, 75, 76, 77, 78, 79, 80, 81, 82, 83, 84, 85, 86, 87, 88, 89, 90, 91, 92, 93, 94, 95, 96, 97, 98, 99, 100, 101, 102, 103, 104, 105, 106, 107, 108, 109, 110, 111, 112, 113, 114, 115, 116, 117, 118, 119, 120, 121, 122, 123, 124, 125, 126, 127, 128], [0, 1, 2, 3, 4, 5, 6, 7, 8, 9, 10, 11, 12, 13, 14, 15, 16, 17, 18, 19, 20, 21, 22, 23, 24, 25, 26, 27, 28, 29, 30, 31, 32, 33, 34, 35, 36, 37, 38, 39, 40, 41, 42, 43, 44, 45, 46, 47, 48, 49, 50, 51, 52, 53, 54, 55, 56, 57, 58, 59, 60, 61, 62, 63, 64, 65, 66, 67, 68, 69, 70, 71, 72, 73, 74, 75, 76, 77, 78, 79, 80, 81, 82, 83, 84, 85, 86, 87, 88, 89, 90, 91, 92, 93, 94, 95, 96, 97, 98, 99, 100, 101, 102, 103, 104, 105, 106, 107, 108, 109, 110, 111, 112, 113, 114, 115, 116, 117, 118, 119, 120, 121, 122, 123, 124, 125, 126, 127, 128, 129, 130, 131, 132, 133, 134, 135, 136, 137, 138, 139, 140, 141, 142, 143, 144, 145, 146, 147, 148, 149, 150, 151, 152, 153, 154, 155, 156, 157, 158, 159, 160, 161, 162, 163, 164, 165, 166, 167, 168, 169, 170, 171, 172, 173, 174, 175, 176, 177, 178, 179, 180, 181, 182, 183, 184, 185, 186, 187, 188, 189, 190, 191, 192, 193, 194, 195], [0, 1, 2, 3, 4, 5, 6, 7, 8, 9, 10, 11, 12, 13, 14, 15, 16, 17, 18, 19, 20, 21, 22, 23, 24, 25, 26, 27, 28, 29, 30, 31, 32, 33, 34, 35, 36, 37, 38, 39, 40, 41, 42, 43, 44, 45, 46, 47, 48, 49, 50, 51, 52, 53, 54, 55, 56, 57, 58, 59, 60, 61, 62, 63, 64, 65, 66, 67, 68, 69, 70, 71, 72, 73, 74, 75, 76, 77, 78, 79, 80, 81, 82, 83, 84, 85, 86, 87, 88, 89, 90, 91, 92, 93, 94, 95, 96, 97, 98, 99, 100, 101, 102, 103, 104, 105, 106, 107, 108, 109, 110, 111, 112, 113, 114, 115, 116, 117, 118, 119, 120, 121, 122, 123, 124, 125, 126, 127, 128, 129, 130, 131, 132, 133, 134, 135, 136, 137, 138, 139, 140, 141, 142, 143, 144, 145, 146, 147, 148, 149, 150], [0, 1, 2, 3]]
