tree
version=v2
num_class=1
num_tree_per_iteration=1
label_index=0
max_feature_idx=53
objective=binary sigmoid:1
feature_names=n_1 c_02 c_01 c_table_1.c_1 c_table_1.c_2 n_table_1.n_1 n_table_1.n_2 c_table_1.c_3 c_table_1.c_4 c_table_1.c_5 n_table_1.n_3 c_table_1.c_6 n_table_1.n_5 n_table_1.n_6 n_table_1.n_7 n_table_1.n_8 n_table_1.n_9 n_table_1.n_10 n_table_1.n_11 n_table_1.n_12 n_table_1.n_15 n_table_1.n_16 n_table_1.n_17 n_table_1.n_18 n_table_1.n_19 n_table_1.n_20 n_table_1.n_25 n_table_1.n_26 n_table_1.n_27 c_table_2.c_1 c_table_2.c_2 n_table_2.n_1 n_table_2.n_2 c_table_2.c_3 c_table_2.c_4 n_table_2.n_3 c_table_2.c_6 n_table_2.n_5 n_table_2.n_6 n_table_2.n_7 n_table_2.n_8 n_table_2.n_9 n_table_2.n_10 n_table_2.n_11 n_table_2.n_12 n_table_2.n_13 n_table_2.n_14 n_table_3.n_1 n_table_3.n_2 n_table_3.n_3 n_table_3.n_4 n_table_3.n_5 n_table_3.n_6 n_table_3.n_7
feature_infos=[1:62.5] 2:104:9:22:8:46:151:191:67:154:7:17:34:10:61:86:25:62:74:116:171:167:233:50:181:15:182:184:30:186:26:29:70:175:232:4:160:59:128:45:11:72:200:18:24:14:16:37:58:64:111:183:40:178:176:65:73:170:33:52:57:242:43:234:5:53:63:85:278:314:130:161:210:294:310:188:27:44:49:60:148:203:244:274:299:35:102:133:211:247:103:107:172:213:231:284:48:83:98:125:168:207:82:113:156:166:196:270:300:1:32:47:75:110:159:179:199:235:333:335:38:42:90:96:109:121:185:215:240:255:283:339:19:31:66:76:100:131:155:204:261:293:349:360:20:54:71:97:118:120:153:158:239:256:263:12:36:56:68:77:79:87:89:180:193:209:222:223:252:298:304:319:325:336:359:99:114:123:132:165:174:205:281:6:51:78:91:101:108:117:119:122:127:169:173:197:238:243:246:253:258:264:267:277:279:301:308:327:341:355:363 85:74:38:146:589:392:172:436:648:11:157:727:55:40:188:13:67:286:192:260:391:442:50:231:453:533:660:134:433:592:7:253:256:313:858:26:52:54:119:129:144:499:531:556:795:12:301:382:624:739:78:89:179:281:292:340:388:576:662:719:84:106:110:336:352:710:857:132:151:270:371:483:559:616:53:73:197:199:373:374:386:498:517:622:655:666:734:751:790:63:75:182:598:652:663:678:798:865:24:70:102:158:167:335:418:423:446:519:534:580:597:759:803:3:27:41:91:96:117:139:181:233:275:362:460:469:491:493:554:604:672:755:817:4:14:48:64:69:81:88:133:153:215:239:285:346:354:365:377:412:525:568:600:757:812:843:20:35:176:232:244:280:294:322:332:410:420:435:481:535:594:626:639:653:664:700:729:783:834:841:850:872:22:45:46:71:112:135:149:159:165:187:203:214:219:227:241:261:289:296:298:299:300:326:344:389:417:462:473:507:562:563:577:596:623:645:676:693:701:740:744:761:768:786:802:845:847:23:30:57:92:95:123:147:169:175:186:189:190:201:217:226:242:251:255:367:402:409:463:468:523:529:539:540:547:555:617:636:668:687:725:754:800:836:856:9:19:37:61:65:79:101:104:124:125:148:154:185:193:194:210:213:248:290:314:329:337:343:359:369:380:401:405:425:441:450:485:502:506:511:564:573:602:608:610:632:643:650:659:674:686:688:715:732:749:765:773:784:805:822:826:862:867:33:36:43:44:47:59:62:83:98:103:111:127:131:136:137:138:143:155:156:160:170:178:198:234:238:245:249:250:258:274:278:282:287:291:305:315:318:328:339:342:351:378:383:390:413:416:421:424:430:444:452:474:480:487:501:504:541:566:574:601:621:640:651:656:667:671:673:681:689:690:696:702:707:708:714:718:722:723:726:728:737:742:782:792:796:809:832:844:853:863:866:871 1:0 3:0:5:36:20:4:21:8:11:62:25:56:33:44:1:31:30:153:18:69:2:28:85:135:6:35:40:43:54:61:98:9:38:49:176:55:87:84:26:42:101:155:80:137:149:19:52:39:51:27:47:177:57:58:59:125:34:63:75:94:102:113:13:29:83:103:132:151:14:15:23:66:76:88:90:99:108:114:169:180:93:126:134:171:24:68:78:95:112:117:121:127:138:139:154:158:159:10:16:53:67:97:107:109:111:123:133:166:175:182 [-169.262:227.50999999999999] [-49.719499999999996:81.200400000000002] 36:0:3:33:28:13:9:1:42:8:178:19:5:66:24:95:72:2:12:17:14:56:58:139:25:31:70:119:90:112:88:81:83:6:21:50:75:100:204:4:43:64:74:79:116:44:48:49:94:123:67:26:97:22:30:32:122:11:29:46:182:102:158:161:167:206:16:39:60:135:143:10:18:34:57:63:120:128:155:68:71:98:147:159:172:175:212:15:35:54:62:82:99:113:134:140:177:196:23:69:76:89:138:162:166:199:205:27:40:51:65:73:115:168:181:188:193:198:41:45:53:59:61:92:96:108:111:121:129:136:157:163:174:180:184:185:189:191:192:194:195:201 34:0:24:2:8:36:10:1:41:52:77:6:13:31:5:28:78:3:12:15:17:20:32:23:30:35:75:58:18:47:100:14:37:27:61:88:4:7:45:48:64:73:82:133:38:56:62:71:106:115:135:9:40:70:83:85:96:108:125:21:29:46:54:113:132:25:39:42:44:72:97:111:119:122:19:68:76:103:110:117:121:123:124:127:131:138 4:0:8:3:1:10:7:14:13:26:9:24:35:15:16:11:28:2:29:20:5:33:47:42:37:50:21:18:22:39:41:44:12:25:32:34:38:46:49 [1:175] 2:0:3:6:1:4:8:5:7:12:11:9:10:16 [1:24272.5] [1:46363] [1:3314.5] [1:703902] [1:2481850] [1:70] [1:6121] [1:7070.5] [1:423494] [1:245767] [1:448222] [1:441384] [1:1178200] [1:18856] [1:38.5] [1:121640] [1:151] 1:0 7:1:8:2:14:3:4:9:13:11:56:6:12:21:15:23:71:60:61:82:41:16:30:10:19:27:58:20:22:5:24:28:92:54:17:70:31:65:55:38:40:35:37:39:25:48:53:26:36:44:52:72:75:18:76:88:96:43:47:83:45:57:63:79 [-182.27000000000001:218.44400000000002] [-55.711999999999996:81.846299999999999] 7:2:8:1:10:14:87:33:72:68:13:11:73:56:34:36:85:84:30:15:16:86:9:46:4:32:38:49:22:25:28:24:19:5:43:61:113:128:76:125:29:91:98:110:20:44:94:100:114:18:80:93:40:41:45:55:79:53:75:82:90:119:134:12:23:27:48:52:135:17:35:39:47:107:141:146:37:71:74:21:31:83:89:122:129:145:54:62:78:92:6:50:51:58:59:69:81:102:105:112:133:137:147 1:0:6:37:13:25:8:26:58:10:2:32:24:9:27:41:4:43:51:54:67:7:17:16:61:12:22:46:89:20:74:3:14:39:49:34:71:81:57:70:11:31:56:21:28:62:66:76:15:19:40:47:82:52:98:5:23:38:42:53:29:33:64:78:97:55:60:68:44:45:59:77:79:86:99 [1:163] 1:0:2 [1:58175.5] [1:3170.5] [1:469837] [1:8042890] [1:130] [1:4433.5] [1:1971780] [1:151] [1:273895] [1:92.5] [1:1233060] [1:1061.5] [1:540979] [1:367882] [1:339154] [1:535676] [1:38662]
tree_sizes=719 793 733 712 642 802 739 734 791 816 719 814 831 747 840 721 829 775 655 748 768 757 640 656 647 800 897 717 753 665 732 837 660 768 877 690 735 661 692 780 727 733 629 810 681 685 809 727 690 668 701 760 809 674 757 698 761 796 553 660 769 701 712 682

Tree=0
num_leaves=7
num_cat=1
split_feature=1 24 23 20 6 32
split_gain=108.169 67.3127 23.0358 10.0914 6.15606 1.9211
threshold=0 73584.250000000015 15400.750000000002 67385.500000000015 36.094350000000013 57.921400000000013
decision_type=5 2 2 2 2 2
left_child=1 4 5 -4 -1 -2
right_child=2 -3 3 -5 -6 -7
leaf_value=-3.0958384738959412 -3.1895054404328942 -2.9527752267825402 -3.1051011535544979 -3.1724979041412391 -3.1398624601367118 -3.1655775645939102
leaf_count=579 2163 182 302 188 301 285
internal_value=0 1.21551 -0.501599 0.436866 0.907328 -0.746506
internal_count=4000 1062 2938 490 880 2448
cat_boundaries=0 10
cat_threshold=50334208 1075843074 4194304 2436 276824069 291575937 526336 768 0 64
shrinkage=1


Tree=1
num_leaves=7
num_cat=2
split_feature=1 24 23 23 14 2
split_gain=95.3833 45.8621 20.8094 10.022 5.60167 3.35353
threshold=0 73584.250000000015 15400.750000000002 57469.000000000007 6.2500000000000009 1
decision_type=5 2 2 2 2 5
left_child=1 4 5 -4 -1 -2
right_child=2 -3 3 -5 -6 -7
leaf_value=0.057939403177901874 0.0025220342088394881 0.1723265389966839 0.057010161089968085 -0.0074217603098292581 0.01515076639178 -0.033709223748869574
leaf_count=501 309 157 209 297 301 2226
internal_value=0 1.16615 -0.461293 0.401785 0.924779 -0.695608
internal_count=4000 959 3041 506 802 2535
cat_boundaries=0 10 31
cat_threshold=16779776 1073745922 4194304 2436 276824065 23140481 2048 768 0 64 2176 262144 3146752 0 0 0 0 0 33554432 0 65536 0 256 0 0 8 0 0 65536 65536 256
shrinkage=0.0463965


Tree=2
num_leaves=7
num_cat=1
split_feature=1 24 23 20 5 32
split_gain=85.3896 34.6197 21.0166 8.20094 3.485 2.07045
threshold=0 92375.500000000015 15400.750000000002 67385.500000000015 164.45050000000003 57.921400000000013
decision_type=5 2 2 2 2 2
left_child=1 4 5 -4 -1 -2
right_child=2 -3 3 -5 -6 -7
leaf_value=0.045481646938893651 -0.036843264137434696 0.1404432085260886 0.040793516932567449 -0.019505087964968464 0.011723579322348698 -0.011773673135626191
leaf_count=649 2146 160 301 187 272 285
internal_value=0 0.995827 -0.48378 0.38521 0.784431 -0.734897
internal_count=4000 1081 2919 488 921 2431
cat_boundaries=0 10
cat_threshold=50334208 1109397506 4194304 2436 276824069 291575937 526336 768 0 64
shrinkage=0.0463965


Tree=3
num_leaves=7
num_cat=2
split_feature=1 24 9 24 12 5
split_gain=77.3666 27.3767 18.6746 18.8724 5.02699 4.88165
threshold=0 92375.500000000015 1 41454.250000000007 46.750000000000007 166.11200000000005
decision_type=5 2 5 2 2 2
left_child=1 5 3 -2 -4 -1
right_child=2 -3 4 -5 -6 -7
leaf_value=0.051906034676038784 -0.010666251148221329 0.13878312647590035 -0.035261356240389008 0.074502868943558051 -0 0.0078263510669492383
leaf_count=517 388 128 2274 206 279 208
internal_value=0 1.05119 -0.416146 0.318975 -0.61232 0.876318
internal_count=4000 853 3147 594 2553 725
cat_boundaries=0 10 12
cat_threshold=16779776 1073745922 4194304 2436 268435457 23136385 2048 768 0 64 822150828 10
shrinkage=0.0463965


Tree=4
num_leaves=6
num_cat=1
split_feature=1 21 27 31 21
split_gain=69.0562 26.5876 18.7492 6.5095 5.19227
threshold=0 9312.2500000000018 190.00000000000003 164.21400000000003 4598.5000000000009
decision_type=5 2 2 2 2
left_child=1 3 4 -1 -2
right_child=2 -3 -4 -5 -6
leaf_value=0.022751198321174729 -0.032799396240812899 0.13274829687115106 0.034492188599389614 0.067845645039880331 -0
leaf_count=664 2433 109 270 214 310
internal_value=0 0.889295 -0.438883 0.743959 -0.618887
internal_count=4000 987 3013 878 2743
cat_boundaries=0 10
cat_threshold=16779776 1073745922 4194304 2436 276824065 291575937 526336 768 0 64
shrinkage=0.0463965


Tree=5
num_leaves=7
num_cat=2
split_feature=1 21 23 25 5 2
split_gain=62.6217 21.1275 17.5766 9.51425 5.90923 3.65201
threshold=0 11803.750000000002 15400.750000000002 1914.2500000000002 173.30050000000003 1
decision_type=5 2 2 2 2 5
left_child=1 4 5 -4 -1 -2
right_child=2 -3 3 -5 -6 -7
leaf_value=0.038733358993829084 0.0071138878561545641 0.11392078338461696 0.058122466918480761 -0.006557801768092111 -0.0020681418985276068 -0.03305102691558482
leaf_count=767 212 111 160 331 185 2234
internal_value=0 0.793902 -0.445795 0.315102 0.661324 -0.695432
internal_count=4000 1063 2937 491 952 2446
cat_boundaries=0 10 31
cat_threshold=16845312 1109397506 4194304 2436 276824069 291575937 526336 768 0 64 128 262144 3145728 0 0 0 0 0 33554432 0 65536 0 256 0 0 0 0 0 65536 65536 256
shrinkage=0.0463965


Tree=6
num_leaves=7
num_cat=2
split_feature=1 21 9 19 12 18
split_gain=57.1528 19.1627 15.7102 20.7399 5.96949 5.39686
threshold=0 11803.750000000002 1 190.00000000000003 46.750000000000007 10.750000000000002
decision_type=5 2 5 2 2 2
left_child=1 5 3 -2 -4 -1
right_child=2 -3 4 -5 -6 -7
leaf_value=0.041634716090753567 -0.0092546143424988223 0.11729442746810234 -0.034238244730355499 0.084847623557469345 0.00047613155289887417 -0.00038156188897347522
leaf_count=625 439 89 2278 154 278 137
internal_value=0 0.836653 -0.38748 0.283482 -0.576781 0.716993
internal_count=4000 851 3149 593 2556 762
cat_boundaries=0 10 12
cat_threshold=16779776 1073745922 4194304 2436 268435457 291571840 526336 768 0 64 822150828 10
shrinkage=0.0463965


Tree=7
num_leaves=7
num_cat=2
split_feature=1 21 9 24 6 12
split_gain=51.7678 16.1445 15.777 13.2703 5.92095 3.1357
threshold=0 11803.750000000002 1 41454.250000000007 35.65590000000001 46.750000000000007
decision_type=5 2 5 2 2 2
left_child=1 4 3 -2 -1 -4
right_child=2 -3 5 -5 -6 -7
leaf_value=0.044831755938140934 -0.0042894076835992443 0.10396325568037799 -0.032051828785588328 0.071490282537207572 0.0056871488532799271 -0.0028836898695640788
leaf_count=453 383 92 2343 150 306 273
internal_value=0 0.778547 -0.377536 0.323356 0.655653 -0.559504
internal_count=4000 851 3149 533 759 2616
cat_boundaries=0 10 12
cat_threshold=16779776 1107300354 4194304 2436 268435457 291575936 526336 512 0 64 822150316 10
shrinkage=0.0463965


Tree=8
num_leaves=8
num_cat=1
split_feature=1 27 19 15 35 23 23
split_gain=47.0336 14.4568 13.0049 8.03371 5.46498 2.95663 2.82683
threshold=0 72.250000000000014 40.750000000000007 60.250000000000007 27.250000000000004 57469.000000000007 14869.000000000002
decision_type=5 2 2 2 2 2 2
left_child=2 6 4 -4 -1 -3 -2
right_child=1 5 3 -5 -6 -7 -8
leaf_value=0.011947577012091882 -0.032285058164369045 0.038082751890500428 0.10271443341687644 0.03015812330408137 0.055637849460541566 -0 -0.0046486248346499373
leaf_count=696 2307 193 130 89 148 167 270
internal_value=0 -0.414777 0.642336 1.54089 0.4494 0.415492 -0.622666
internal_count=4000 2937 1063 219 844 360 2577
cat_boundaries=0 10
cat_threshold=16779776 1176506370 4194304 2436 276824069 291575937 526336 768 0 64
shrinkage=0.0463965


Tree=9
num_leaves=8
num_cat=1
split_feature=1 23 25 19 15 14 32
split_gain=42.636 14.9477 10.3182 9.56101 7.44538 4.67991 2.44683
threshold=0 15400.750000000002 1695.2500000000002 40.750000000000007 61.750000000000007 6.2500000000000009 57.921400000000013
decision_type=5 2 2 2 2 2 2
left_child=3 6 -3 5 -5 -1 -2
right_child=1 2 -4 4 -6 -7 -8
leaf_value=0.030511945755419104 -0.03361526556359376 0.058696722309665675 -0.0085237215607522603 0.089834227005206463 0.022464513704239037 -0.00075889271544005361 -0.0049763479247440651
leaf_count=572 2155 145 343 135 89 276 285
internal_value=0 -0.403554 0.274334 0.598911 1.34786 0.431802 -0.656195
internal_count=4000 2928 488 1072 224 848 2440
cat_boundaries=0 10
cat_threshold=50334208 1109397506 4194304 2436 276824069 295770241 526336 768 0 64
shrinkage=0.0463965


Tree=10
num_leaves=7
num_cat=2
split_feature=1 21 9 49 12 5
split_gain=39.4312 12.4866 12.3848 12.0387 4.2447 3.24416
threshold=0 11803.750000000002 1 1129.7500000000002 46.750000000000007 173.30050000000003
decision_type=5 2 5 2 2 2
left_child=1 5 3 -2 -4 -1
right_child=2 -3 4 -5 -6 -7
leaf_value=0.027767025724153831 0.047797320502537759 0.080178477455134373 -0.032097727874674013 -0.026196193662457117 -0 -0.0031648395333055235
leaf_count=681 311 103 2299 178 273 155
internal_value=0 0.609368 -0.367899 0.274727 -0.538594 0.476822
internal_count=4000 939 3061 489 2572 836
cat_boundaries=0 10 12
cat_threshold=16779776 1176506370 4194304 2436 268435461 291575936 526336 768 0 64 822150700 10
shrinkage=0.0463965


Tree=11
num_leaves=8
num_cat=1
split_feature=1 23 25 25 25 14 32
split_gain=35.5016 14.7969 10.5567 8.26117 9.08806 4.83651 1.67908
threshold=0 14869.000000000002 1426.7500000000002 323.50000000000006 3283.7500000000005 3.2500000000000004 57.921400000000013
decision_type=5 2 2 2 2 2 2
left_child=3 6 -3 5 -5 -1 -2
right_child=1 2 -4 4 -6 -7 -8
leaf_value=0.022933591514497125 -0.033676421816744552 0.058651350714850448 -0.0080850661853495969 0.067437966899734331 0.0024089468051664196 -0.014761975050875677 -0.0081680108368456187
leaf_count=587 2066 140 383 261 84 198 281
internal_value=0 -0.387259 0.240706 0.52034 1.062 0.299755 -0.66353
internal_count=4000 2870 523 1130 345 785 2347
cat_boundaries=0 10
cat_threshold=50397824 1109397506 4194304 2436 276824065 299960449 526336 768 0 64
shrinkage=0.0463965


Tree=12
num_leaves=8
num_cat=3
split_feature=1 4 22 27 14 32 33
split_gain=33.2019 11.9959 10.2037 8.85667 8.17324 4.54639 1.94203
threshold=0 1 1159.7500000000002 190.00000000000003 6.2500000000000009 44.80530000000001 2
decision_type=5 5 2 2 2 2 5
left_child=2 6 4 -3 -1 -4 -2
right_child=1 3 5 -5 -6 -7 -8
leaf_value=0.028110222937569072 0.0046481284681234702 -0.0041896044025920452 0.03815245903124289 0.049585687549220908 -0.026565818828174569 0.090382683801504562 -0.029303677783895258
leaf_count=456 205 688 161 179 152 85 2074
internal_value=0 -0.326166 0.581305 0.153375 0.330585 1.27378 -0.54679
internal_count=4000 3146 854 867 608 246 2279
cat_boundaries=0 10 14 17
cat_threshold=16845312 1142951938 4194304 2436 268435461 295764096 526336 512 0 64 2215905627 562043160 2162720 4 2578 16777217 16
shrinkage=0.0463965


Tree=13
num_leaves=7
num_cat=2
split_feature=1 7 19 23 12 14
split_gain=30.0336 12.0101 7.59206 7.04346 3.70792 3.67146
threshold=0 1 40.750000000000007 42066.250000000007 60.250000000000007 6.2500000000000009
decision_type=5 5 2 2 2 2
left_child=2 -2 5 -4 -3 -1
right_child=1 4 3 -5 -6 -7
leaf_value=0.024179447386801278 0.018031830683660467 -0.029705594258729682 0.088847951137989822 0.025333793314257277 0 -0.0029811221709441782
leaf_count=561 331 2382 103 111 221 291
internal_value=0 -0.35455 0.482184 1.1161 -0.502279 0.323276
internal_count=4000 2934 1066 214 2603 852
cat_boundaries=0 10 16
cat_threshold=16845440 1174409218 4194304 2436 276824069 31527040 526336 768 0 64 17305670 393232 16943104 134217728 0 262144
shrinkage=0.0463965


Tree=14
num_leaves=8
num_cat=2
split_feature=1 4 27 19 14 15 6
split_gain=27.4058 14.3228 11.1446 6.31838 5.6752 4.31478 1.53331
threshold=0 1 190.00000000000003 40.750000000000007 18.250000000000004 61.750000000000007 34.728500000000004
decision_type=5 5 2 2 2 2 2
left_child=3 6 -3 4 -1 -5 -2
right_child=1 2 -4 5 -6 -7 -8
leaf_value=0.026016872080833909 -0.02689287191522044 -0.0044474760356528181 0.055159023373907642 0.070863207882684076 -0.011082690538652946 0.018944031026990497 -0.046785615223846784
leaf_count=551 1552 808 168 113 226 77 505
internal_value=0 -0.326307 0.15422 0.479409 0.334409 1.07846 -0.606608
internal_count=4000 3033 976 967 777 190 2057
cat_boundaries=0 10 16
cat_threshold=50397712 1142951938 4194304 388 268435457 291571841 2048 768 0 64 3222536539 553650496 2162720 4 134217728 65536
shrinkage=0.0463965


Tree=15
num_leaves=5
num_cat=2
split_feature=1 2 25 23
split_gain=26.4749 27.6762 11.5128 1.77006
threshold=0 1 323.50000000000006 16073.500000000002
decision_type=5 5 2 2
left_child=3 -2 -3 -1
right_child=1 2 -4 -5
leaf_value=-0.04366329642427795 -0.031076849534016938 0.0093221441868996131 0.042054638681469303 -0.015450074059577155
leaf_count=1082 491 1539 684 204
internal_value=0 0.229961 0.449394 -0.640748
internal_count=4000 2714 2223 1286
cat_boundaries=0 8 36
cat_threshold=1141031172 2685684004 843 32768 67108864 2214888448 256 262144 67117056 10485760 8 17408 536936514 268435456 0 0 1 33554432 0 1075838976 128 68288512 0 0 2621472 0 8192 0 13631488 0 8388608 8 134217728 0 67108864 2
shrinkage=0.0463965


Tree=16
num_leaves=7
num_cat=3
split_feature=2 4 27 49 1 25
split_gain=25.5919 25.5471 16.6459 11.1522 8.64129 2.33127
threshold=0 1 196.00000000000003 87.250000000000014 2 1972.7500000000002
decision_type=5 5 2 2 5 2
left_child=3 4 -3 5 -2 -1
right_child=1 2 -4 -5 -6 -7
leaf_value=0.08833339164172746 0.0066551180968027774 0.0012922882331440346 0.062259520169149936 0.0029314674881992728 -0.033577075741929016 0.043280782976686569
leaf_count=244 292 1023 196 243 1887 115
internal_value=0 -0.199807 0.296924 0.751472 -0.545793 1.52397
internal_count=4000 3398 1219 602 2179 359
cat_boundaries=0 24 30 36
cat_threshold=6144 4194368 1049600 8388672 0 4224 1 0 33554448 16 98304 1 272 0 0 0 0 32768 2162688 65792 256 64 1073741888 32768 2283012435 553684040 2097184 4 0 65536 131600 8192 0 1048832 1 4194305
shrinkage=0.0463965


Tree=17
num_leaves=5
num_cat=3
split_feature=1 2 1 23
split_gain=25.089 19.8662 11.4819 2.06483
threshold=0 1 2 16073.500000000002
decision_type=5 5 5 2
left_child=3 -2 -3 -1
right_child=1 2 -4 -5
leaf_value=-0.045042003557321554 -0.028574242015424519 -0.012913219503895809 0.024694817098582268 -0.01466682303437101
leaf_count=1069 408 547 1777 199
internal_value=0 0.214002 0.381354 -0.644932
internal_count=4000 2732 2324 1268
cat_boundaries=0 10 35 45
cat_threshold=1140900132 538200356 843 32768 67108864 2214888448 256 263168 0 67108864 67117056 8388608 8 17408 536870930 268435456 0 0 0 0 0 1075838976 128 68288512 0 0 2621472 0 8192 0 9437184 0 8388608 8 134217728 675415040 2416115720 2098176 537919552 1048608 2 2392064 9437440 4456448 4194304
shrinkage=0.0463965


Tree=18
num_leaves=4
num_cat=3
split_feature=1 2 4
split_gain=23.3073 18.4511 11.9441
threshold=0 1 2
decision_type=5 5 5
left_child=-1 -2 -3
right_child=1 2 -4
leaf_value=-0.031756575103204135 -0.028482034805111012 -0.015550360934442784 0.022267598353000455
leaf_count=1080 427 385 2108
internal_value=0 0.184996 0.339405
internal_count=4000 2920 2493
cat_boundaries=0 9 34 39
cat_threshold=1140900096 538200356 843 32768 67108864 2214888448 256 263168 4194304 67117056 8388608 8 17408 536870978 268435456 0 0 0 0 0 2097152 128 68288512 0 0 2621440 0 8192 16384 13631488 0 8388608 8 134217728 2149318992 553680920 2097152 0 2097152
shrinkage=0.0463965


Tree=19
num_leaves=6
num_cat=3
split_feature=2 4 27 30 0
split_gain=22.5237 23.4638 12.3292 10.6232 3.66733
threshold=0 1 196.00000000000003 2 9.2500000000000018
decision_type=5 5 2 5 2
left_child=3 4 -3 -1 -2
right_child=1 2 -4 -5 -6
leaf_value=0.050824181684368822 -0.033709671323254205 0.0010823201092359576 0.051873156042183968 -0.0089267047948804225 -0.0045181804773334264
leaf_count=340 1787 1022 198 297 356
internal_value=0 -0.201532 0.264773 0.665628 -0.546824
internal_count=4000 3363 1220 637 2143
cat_boundaries=0 24 30 33
cat_threshold=6272 4194368 1049600 8388672 0 4224 1 0 33554448 16 98304 1 272 0 0 0 0 36864 2162688 65792 256 64 1073741888 32768 2283012183 554208328 2097184 4 0 65536 2130120 553648128 128
shrinkage=0.0463965


Tree=20
num_leaves=5
num_cat=3
split_feature=1 2 1 18
split_gain=21.545 17.3493 10.9893 0.651644
threshold=0 1 2 16.000000000000004
decision_type=5 5 5 2
left_child=3 -2 -3 -1
right_child=1 2 -4 -5
leaf_value=-0.043049810474929971 -0.02790343096625909 -0.014623624463905738 0.021903727093008661 -0.019365301962881842
leaf_count=999 419 558 1827 197
internal_value=0 0.184877 0.33503 -0.633821
internal_count=4000 2804 2385 1196
cat_boundaries=0 8 33 43
cat_threshold=1145094432 2685684004 843 32768 67108864 2214888448 256 262144 67117056 8388608 8 17408 536870914 268435456 0 0 0 0 0 1075838976 128 68288512 0 0 2621472 0 8192 16384 13631488 0 8388608 8 134217728 134349828 268632072 2098176 537919552 1048608 2 2392064 9438208 4456448 71303168
shrinkage=0.0463965


Tree=21
num_leaves=6
num_cat=3
split_feature=2 7 15 1 49
split_gain=20.9152 22.1033 12.6622 10.7966 5.45691
threshold=0 1 4.7500000000000009 2 87.250000000000014
decision_type=5 5 2 5 2
left_child=4 2 -2 -3 -1
right_child=1 3 -4 -5 -6
leaf_value=0.061773349703208517 0.011160218773547654 0.0082883984096836297 0.083225681563917867 -0.026280141787823352 0.0099559785410136704
leaf_count=321 483 428 127 2426 215
internal_value=0 -0.179806 0.492587 -0.393879 0.697577
internal_count=4000 3464 610 2854 536
cat_boundaries=0 24 30 36
cat_threshold=6144 4194304 1049600 8388672 0 4096 1 0 33554448 16 98304 1 272 0 0 0 0 32768 2162688 65792 256 64 1073741888 32768 352467020 147475 16809992 0 0 130 537002512 1142956034 0 1048576 5 6356993
shrinkage=0.0463965


Tree=22
num_leaves=4
num_cat=2
split_feature=1 2 25
split_gain=20.2116 16.1429 10.2478
threshold=0 1 323.50000000000006
decision_type=5 5 2
left_child=-1 -2 -3
right_child=1 2 -4
leaf_value=-0.030764200180541379 -0.027692233162142831 0.0031688883911843977 0.031768922631447032
leaf_count=1079 436 1731 754
internal_value=0 0.163294 0.303275
internal_count=4000 2921 2485
cat_boundaries=0 10 38
cat_threshold=1140900096 2685684004 843 32768 67108864 2214888448 256 262144 0 67108864 67117056 8388608 8 17408 536870930 268435456 0 0 1 0 0 1075838976 128 68288512 0 0 2097152 0 8192 0 13631488 0 8388608 8 0 0 67108864 2
shrinkage=0.0463965


Tree=23
num_leaves=4
num_cat=3
split_feature=1 2 4
split_gain=19.2546 16.4089 10.2316
threshold=0 1 2
decision_type=5 5 5
left_child=-1 -2 -3
right_child=1 2 -4
leaf_value=-0.029840588458527665 -0.027923493297258621 -0.014477949553735837 0.019966343641521615
leaf_count=1130 449 393 2028
internal_value=0 0.157861 0.300735
internal_count=4000 2870 2421
cat_boundaries=0 8 36 42
cat_threshold=1141031168 806635812 843 32768 67108864 2214888448 256 263168 67117056 8388608 0 17408 536936514 268435456 0 128 0 0 0 1075838976 128 68288512 0 0 2621472 0 8192 16384 13631488 0 8388608 8 0 0 0 2 2149318992 553680920 2097152 0 2097280 65536
shrinkage=0.0463965


Tree=24
num_leaves=4
num_cat=2
split_feature=1 2 25
split_gain=18.8468 15.2143 10.1535
threshold=0 1 323.50000000000006
decision_type=5 5 2
left_child=-1 -2 -3
right_child=1 2 -4
leaf_value=-0.03104572419189762 -0.027528988328427054 0.0020714212494152735 0.030154132751255797
leaf_count=1042 452 1763 743
internal_value=0 0.145137 0.278659
internal_count=4000 2958 2506
cat_boundaries=0 10 38
cat_threshold=1140900128 2954119460 843 32768 0 2214887424 256 262144 4194304 67108864 67117056 8388608 8 17408 536870992 268435456 0 0 1 33554432 0 2097152 128 68288512 0 524288 2097184 0 8192 0 9437184 0 8388608 8 134217728 0 0 2
shrinkage=0.0463965


Tree=25
num_leaves=6
num_cat=3
split_feature=2 7 1 39 0
split_gain=18.0648 20.7823 11.0629 8.14701 3.86932
threshold=0 1 2 9.2500000000000018 15.250000000000002
decision_type=5 5 5 2 2
left_child=3 4 -3 -1 -2
right_child=1 2 -4 -5 -6
leaf_value=0.066140306043216121 -0.030532022694112836 -0.021076135078848989 0.020089436824286547 0.00600383020847236 0.0015274239617959736
leaf_count=257 2034 312 969 226 202
internal_value=0 -0.172982 0.235238 0.651323 -0.508369
internal_count=4000 3517 1281 483 2236
cat_boundaries=0 24 31 39
cat_threshold=6144 4194304 1049600 8388672 0 4096 1 0 33554448 16 98304 1 272 0 0 0 0 32768 2162688 256 0 64 1073741888 32768 2691187235 83958784 2214593605 67108946 1073741824 4194304 20480 37912848 536887300 8 1048576 67108864 2214625280 0 262400
shrinkage=0.0463965


Tree=26
num_leaves=8
num_cat=4
split_feature=1 9 2 23 6 1 39
split_gain=17.3493 10.1453 7.76331 5.32731 4.19977 3.54317 2.58528
threshold=0 1 2 562.75000000000011 46.608800000000009 3 9.2500000000000018
decision_type=5 5 5 2 2 5 2
left_child=3 6 -3 5 -5 -1 -2
right_child=1 2 -4 4 -6 -7 -8
leaf_value=-0.008868003412314935 0.044771010802467634 0.010790963130948291 -0.024571007652686442 0.060554277026288246 0.01847800647859445 0.016723794060001542 0.0035376570714633461
leaf_count=222 195 343 2505 109 156 272 198
internal_value=0 -0.257056 -0.395979 0.394347 0.816192 0.160923 0.348083
internal_count=4000 3241 2848 759 265 494 393
cat_boundaries=0 10 12 35 43
cat_threshold=66048 1243615234 4194304 388 268435457 18940032 526336 512 0 64 822150308 10 0 262144 3146752 8388608 262144 0 0 0 0 0 65536 0 256 0 32 0 0 0 65536 65536 256 0 64 0 1241513984 0 256 0 2097280 0 512
shrinkage=0.0463965


Tree=27
num_leaves=4
num_cat=3
split_feature=1 2 1
split_gain=16.7145 14.2037 9.44531
threshold=0 1 2
decision_type=5 5 5
left_child=-1 -2 -3
right_child=1 2 -4
leaf_value=-0.030183646657412227 -0.027221169917488054 -0.010271757719169983 0.018875900140608751
leaf_count=1023 463 805 1709
internal_value=0 0.130468 0.257877
internal_count=4000 2977 2514
cat_boundaries=0 10 38 48
cat_threshold=1140900096 2684635428 843 32768 0 2214887424 256 263168 262144 71303168 8192 10485760 8 17408 536870930 268435456 0 0 1073741825 33554432 0 1075838976 128 68288512 0 524288 32 0 8192 0 9437184 0 8388608 8 134217728 0 0 2 675415076 269680648 2098176 537919552 68157476 3074 2359296 9437440 4194304 2048
shrinkage=0.0463965


Tree=28
num_leaves=6
num_cat=3
split_feature=2 7 31 1 38
split_gain=16.2341 17.619 11.7288 5.63624 5.12328
threshold=0 1 175.70950000000002 2 1.7500000000000002
decision_type=5 5 2 5 2
left_child=4 3 -3 -2 -1
right_child=1 2 -4 -5 -6
leaf_value=0.069684605175640624 0.0070545914955770827 0 0.04737303270099999 -0.028164272018016984 0.018914224556316465
leaf_count=161 266 1019 272 2043 239
internal_value=0 -0.159691 0.208327 -0.471323 0.645171
internal_count=4000 3600 1291 2309 400
cat_boundaries=0 24 31 37
cat_threshold=6144 4194304 1049600 8388672 0 0 1 0 33554448 16 98304 1 16 0 0 0 0 32768 2162688 256 0 64 1073741888 32768 2691187491 83957760 2214593605 67108946 1073741824 4194304 20480 16908816 2 0 1048576 1 2151677952
shrinkage=0.0463965


Tree=29
num_leaves=4
num_cat=3
split_feature=1 2 4
split_gain=16.1683 13.1334 9.13514
threshold=0 1 2
decision_type=5 5 5
left_child=-1 -2 -3
right_child=1 2 -4
leaf_value=-0.029994401082674843 -0.026659731933961664 -0.01346133868504956 0.017178593294600999
leaf_count=1037 464 421 2078
internal_value=0 0.124692 0.245182
internal_count=4000 2963 2499
cat_boundaries=0 10 37 43
cat_threshold=1140900128 2685684004 843 32768 0 2214887488 256 262144 0 71303168 67117056 8388608 0 17408 536936528 268435456 0 128 1073741825 0 0 1075838976 128 68288512 0 0 2097152 0 8192 0 13664256 0 8388608 8 0 0 67108864 2149319504 557875224 0 4 2097280 65536
shrinkage=0.0463965


Tree=30
num_leaves=6
num_cat=2
split_feature=2 7 27 0 39
split_gain=14.8983 15.8241 10.7339 8.81871 7.09964
threshold=0 1 89.500000000000014 16.750000000000004 9.2500000000000018
decision_type=5 5 2 2 2
left_child=4 2 -2 -3 -1
right_child=1 3 -4 -5 -6
leaf_value=0.057651046592808244 0.0069565579886123954 -0.021914369602913496 0.072872924285751664 0.025216934052763172 0.0031307790741183731
leaf_count=249 490 2729 94 212 226
internal_value=0 -0.166049 0.403706 -0.347327 0.570529
internal_count=4000 3525 584 2941 475
cat_boundaries=0 24 30
cat_threshold=6272 4194304 1048576 8388672 0 4096 1 0 33554448 16 98304 1 272 0 0 0 0 36864 2162688 65792 0 64 1073741888 32768 84031560 147475 16943104 0 2048 262274
shrinkage=0.0463965


Tree=31
num_leaves=7
num_cat=4
split_feature=1 9 2 24 27 1
split_gain=14.1172 8.6315 7.06165 5.73455 5.28298 5.01245
threshold=0 1 2 92375.500000000015 142.75000000000003 3
decision_type=5 5 5 2 2 5
left_child=3 -2 -3 5 -5 -1
right_child=1 2 -4 4 -6 -7
leaf_value=0.019114640615244254 0.017298497484947085 0.011456403740748007 -0.023623600176161257 0.068071236467569782 0.012539502960998483 -0.0071056057206231819
leaf_count=359 266 286 2539 63 67 420
internal_value=0 -0.261452 -0.38298 0.312628 0.864061 0.165979
internal_count=4000 3091 2825 909 130 779
cat_boundaries=0 10 12 35 45
cat_threshold=68112 1310732290 4194304 2436 268435461 287375488 526336 512 0 64 822084644 10 0 262144 3145728 8388608 262144 0 0 0 0 0 65536 0 256 0 32 0 0 0 65536 65536 256 0 64 66064 33554432 4194304 132 5 16842752 2048 0 0 64
shrinkage=0.0463965


Tree=32
num_leaves=4
num_cat=3
split_feature=1 2 4
split_gain=14.5713 12.7391 8.72571
threshold=0 1 2
decision_type=5 5 5
left_child=-1 -2 -3
right_child=1 2 -4
leaf_value=-0.029205835857239171 -0.026590785084530132 -0.013844715643951427 0.016350057362295493
leaf_count=1010 486 408 2096
internal_value=0 0.115275 0.233572
internal_count=4000 2990 2504
cat_boundaries=0 8 36 41
cat_threshold=1140900096 805650724 843 32768 0 2214888512 256 1311744 8192 8388608 8 17408 536870978 268435456 0 128 1073741824 33554432 0 2097152 128 68157440 0 524288 2621472 0 8192 16384 13631488 0 8388608 8 134217728 0 0 2 2149318992 557875288 0 0 2097280
shrinkage=0.0463965


Tree=33
num_leaves=6
num_cat=3
split_feature=2 7 1 27 6
split_gain=13.2288 14.6039 9.94518 9.16601 2.74692
threshold=0 1 2 120.25000000000001 1.9836450000000003
decision_type=5 5 5 2 2
left_child=4 3 -3 -2 -1
right_child=1 2 -4 -5 -6
leaf_value=0.060899474703758102 0.0080064136305563402 0.0082508885710256986 -0.023027368568781462 0.068554847364859492 0.020668669343701197
leaf_count=207 542 529 2500 85 137
internal_value=0 -0.145609 -0.322893 0.378181 0.59111
internal_count=4000 3656 3029 627 344
cat_boundaries=0 24 30 40
cat_threshold=6144 4194304 1048576 8388672 0 0 1 0 33554448 16 98304 1 16 0 0 0 0 32768 2162688 65536 0 64 1073741888 32768 84031564 147475 16943104 0 2048 262274 553779728 1140858882 1024 1048576 5 2418016256 0 0 0 64
shrinkage=0.0463965


Tree=34
num_leaves=8
num_cat=4
split_feature=1 9 2 23 20 14 1
split_gain=12.3346 8.9211 5.70548 3.57818 2.87063 2.58258 2.42296
threshold=0 1 2 562.75000000000011 662.50000000000011 153.25000000000003 3
decision_type=5 5 5 2 2 2 5
left_child=3 4 -3 6 -2 -5 -1
right_child=1 2 -4 5 -6 -7 -8
leaf_value=-0.0073258378859168 0 0.009471629105889133 -0.021992450652246743 0.040310341437428281 0.040687438504180551 0.0043281802578448601 0.013816900526467162
leaf_count=219 233 278 2621 174 169 78 228
internal_value=0 -0.224234 -0.3605 0.325439 0.321949 0.660831 0.121878
internal_count=4000 3301 2899 699 402 252 447
cat_boundaries=0 10 12 35 45
cat_threshold=512 1207963650 4194304 388 268435457 18940032 526336 512 0 64 822150308 10 0 262144 1049600 8388608 262144 0 0 0 0 0 65536 0 256 0 32 0 0 0 65536 65536 256 0 64 0 1207959552 0 256 0 2097280 0 512 0 64
shrinkage=0.0463965


Tree=35
num_leaves=4
num_cat=3
split_feature=1 2 1
split_gain=11.7351 12.4662 8.65563
threshold=0 1 2
decision_type=5 5 5
left_child=-1 -2 -3
right_child=1 2 -4
leaf_value=-0.027622524541961548 -0.026920717846506095 -0.011900286235931189 0.015976358471174585
leaf_count=942 487 810 1761
internal_value=0 0.0946981 0.211617
internal_count=4000 3058 2571
cat_boundaries=0 8 32 42
cat_threshold=1140900096 537217316 841 32768 0 2214887488 256 262144 8192 10485760 0 17408 536936530 268435456 0 128 1073741825 33554432 0 2097152 4 68288512 0 524288 32 0 8192 16384 13664256 0 8388608 8 675415092 2417098760 2097154 537919488 68157472 3074 2359296 1049600 4456448 71305216
shrinkage=0.0463965


Tree=36
num_leaves=4
num_cat=3
split_feature=1 2 1
split_gain=11.5283 11.4244 8.16628
threshold=0 1 2
decision_type=5 5 5
left_child=-1 -2 -3
right_child=1 2 -4
leaf_value=-0.027556449707110513 -0.0261956333376702 -0.013719766196281622 0.014701207302971604
leaf_count=948 498 728 1826
internal_value=0 0.0910191 0.201113
internal_count=4000 3052 2554
cat_boundaries=0 10 37 47
cat_threshold=1140900096 537215268 841 32768 0 2214887488 256 262144 262144 4096 67117056 8388608 16384 17408 536870992 268959744 0 0 1073741825 33554432 0 1075838976 128 68157440 0 524296 524288 0 8192 16384 5242880 0 8388608 8 134217728 0 67108864 138544164 2417100808 2097154 537919488 68157472 1026 2359296 9438208 4194304 71305216
shrinkage=0.0463965


Tree=37
num_leaves=4
num_cat=3
split_feature=1 2 4
split_gain=11.73 11.9983 7.08855
threshold=0 1 2
decision_type=5 5 5
left_child=-1 -2 -3
right_child=1 2 -4
leaf_value=-0.027735337386707318 -0.026663387194184644 -0.012593490472282465 0.014396650140608114
leaf_count=983 507 416 2094
internal_value=0 0.0903363 0.204478
internal_count=4000 3017 2510
cat_boundaries=0 10 38 44
cat_threshold=1140900096 805652772 841 32768 0 2214887488 256 262144 0 67112960 8192 10485760 8 17408 536936530 268435456 0 128 1073741825 33554432 0 2097152 132 68288512 0 0 2097184 0 8192 16384 1081344 0 8388608 8 0 0 0 2 2148795216 21004376 0 4 2097280 65536
shrinkage=0.0463965


Tree=38
num_leaves=4
num_cat=3
split_feature=1 2 4
split_gain=11.1248 11.0827 7.86761
threshold=0 1 2
decision_type=5 5 5
left_child=-1 -2 -3
right_child=1 2 -4
leaf_value=-0.027386609953368633 -0.026094498236453417 -0.01258177745229421 0.014453094094004351
leaf_count=980 514 443 2063
internal_value=0 0.0839532 0.192066
internal_count=4000 3020 2506
cat_boundaries=0 10 37 42
cat_threshold=1140900096 2684698884 843 32768 32 2214887488 256 262144 262144 4194304 67117056 8388608 8 17408 536870976 268959744 0 536871040 1073741824 33554432 0 1075838976 0 68157440 0 524296 524288 0 8192 16384 13631488 0 8388608 8 134217728 0 100663296 2149319536 566263880 0 4 2097280
shrinkage=0.0463965


Tree=39
num_leaves=6
num_cat=3
split_feature=2 7 31 35 1
split_gain=11.267 13.0454 9.50928 5.5145 4.9383
threshold=0 1 175.70950000000002 1.7500000000000002 2
decision_type=5 5 2 2 5
left_child=3 4 -3 -1 -2
right_child=1 2 -4 -5 -6
leaf_value=0.054953151084052951 0.0043347451982185502 -0.001113747033342577 0.039261837278281912 0.0015374516597775119 -0.02673228133660761
leaf_count=201 357 1057 282 144 1959
internal_value=0 -0.145588 0.159985 0.52489 -0.425231
internal_count=4000 3655 1339 345 2316
cat_boundaries=0 24 31 41
cat_threshold=6144 4194304 1048576 8388672 0 0 1 0 33554448 16 98304 1 16 0 0 0 0 36864 2162688 0 0 64 1073741888 32768 3764404771 83957760 2214593605 67108946 1073741824 4194304 20480 16908816 2 513 1048576 1 2487223297 0 0 0 64
shrinkage=0.0463965


Tree=40
num_leaves=4
num_cat=3
split_feature=1 2 1
split_gain=10.2296 11.0928 6.88406
threshold=0 1 2
decision_type=5 5 5
left_child=-1 -2 -3
right_child=1 2 -4
leaf_value=-0.026161821753759248 -0.026269509681941746 -0.010981512558042934 0.0140519757400037
leaf_count=1010 507 767 1716
internal_value=0 0.0785625 0.187562
internal_count=4000 2990 2483
cat_boundaries=0 10 38 48
cat_threshold=1141031200 538265604 841 32768 0 2214887424 256 1310720 268435456 4096 8192 8388608 16384 17408 536936514 268959744 0 536871040 1073741824 0 0 1075838976 132 68157440 0 0 524320 0 8192 16384 13664256 0 8388608 8 0 0 67108864 2 675546116 2416050472 2098178 536870912 68157472 8391682 2359296 1024 4456448 71305216
shrinkage=0.0463965


Tree=41
num_leaves=4
num_cat=3
split_feature=1 2 1
split_gain=10.3585 10.5792 7.16455
threshold=0 1 2
decision_type=5 5 5
left_child=-1 -2 -3
right_child=1 2 -4
leaf_value=-0.026950589942614369 -0.025943687760268321 -0.012930955757363105 0.013387735308732475
leaf_count=998 510 711 1781
internal_value=0 0.0750561 0.180015
internal_count=4000 3002 2492
cat_boundaries=0 10 37 47
cat_threshold=1140900128 538198052 841 32768 32 2214888512 256 262144 268435456 67112960 67117056 10485760 16392 17408 536936450 268959744 0 536870912 1 33554432 0 1075838976 132 68288512 0 524288 32 0 8192 0 1081344 0 8388608 8 134217728 0 67108864 138544132 2416118024 2097154 536870976 67108864 2 2392064 9438464 4456448 4196352
shrinkage=0.0463965


Tree=42
num_leaves=5
num_cat=2
split_feature=1 4 25 20
split_gain=10.5115 9.65412 10.3258 1.78136
threshold=0 1 323.50000000000006 33605.500000000007
decision_type=5 5 2 2
left_child=-1 3 -3 -2
right_child=1 2 -4 -5
leaf_value=-0.027829390000037077 -0.042668006663196659 -0.0010432291619493757 0.026835887300959146 -0.010077588802104371
leaf_count=935 376 1936 614 139
internal_value=0 0.0714473 0.189675 -0.440373
internal_count=4000 3065 2550 515
cat_boundaries=0 10 16
cat_threshold=1140900096 805650436 835 32768 32 2214888512 2097408 1311744 268435456 4096 2149318994 566758472 2097184 4 2097280 65536
shrinkage=0.0463965


Tree=43
num_leaves=7
num_cat=3
split_feature=7 2 1 16 14 35
split_gain=9.83513 12.6172 8.49836 4.26012 4.5451 1.7373
threshold=0 1 2 49.750000000000007 229.75000000000003 27.250000000000004
decision_type=5 5 5 2 2 2
left_child=3 5 -3 -1 -5 -2
right_child=1 2 -4 4 -6 -7
leaf_value=-0 0.033612965317437071 0.0084609923990839869 -0.021297578315182305 0.059500714987705983 0.0079231862057525318 0.0030998290532361166
leaf_count=228 319 558 2470 149 98 178
internal_value=0 -0.154022 -0.30777 0.432808 0.866356 0.389166
internal_count=4000 3525 3028 475 247 497
cat_boundaries=0 6 30 37
cat_threshold=84023388 409616 1090552064 0 0 130 2048 4456704 1049600 64 0 4224 0 0 16 16 98304 1 272 0 0 0 0 36864 2162688 65792 0 0 1073741888 32768 541196304 1277173762 1024 1048576 5 2149580929 524288
shrinkage=0.0463965


Tree=44
num_leaves=4
num_cat=3
split_feature=1 2 4
split_gain=10.3515 10.3302 7.51599
threshold=0 1 2
decision_type=5 5 5
left_child=-1 -2 -3
right_child=1 2 -4
leaf_value=-0.028454115512379294 -0.025957134825308453 -0.017997399115052361 0.012079093292781541
leaf_count=884 524 330 2262
internal_value=0 0.0680945 0.17043
internal_count=4000 3116 2592
cat_boundaries=0 10 38 44
cat_threshold=1140883744 2685749540 321 32832 0 67403776 262400 262144 4456448 71307264 67117056 8388608 72 1024 536936466 268435456 0 0 1073741825 33562624 0 1075838976 4 68288512 0 524288 2621472 0 8192 0 1081344 0 8388608 0 0 0 100663296 2 2149056848 25725000 0 4 2097152 65536
shrinkage=0.0463965


Tree=45
num_leaves=4
num_cat=3
split_feature=1 2 4
split_gain=9.31171 9.57588 6.03404
threshold=0 1 2
decision_type=5 5 5
left_child=-1 -2 -3
right_child=1 2 -4
leaf_value=-0.026270041571150395 -0.025373601110269681 -0.011878707830034956 0.012140340711690779
leaf_count=968 514 440 2078
internal_value=0 0.0640497 0.162483
internal_count=4000 3032 2518
cat_boundaries=0 9 37 43
cat_threshold=1141031168 2953267460 833 0 32 2214887488 2097408 1310720 268435456 8192 8388608 33554432 17408 536870978 268959744 0 536871040 1073741824 0 0 1075838976 132 68157440 0 0 524288 0 8192 16384 13664256 0 8421376 8 4194304 0 67108864 2 2149319024 29884424 0 4 2097280 65536
shrinkage=0.0463965


Tree=46
num_leaves=7
num_cat=3
split_feature=7 2 1 39 21 37
split_gain=8.8393 11.1596 10.0633 5.06878 3.25629 1.6266
threshold=0 1 2 10.750000000000002 427.75000000000006 1.7500000000000002
decision_type=5 5 5 2 2 2
left_child=3 5 -3 4 -1 -2
right_child=1 2 -4 -5 -6 -7
leaf_value=0.01773707874374619 0.048947346460648633 0.0099816923768470643 -0.020061592601096957 0 0.067373067109084459 0.014602422124159502
leaf_count=160 129 590 2627 197 92 205
internal_value=0 -0.148566 -0.26963 0.413653 0.959913 0.451517
internal_count=4000 3551 3217 449 252 334
cat_boundaries=0 6 30 37
cat_threshold=83892316 409616 1090552064 0 0 130 2048 4194560 1048576 64 0 4096 0 0 16 16 98304 1 0 0 0 0 0 36864 2162688 256 0 0 1073741888 32768 553779216 1277173762 1024 1048576 67108869 2418016385 524288
shrinkage=0.0463965


Tree=47
num_leaves=7
num_cat=2
split_feature=1 9 49 22 10 14
split_gain=8.59938 9.8626 5.37314 3.37386 2.39234 4.0187
threshold=0 1 1223.5000000000002 27220.750000000004 36.250000000000007 25.750000000000004
decision_type=5 5 2 2 2 2
left_child=4 2 -2 -3 5 -1
right_child=1 3 -4 -5 -6 -7
leaf_value=0.020481294613003215 0.027489306529980873 -0.01519430741312054 -0.01618893112513399 -0.048241844372041334 0.037306437648338707 -0.012918158442112549
leaf_count=321 451 2630 202 189 93 114
internal_value=0 -0.18532 0.251326 -0.361507 0.291382 0.213702
internal_count=4000 3472 653 2819 528 435
cat_boundaries=0 10 12
cat_threshold=2560 1073745920 4194304 132 268435457 18940032 526336 512 0 64 822150828 10
shrinkage=0.0463965


Tree=48
num_leaves=4
num_cat=3
split_feature=1 7 2
split_gain=9.2 8.81663 9.05238
threshold=0 1 2
decision_type=5 5 5
left_child=-1 -2 -3
right_child=1 2 -4
leaf_value=-0.026162759586832045 -0.023329582967864207 -0.022569047082294645 0.011899696411507212
leaf_count=966 408 431 2195
internal_value=0 0.0646051 0.16246
internal_count=4000 3034 2626
cat_boundaries=0 10 17 44
cat_threshold=1140901120 2953267204 843 64 0 67404800 262144 1311744 0 67112960 2153792032 83957760 2214626373 67174418 0 4194304 4096 0 8388608 33554440 1024 65538 524288 0 536870912 1073741824 33562624 0 2097152 0 68288512 0 524296 2621472 0 8192 16384 5242880 0 8388608 8 4194304 0 33554432
shrinkage=0.0463965


Tree=49
num_leaves=4
num_cat=3
split_feature=2 1 4
split_gain=8.5311 8.87146 5.72384
threshold=0 1 2
decision_type=5 5 5
left_child=-1 -2 -3
right_child=1 2 -4
leaf_value=-0.027328189317572967 -0.024956403267208858 -0.011316349073894975 0.011289741670218035
leaf_count=630 652 538 2180
internal_value=0 0.0513294 0.144408
internal_count=4000 3370 2718
cat_boundaries=0 24 33 39
cat_threshold=8192 8388608 16456 1024 1619001344 272629760 128 536871040 1073758208 8192 0 0 132 1142030336 0 524288 6291584 0 8192 0 1048576 0 8421376 8388608 67141920 2953265420 320 536870912 32 67142656 2097408 1311744 4194304 2149319008 29886552 0 4 2097280 65536
shrinkage=0.0463965


Tree=50
num_leaves=4
num_cat=3
split_feature=1 7 2
split_gain=8.77821 7.80249 8.66021
threshold=0 1 2
decision_type=5 5 5
left_child=-1 -2 -3
right_child=1 2 -4
leaf_value=-0.026622225519766084 -0.021981466138971222 -0.022509085966311869 0.011066853887117508
leaf_count=909 411 446 2234
internal_value=0 0.0550555 0.147173
internal_count=4000 3091 2680
cat_boundaries=0 10 17 44
cat_threshold=1275118848 538200100 833 32832 32 67403840 262144 262144 268697600 71307264 2153792032 83957760 2215150661 67174418 0 0 4096 67108864 8388608 33554440 1024 65538 524288 0 0 1073741824 33562624 1048576 2097152 0 68288512 0 524296 2621472 0 8192 0 5242880 0 8388608 8 4194304 0 100663296
shrinkage=0.0463965


Tree=51
num_leaves=5
num_cat=3
split_feature=1 4 2 21
split_gain=8.03646 7.82462 8.20862 0.336531
threshold=0 1 2 2231.5000000000005
decision_type=5 5 5 2
left_child=-1 3 -3 -2
right_child=1 2 -4 -5
leaf_value=-0.026772038838802064 -0.022150653799865951 -0.022226705343340716 0.010539039052569584 -0.046994148317326449
leaf_count=829 239 449 2275 208
internal_value=0 0.0449306 0.139139 -0.468838
internal_count=4000 3171 2724 447
cat_boundaries=0 10 16 44
cat_threshold=1275101472 2684698916 323 536870976 0 67142720 2097152 263168 262144 4198400 2283274322 566758472 2097184 4 2097152 65536 67108864 8388608 8 0 65538 524288 0 0 0 33554432 0 1073741824 0 68288512 0 524288 2621600 0 8192 16384 5275648 0 8421376 8 4194304 0 100663296 2
shrinkage=0.0463965


Tree=52
num_leaves=7
num_cat=3
split_feature=7 1 2 22 14 6
split_gain=7.86428 12.7142 5.18521 4.2326 2.72233 2.38673
threshold=0 1 2 214.75000000000003 87.250000000000014 48.462550000000007
decision_type=5 5 5 2 2 2
left_child=3 5 -3 -1 -5 -2
right_child=1 2 -4 4 -6 -7
leaf_value=-0.00041047238352943705 0.014737725972351528 0.01141238708549581 -0.02362626309167435 0.061778855558517858 0.018044631726800726 -0.0071085714591652971
leaf_count=194 718 189 2515 107 101 176
internal_value=0 -0.143001 -0.404249 0.397663 0.856408 0.181539
internal_count=4000 3598 2704 402 208 894
cat_boundaries=0 6 14 34
cat_threshold=83892310 409616 1090551808 0 0 130 553716240 1277173762 4194304 1048708 276824069 295766145 526336 256 0 262400 1024 0 262144 0 0 0 0 0 65536 0 0 0 0 0 0 0 2162689 65536
shrinkage=0.0463965


Tree=53
num_leaves=4
num_cat=3
split_feature=1 2 4
split_gain=7.62218 8.10876 6.11736
threshold=0 1 2
decision_type=5 5 5
left_child=-1 -2 -3
right_child=1 2 -4
leaf_value=-0.026371119442145301 -0.024600240203924015 -0.012587712169397521 0.010712365455854224
leaf_count=816 538 505 2141
internal_value=0 0.0422369 0.129935
internal_count=4000 3184 2646
cat_boundaries=0 10 37 42
cat_threshold=1140883712 806832396 321 0 32 67141632 2359296 1310720 272629760 67115008 67117056 8388608 72 1024 536936514 268435456 0 0 1073741824 8192 0 0 132 68288512 0 524288 524448 0 8192 16384 80773120 0 8388608 0 134217728 0 67108864 2149319536 29886536 0 4 2097280
shrinkage=0.0463965


Tree=54
num_leaves=6
num_cat=3
split_feature=2 7 31 1 39
split_gain=7.40057 9.74664 10.9601 7.61717 3.83328
threshold=0 1 175.70950000000002 2 15.250000000000002
decision_type=5 5 2 5 2
left_child=4 2 -2 -3 -1
right_child=1 3 -4 -5 -6
leaf_value=0.04445405885991676 0.00088940922811943477 0.0048477866612307262 0.064330049448512783 -0.021480901479999898 0
leaf_count=154 502 635 129 2418 162
internal_value=0 -0.134921 0.285037 -0.284413 0.409453
internal_count=4000 3684 631 3053 316
cat_boundaries=0 24 30 40
cat_threshold=6144 4194304 1048576 8388672 0 0 1 0 33554448 16 32768 1 0 0 0 0 0 36864 2162688 0 0 64 1073741888 32768 84031564 148498 16941056 8388608 0 262274 553779728 1142956034 1024 1048576 67108869 2418016384 0 0 0 64
shrinkage=0.0463965


Tree=55
num_leaves=4
num_cat=3
split_feature=1 2 7
split_gain=6.86376 6.54434 4.84636
threshold=0 1 2
decision_type=5 5 5
left_child=-1 -2 -3
right_child=1 2 -4
leaf_value=-0.023547171061797934 -0.022789452456449411 -0.013540792339931551 0.0092301579642560805
leaf_count=1015 459 343 2183
internal_value=0 0.0436016 0.120911
internal_count=4000 2985 2526
cat_boundaries=0 10 38 45
cat_threshold=1275248928 2685747204 840 536870976 0 2214887424 2359552 262144 0 6144 67117056 2097152 16384 0 536936450 273154048 0 536870912 1073741824 33554432 0 2097152 4 68157440 0 0 524320 0 8192 16384 80740352 0 8388608 8 4194304 0 33554432 2 2183676416 84219904 2215119945 65552 0 0 4096
shrinkage=0.0463965


Tree=56
num_leaves=6
num_cat=3
split_feature=2 4 0 1 5
split_gain=6.89271 9.24342 5.44867 5.03272 3.90566
threshold=0 1 13.750000000000002 2 115.98700000000001
decision_type=5 5 2 5 2
left_child=4 3 -3 -2 -1
right_child=1 2 -4 -5 -6
leaf_value=0.058331404798244821 0.0059398535671672656 0.0026376670120555044 0.044182105650824373 -0.021408508612776933 0.0080449290110391307
leaf_count=129 360 971 123 2320 97
internal_value=0 -0.123616 0.161863 -0.329501 0.437745
internal_count=4000 3774 1094 2680 226
cat_boundaries=0 23 29 39
cat_threshold=4096 4194304 1048576 8388672 0 0 1 0 33554448 16 32768 0 0 0 0 0 0 32768 2162688 0 0 0 1073741888 2282750075 554208472 2162720 4 2097152 131072 16974352 2147483648 0 1048576 1 2418016257 0 0 0 64
shrinkage=0.0463965


Tree=57
num_leaves=7
num_cat=3
split_feature=7 1 15 2 16 14
split_gain=6.75667 9.26113 5.33136 4.87628 4.41715 2.71557
threshold=0 1 61.750000000000007 2 94.000000000000014 190.75000000000003
decision_type=5 5 2 5 2 2
left_child=4 2 -2 -3 -1 -6
right_child=1 3 -4 -5 5 -7
leaf_value=-0.0020099307804195355 0.01479413501605167 0.011914803508730691 -0.027069719060576695 -0.020692805712695158 0.05474835065121994 0.011800514945235674
leaf_count=241 721 174 78 2587 112 87
internal_value=0 -0.138163 0.15945 -0.349692 0.354241 0.800869
internal_count=4000 3560 799 2761 440 199
cat_boundaries=0 6 14 34
cat_threshold=83892316 409616 1090682880 0 0 130 50530832 1277173762 4194304 1048580 5 27330688 526336 256 0 256 1024 0 262144 0 0 0 0 0 65536 0 0 0 0 0 0 4096 2097153 65536
shrinkage=0.0463965


Tree=58
num_leaves=4
num_cat=2
split_feature=1 7 25
split_gain=6.77227 7.09842 7.38418
threshold=0 1 309.25000000000006
decision_type=5 5 2
left_child=-1 -2 -3
right_child=1 2 -4
leaf_value=-0.024075674625144927 -0.022187486636043752 -0.0029552050082994048 0.019494256786574484
leaf_count=894 418 2013 675
internal_value=0 0.0418367 0.127671
internal_count=4000 3106 2688
cat_boundaries=0 10 17
cat_threshold=1275233536 805783820 321 64 0 67142720 0 262144 268697600 71307264 2690662944 83957760 2214626373 67174418 0 4194304 4096
shrinkage=0.0463965


Tree=59
num_leaves=5
num_cat=2
split_feature=0 2 7 0
split_gain=6.49173 8.20756 9.73691 4.06606
threshold=16.750000000000004 0 1 1.7500000000000002
decision_type=2 5 5 2
left_child=1 3 -3 -1
right_child=-2 2 -4 -5
leaf_value=0.026359731047678477 0.029282431028915559 0.012342814409037532 -0.017967523923325388 -0.011408660121715156
leaf_count=453 282 368 2760 137
internal_value=0 -0.107141 -0.231831 0.284413
internal_count=4000 3718 3128 590
cat_boundaries=0 24 30
cat_threshold=6144 4456704 3146752 8388672 0 4224 1 0 33554448 0 65536 1 256 0 0 0 0 36864 2162689 65536 0 0 1073741888 32768 67254336 147458 165888 142606336 2048 262272
shrinkage=0.0463965


Tree=60
num_leaves=7
num_cat=3
split_feature=33 7 1 22 47 43
split_gain=6.25173 6.67767 7.48579 4.93112 4.0224 3.88718
threshold=0 1 2 20288.500000000004 11104.750000000002 60.250000000000007
decision_type=5 5 5 2 2 2
left_child=3 5 -3 4 -1 -2
right_child=1 2 -4 -5 -6 -7
leaf_value=-0.013877136509272036 0.025944901336018008 0.0068687779964019952 -0.019413589032321106 0.055685735810842331 0.032367722957155613 -0.0088289994367561474
leaf_count=146 323 568 2574 56 124 209
internal_value=0 -0.129872 -0.251857 0.354941 0.155396 0.233132
internal_count=4000 3674 3142 326 270 532
cat_boundaries=0 3 9 16
cat_threshold=514 16785413 136314880 352325726 410624 1090551816 134283264 2048 262144 553847312 100671490 4194304 1048580 4 2424307712 524288
shrinkage=0.0463965


Tree=61
num_leaves=5
num_cat=4
split_feature=2 7 30 1
split_gain=5.92525 8.03126 6.28357 4.5928
threshold=0 1 2 3
decision_type=5 5 5 5
left_child=-1 3 -3 -2
right_child=1 2 -4 -5
leaf_value=0.019846577181994854 0.0041500018893809816 0.023830326154877433 -0.0031101539701774536 -0.022700470621122112
leaf_count=229 378 250 1065 2078
internal_value=0 -0.110966 0.118167 -0.33393
internal_count=4000 3771 1315 2456
cat_boundaries=0 23 30 32 42
cat_threshold=4096 4194304 1048576 64 0 0 0 0 33554448 16 32768 0 256 0 0 0 0 32768 2162688 0 0 0 1073741888 4066918947 83957760 2214593605 67108946 1073741824 4194304 20480 16908 553648128 197136 2 4195328 1048576 1 2420113536 0 0 0 64
shrinkage=0.0463965


Tree=62
num_leaves=4
num_cat=3
split_feature=1 2 7
split_gain=5.92058 5.85272 5.43501
threshold=0 1 2
decision_type=5 5 5
left_child=-1 -2 -3
right_child=1 2 -4
leaf_value=-0.022937797358403275 -0.021978674773519512 -0.016357662585498405 0.0087396405470997942
leaf_count=907 499 383 2211
internal_value=0 0.0395378 0.111545
internal_count=4000 3093 2594
cat_boundaries=0 10 37 44
cat_threshold=1141014784 2685747204 832 536870976 32 2214887424 2359296 263168 262144 67112960 67108864 8388608 33570816 0 536870914 273154048 0 536871040 1073741824 33554432 0 2097152 128 68157440 0 8 2621472 0 8192 16384 13631488 0 8388608 8 4194304 0 100663296 2154316320 83957760 2215117897 65554 0 0 4096
shrinkage=0.0463965


Tree=63
num_leaves=4
num_cat=3
split_feature=1 2 7
split_gain=6.14523 5.4039 4.96356
threshold=0 1 2
decision_type=5 5 5
left_child=-1 -2 -3
right_child=1 2 -4
leaf_value=-0.023931537581311314 -0.021449006446223998 -0.01539338765930076 0.0083146100995469593
leaf_count=876 475 365 2284
internal_value=0 0.0374222 0.105359
internal_count=4000 3124 2649
cat_boundaries=0 10 37 44
cat_threshold=1140900096 806832172 320 536870912 0 2214625344 2097152 1310720 268435456 4200448 8192 8388608 16392 1024 536870914 273154048 0 128 1073741824 0 0 2097152 132 68288512 0 8 160 0 8192 16384 5242880 0 8388608 8 0 0 67108864 2691187200 83957760 2215119945 65552 0 0 4096
shrinkage=0.0463965


end of trees

feature importances:
c_02=71
c_01=47
c_table_1.c_3=21
c_table_1.c_2=17
n_table_1.n_18=14
n_table_1.n_7=11
n_table_1.n_20=11
n_table_1.n_26=9
c_table_1.c_5=8
n_table_1.n_16=8
n_table_1.n_19=7
n_1=6
n_table_1.n_2=6
n_table_1.n_1=5
n_table_1.n_5=5
n_table_1.n_8=5
n_table_1.n_12=5
n_table_2.n_2=5
n_table_2.n_7=5
n_table_1.n_15=4
n_table_1.n_17=4
n_table_2.n_1=4
n_table_3.n_3=4
n_table_2.n_3=3
n_table_1.n_9=2
n_table_1.n_11=2
c_table_2.c_2=2
c_table_2.c_3=2
n_table_1.n_3=1
n_table_2.n_5=1
n_table_2.n_6=1
n_table_2.n_11=1
n_table_3.n_1=1

parameters:
[boosting: gbdt]
[objective: binary]
[metric: auc]
[tree_learner: serial]
[device_type: cpu]
[data: ]
[valid: ]
[num_iterations: 100]
[learning_rate: 0.0463965]
[num_leaves: 32]
[num_threads: 4]
[max_depth: 3]
[min_data_in_leaf: 20]
[min_sum_hessian_in_leaf: 7.06559]
[bagging_fraction: 1]
[bagging_freq: 33]
[bagging_seed: 3]
[feature_fraction: 1]
[feature_fraction_seed: 2]
[early_stopping_round: 0]
[max_delta_step: 0]
[lambda_l1: 0.462924]
[lambda_l2: 0.0692935]
[min_gain_to_split: 0]
[drop_rate: 0.1]
[max_drop: 50]
[skip_drop: 0.5]
[xgboost_dart_mode: 0]
[uniform_drop: 0]
[drop_seed: 4]
[top_rate: 0.2]
[other_rate: 0.1]
[min_data_per_group: 100]
[max_cat_threshold: 32]
[cat_l2: 10]
[cat_smooth: 10]
[max_cat_to_onehot: 4]
[top_k: 20]
[monotone_constraints: ]
[feature_contri: ]
[forcedsplits_filename: ]
[refit_decay_rate: 0.9]
[verbosity: -1]
[max_bin: 255]
[min_data_in_bin: 3]
[bin_construct_sample_cnt: 200000]
[histogram_pool_size: -1]
[data_random_seed: 1]
[output_model: LightGBM_model.txt]
[snapshot_freq: -1]
[input_model: ]
[output_result: LightGBM_predict_result.txt]
[initscore_filename: ]
[valid_data_initscores: ]
[pre_partition: 0]
[enable_bundle: 1]
[max_conflict_rate: 0]
[is_enable_sparse: 1]
[sparse_threshold: 0.8]
[use_missing: 1]
[zero_as_missing: 0]
[two_round: 0]
[save_binary: 0]
[enable_load_from_binary_file: 1]
[header: 0]
[label_column: ]
[weight_column: ]
[group_column: ]
[ignore_column: ]
[categorical_feature: ]
[predict_raw_score: 0]
[predict_leaf_index: 0]
[predict_contrib: 0]
[num_iteration_predict: -1]
[pred_early_stop: 0]
[pred_early_stop_freq: 10]
[pred_early_stop_margin: 10]
[convert_model_language: ]
[convert_model: gbdt_prediction.cpp]
[num_class: 1]
[is_unbalance: 0]
[scale_pos_weight: 1]
[sigmoid: 1]
[boost_from_average: 1]
[reg_sqrt: 0]
[alpha: 0.9]
[fair_c: 1]
[poisson_max_delta_step: 0.7]
[tweedie_variance_power: 1.5]
[max_position: 20]
[label_gain: ]
[metric_freq: 1]
[is_provide_training_metric: 0]
[eval_at: ]
[num_machines: 1]
[local_listen_port: 12400]
[time_out: 120]
[machine_list_filename: ]
[machines: ]
[gpu_platform_id: -1]
[gpu_device_id: -1]
[gpu_use_dp: 0]

end of parameters

pandas_categorical:[[0, 1, 2, 3, 4, 5, 6, 7, 8, 9, 10, 11, 12, 13, 14, 15, 16, 17, 18, 19, 20, 21, 22, 23, 24, 25, 26, 27, 28, 29, 30, 31, 32, 33, 34, 35, 36, 37, 38, 39, 40, 41, 42, 43, 44, 45, 46, 47, 48, 49, 50, 51, 52, 53, 54, 55, 56, 57, 58, 59, 60, 61, 62, 63, 64, 65, 66, 67, 68, 69, 70, 71, 72, 73, 74, 75, 76, 77, 78, 79, 80, 81, 82, 83, 84, 85, 86, 87, 88, 89, 90, 91, 92, 93, 94, 95, 96, 97, 98, 99, 100, 101, 102, 103, 104, 105, 106, 107, 108, 109, 110, 111, 112, 113, 114, 115, 116, 117, 118, 119, 120, 121, 122, 123, 124, 125, 126, 127, 128, 129, 130, 131, 132, 133, 134, 135, 136, 137, 138, 139, 140, 141, 142, 143, 144, 145, 146, 147, 148, 149, 150, 151, 152, 153, 154, 155, 156, 157, 158, 159, 160, 161, 162, 163, 164, 165, 166, 167, 168, 169, 170, 171, 172, 173, 174, 175, 176, 177, 178, 179, 180, 181, 182, 183, 184, 185, 186, 187, 188, 189, 190, 191, 192, 193, 194, 195, 196, 197, 198, 199, 200, 201, 202, 203, 204, 205, 206, 207, 208, 209, 210, 211, 212, 213, 214, 215, 216, 217, 218, 219, 220, 221, 222, 223, 224, 225, 226, 227, 228, 229, 230, 231, 232, 233, 234, 235, 236, 237, 238, 239, 240, 241, 242, 243, 244, 245, 246, 247, 248, 249, 250, 251, 252, 253, 254, 255, 256, 257, 258, 259, 260, 261, 262, 263, 264, 265, 266, 267, 268, 269, 270, 271, 272, 273, 274, 275, 276, 277, 278, 279, 280, 281, 282, 283, 284, 285, 286, 287, 288, 289, 290, 291, 292, 293, 294, 295, 296, 297, 298, 299, 300, 301, 302, 303, 304, 305, 306, 307, 308, 309, 310, 311, 312, 313, 314, 315, 316, 317, 318, 319, 320, 321, 322, 323, 324, 325, 326, 327, 328, 329, 330, 331, 332, 333, 334, 335, 336, 337, 338, 339, 340, 341, 342, 343, 344, 345, 346, 347, 348, 349, 350, 351, 352, 353, 354, 355, 356, 357, 358, 359, 360, 361, 362, 363, 364, 365, 366, 367, 368, 369, 370, 371, 372, 373, 374], [0, 1, 2, 3, 4, 5, 6, 7, 8, 9, 10, 11, 12, 13, 14, 15, 16, 17, 18, 19, 20, 21, 22, 23, 24, 25, 26, 27, 28, 29, 30, 31, 32, 33, 34, 35, 36, 37, 38, 39, 40, 41, 42, 43, 44, 45, 46, 47, 48, 49, 50, 51, 52, 53, 54, 55, 56, 57, 58, 59, 60, 61, 62, 63, 64, 65, 66, 67, 68, 69, 70, 71, 72, 73, 74, 75, 76, 77, 78, 79, 80, 81, 82, 83, 84, 85, 86, 87, 88, 89, 90, 91, 92, 93, 94, 95, 96, 97, 98, 99, 100, 101, 102, 103, 104, 105, 106, 107, 108, 109, 110, 111, 112, 113, 114, 115, 116, 117, 118, 119, 120, 121, 122, 123, 124, 125, 126, 127, 128, 129, 130, 131, 132, 133, 134, 135, 136, 137, 138, 139, 140, 141, 142, 143, 144, 145, 146, 147, 148, 149, 150, 151, 152, 153, 154, 155, 156, 157, 158, 159, 160, 161, 162, 163, 164, 165, 166, 167, 168, 169, 170, 171, 172, 173, 174, 175, 176, 177, 178, 179, 180, 181, 182, 183, 184, 185, 186, 187, 188, 189, 190, 191, 192, 193, 194, 195, 196, 197, 198, 199, 200, 201, 202, 203, 204, 205, 206, 207, 208, 209, 210, 211, 212, 213, 214, 215, 216, 217, 218, 219, 220, 221, 222, 223, 224, 225, 226, 227, 228, 229, 230, 231, 232, 233, 234, 235, 236, 237, 238, 239, 240, 241, 242, 243, 244, 245, 246, 247, 248, 249, 250, 251, 252, 253, 254, 255, 256, 257, 258, 259, 260, 261, 262, 263, 264, 265, 266, 267, 268, 269, 270, 271, 272, 273, 274, 275, 276, 277, 278, 279, 280, 281, 282, 283, 284, 285, 286, 287, 288, 289, 290, 291, 292, 293, 294, 295, 296, 297, 298, 299, 300, 301, 302, 303, 304, 305, 306, 307, 308, 309, 310, 311, 312, 313, 314, 315, 316, 317, 318, 319, 320, 321, 322, 323, 324, 325, 326, 327, 328, 329, 330, 331, 332, 333, 334, 335, 336, 337, 338, 339, 340, 341, 342, 343, 344, 345, 346, 347, 348, 349, 350, 351, 352, 353, 354, 355, 356, 357, 358, 359, 360, 361, 362, 363, 364, 365, 366, 367, 368, 369, 370, 371, 372, 373, 374, 375, 376, 377, 378, 379, 380, 381, 382, 383, 384, 385, 386, 387, 388, 389, 390, 391, 392, 393, 394, 395, 396, 397, 398, 399, 400, 401, 402, 403, 404, 405, 406, 407, 408, 409, 410, 411, 412, 413, 414, 415, 416, 417, 418, 419, 420, 421, 422, 423, 424, 425, 426, 427, 428, 429, 430, 431, 432, 433, 434, 435, 436, 437, 438, 439, 440, 441, 442, 443, 444, 445, 446, 447, 448, 449, 450, 451, 452, 453, 454, 455, 456, 457, 458, 459, 460, 461, 462, 463, 464, 465, 466, 467, 468, 469, 470, 471, 472, 473, 474, 475, 476, 477, 478, 479, 480, 481, 482, 483, 484, 485, 486, 487, 488, 489, 490, 491, 492, 493, 494, 495, 496, 497, 498, 499, 500, 501, 502, 503, 504, 505, 506, 507, 508, 509, 510, 511, 512, 513, 514, 515, 516, 517, 518, 519, 520, 521, 522, 523, 524, 525, 526, 527, 528, 529, 530, 531, 532, 533, 534, 535, 536, 537, 538, 539, 540, 541, 542, 543, 544, 545, 546, 547, 548, 549, 550, 551, 552, 553, 554, 555, 556, 557, 558, 559, 560, 561, 562, 563, 564, 565, 566, 567, 568, 569, 570, 571, 572, 573, 574, 575, 576, 577, 578, 579, 580, 581, 582, 583, 584, 585, 586, 587, 588, 589, 590, 591, 592, 593, 594, 595, 596, 597, 598, 599, 600, 601, 602, 603, 604, 605, 606, 607, 608, 609, 610, 611, 612, 613, 614, 615, 616, 617, 618, 619, 620, 621, 622, 623, 624, 625, 626, 627, 628, 629, 630, 631, 632, 633, 634, 635, 636, 637, 638, 639, 640, 641, 642, 643, 644, 645, 646, 647, 648, 649, 650, 651, 652, 653, 654, 655, 656, 657, 658, 659, 660, 661, 662, 663, 664, 665, 666, 667, 668, 669, 670, 671, 672, 673, 674, 675, 676, 677, 678, 679, 680, 681, 682, 683, 684, 685, 686, 687, 688, 689, 690, 691, 692, 693, 694, 695, 696, 697, 698, 699, 700, 701, 702, 703, 704, 705, 706, 707, 708, 709, 710, 711, 712, 713, 714, 715, 716, 717, 718, 719, 720, 721, 722, 723, 724, 725, 726, 727, 728, 729, 730, 731, 732, 733, 734, 735, 736, 737, 738, 739, 740, 741, 742, 743, 744, 745, 746, 747, 748, 749, 750, 751, 752, 753, 754, 755, 756, 757, 758, 759, 760, 761, 762, 763, 764, 765, 766, 767, 768, 769, 770, 771, 772, 773, 774, 775, 776, 777, 778, 779, 780, 781, 782, 783, 784, 785, 786, 787, 788, 789, 790, 791, 792, 793, 794, 795, 796, 797, 798, 799, 800, 801, 802, 803, 804, 805, 806, 807, 808, 809, 810, 811, 812, 813, 814, 815, 816, 817, 818, 819, 820, 821, 822, 823, 824, 825, 826, 827, 828, 829, 830, 831, 832, 833, 834, 835, 836, 837, 838, 839, 840, 841, 842, 843, 844, 845, 846, 847, 848, 849, 850, 851, 852, 853, 854, 855, 856, 857, 858, 859, 860, 861, 862, 863, 864, 865, 866, 867, 868, 869, 870, 871, 872], [0, 1, 2], [0, 1, 2, 3, 4, 5, 6, 7, 8, 9, 10, 11, 12, 13, 14, 15, 16, 17, 18, 19, 20, 21, 22, 23, 24, 25, 26, 27, 28, 29, 30, 31, 32, 33, 34, 35, 36, 37, 38, 39, 40, 41, 42, 43, 44, 45, 46, 47, 48, 49, 50, 51, 52, 53, 54, 55, 56, 57, 58, 59, 60, 61, 62, 63, 64, 65, 66, 67, 68, 69, 70, 71, 72, 73, 74, 75, 76, 77, 78, 79, 80, 81, 82, 83, 84, 85, 86, 87, 88, 89, 90, 91, 92, 93, 94, 95, 96, 97, 98, 99, 100, 101, 102, 103, 104, 105, 106, 107, 108, 109, 110, 111, 112, 113, 114, 115, 116, 117, 118, 119, 120, 121, 122, 123, 124, 125, 126, 127, 128, 129, 130, 131, 132, 133, 134, 135, 136, 137, 138, 139, 140, 141, 142, 143, 144, 145, 146, 147, 148, 149, 150, 151, 152, 153, 154, 155, 156, 157, 158, 159, 160, 161, 162, 163, 164, 165, 166, 167, 168, 169, 170, 171, 172, 173, 174, 175, 176, 177, 178, 179, 180, 181, 182, 183, 184], [0, 1, 2, 3, 4, 5, 6, 7, 8, 9, 10, 11, 12, 13, 14, 15, 16, 17, 18, 19, 20, 21, 22, 23, 24, 25, 26, 27, 28, 29, 30, 31, 32, 33, 34, 35, 36, 37, 38, 39, 40, 41, 42, 43, 44, 45, 46, 47, 48, 49, 50, 51, 52, 53, 54, 55, 56, 57, 58, 59, 60, 61, 62, 63, 64, 65, 66, 67, 68, 69, 70, 71, 72, 73, 74, 75, 76, 77, 78, 79, 80, 81, 82, 83, 84, 85, 86, 87, 88, 89, 90, 91, 92, 93, 94, 95, 96, 97, 98, 99, 100, 101, 102, 103, 104, 105, 106, 107, 108, 109, 110, 111, 112, 113, 114, 115, 116, 117, 118, 119, 120, 121, 122, 123, 124, 125, 126, 127, 128, 129, 130, 131, 132, 133, 134, 135, 136, 137, 138, 139, 140, 141, 142, 143, 144, 145, 146, 147, 148, 149, 150, 151, 152, 153, 154, 155, 156, 157, 158, 159, 160, 161, 162, 163, 164, 165, 166, 167, 168, 169, 170, 171, 172, 173, 174, 175, 176, 177, 178, 179, 180, 181, 182, 183, 184, 185, 186, 187, 188, 189, 190, 191, 192, 193, 194, 195, 196, 197, 198, 199, 200, 201, 202, 203, 204, 205, 206, 207, 208, 209, 210, 211, 212, 213, 214, 215, 216], [0, 1, 2, 3, 4, 5, 6, 7, 8, 9, 10, 11, 12, 13, 14, 15, 16, 17, 18, 19, 20, 21, 22, 23, 24, 25, 26, 27, 28, 29, 30, 31, 32, 33, 34, 35, 36, 37, 38, 39, 40, 41, 42, 43, 44, 45, 46, 47, 48, 49, 50, 51, 52, 53, 54, 55, 56, 57, 58, 59, 60, 61, 62, 63, 64, 65, 66, 67, 68, 69, 70, 71, 72, 73, 74, 75, 76, 77, 78, 79, 80, 81, 82, 83, 84, 85, 86, 87, 88, 89, 90, 91, 92, 93, 94, 95, 96, 97, 98, 99, 100, 101, 102, 103, 104, 105, 106, 107, 108, 109, 110, 111, 112, 113, 114, 115, 116, 117, 118, 119, 120, 121, 122, 123, 124, 125, 126, 127, 128, 129, 130, 131, 132, 133, 134, 135, 136, 137, 138], [0, 1, 2, 3, 4, 5, 6, 7, 8, 9, 10, 11, 12, 13, 14, 15, 16, 17, 18, 19, 20, 21, 22, 23, 24, 25, 26, 27, 28, 29, 30, 31, 32, 33, 34, 35, 36, 37, 38, 39, 40, 41, 42, 43, 44, 45, 46, 47, 48, 49, 50, 51, 52, 53, 54], [0, 1, 2, 3, 4, 5, 6, 7, 8, 9, 10, 11, 12, 13, 14, 15, 16], [0, 1], [0, 1, 2, 3, 4, 5, 6, 7, 8, 9, 10, 11, 12, 13, 14, 15, 16, 17, 18, 19, 20, 21, 22, 23, 24, 25, 26, 27, 28, 29, 30, 31, 32, 33, 34, 35, 36, 37, 38, 39, 40, 41, 42, 43, 44, 45, 46, 47, 48, 49, 50, 51, 52, 53, 54, 55, 56, 57, 58, 59, 60, 61, 62, 63, 64, 65, 66, 67, 68, 69, 70, 71, 72, 73, 74, 75, 76, 77, 78, 79, 80, 81, 82, 83, 84, 85, 86, 87, 88, 89, 90, 91, 92, 93, 94, 95, 96, 97, 98, 99, 100, 101, 102, 103, 104], [0, 1, 2, 3, 4, 5, 6, 7, 8, 9, 10, 11, 12, 13, 14, 15, 16, 17, 18, 19, 20, 21, 22, 23, 24, 25, 26, 27, 28, 29, 30, 31, 32, 33, 34, 35, 36, 37, 38, 39, 40, 41, 42, 43, 44, 45, 46, 47, 48, 49, 50, 51, 52, 53, 54, 55, 56, 57, 58, 59, 60, 61, 62, 63, 64, 65, 66, 67, 68, 69, 70, 71, 72, 73, 74, 75, 76, 77, 78, 79, 80, 81, 82, 83, 84, 85, 86, 87, 88, 89, 90, 91, 92, 93, 94, 95, 96, 97, 98, 99, 100, 101, 102, 103, 104, 105, 106, 107, 108, 109, 110, 111, 112, 113, 114, 115, 116, 117, 118, 119, 120, 121, 122, 123, 124, 125, 126, 127, 128, 129, 130, 131, 132, 133, 134, 135, 136, 137, 138, 139, 140, 141, 142, 143, 144, 145, 146, 147, 148, 149, 150, 151], [0, 1, 2, 3, 4, 5, 6, 7, 8, 9, 10, 11, 12, 13, 14, 15, 16, 17, 18, 19, 20, 21, 22, 23, 24, 25, 26, 27, 28, 29, 30, 31, 32, 33, 34, 35, 36, 37, 38, 39, 40, 41, 42, 43, 44, 45, 46, 47, 48, 49, 50, 51, 52, 53, 54, 55, 56, 57, 58, 59, 60, 61, 62, 63, 64, 65, 66, 67, 68, 69, 70, 71, 72, 73, 74, 75, 76, 77, 78, 79, 80, 81, 82, 83, 84, 85, 86, 87, 88, 89, 90, 91, 92, 93, 94, 95, 96, 97, 98, 99, 100, 101], [0, 1, 2]]
