tree
version=v2
num_class=1
num_tree_per_iteration=1
label_index=0
max_feature_idx=53
objective=binary sigmoid:1
feature_names=n_1 c_02 c_01 c_table_1.c_1 c_table_1.c_2 n_table_1.n_1 n_table_1.n_2 c_table_1.c_3 c_table_1.c_4 c_table_1.c_5 n_table_1.n_3 c_table_1.c_6 n_table_1.n_5 n_table_1.n_6 n_table_1.n_7 n_table_1.n_8 n_table_1.n_9 n_table_1.n_10 n_table_1.n_11 n_table_1.n_12 n_table_1.n_15 n_table_1.n_16 n_table_1.n_17 n_table_1.n_18 n_table_1.n_19 n_table_1.n_20 n_table_1.n_25 n_table_1.n_26 n_table_1.n_27 c_table_2.c_1 c_table_2.c_2 n_table_2.n_1 n_table_2.n_2 c_table_2.c_3 c_table_2.c_4 n_table_2.n_3 c_table_2.c_6 n_table_2.n_5 n_table_2.n_6 n_table_2.n_7 n_table_2.n_8 n_table_2.n_9 n_table_2.n_10 n_table_2.n_11 n_table_2.n_12 n_table_2.n_13 n_table_2.n_14 n_table_3.n_1 n_table_3.n_2 n_table_3.n_3 n_table_3.n_4 n_table_3.n_5 n_table_3.n_6 n_table_3.n_7
feature_infos=[1:62.5] 2:1:13:49:27:74:9:45:20:19:0:41:72:44:33:113:127:130:54:56:15:51:104:31:34:83:53:35:92:65:3:23:39:42:48:79:132:82:99:96:142:14:36:105:114:167:43:57:148:153:158:161:52:58:77:152:183:5:7:32:140:141:24:46:97:69:8:16:60:109:157:55:124:137:154:59:91:115:191:194:67:81:100:120:4:66:84:85:87:89:171:203:10:22:25:50:86:94:133:184:189:276:11:26:40:76:78:103:232:240:38:88:108:111:121:122:165:197:218:28:63:107:128:150:156:159:170:201:225:235:253:18:112:123:164:169:182:196:207:30:64:106:134:139:143:147:173:211:224:231:234:17:29:80:131:145:168:178:206:228:250:275:37:47:62:68:73:101:117:126:149:202:208:209:216:222:237:239:251:265:267:61:75:98:125:129:135:138:144:160:162:163:175:176:180:181:192:193:198:205:212:220:245:247:255:268:277:297:299:303:317 10:92:43:54:111:26:299:23:78:21:112:164:52:205:0:40:103:76:193:95:270:183:39:87:279:285:33:70:124:47:62:101:108:131:135:154:158:213:226:363:178:8:210:267:280:365:381:36:42:44:60:74:296:310:404:41:82:93:123:399:450:35:53:110:179:189:219:233:292:419:14:28:49:102:150:177:215:476:57:145:159:172:264:435:449:11:50:113:133:184:195:246:12:24:30:37:63:67:85:126:148:160:171:216:286:329:410:460:477:3:4:5:83:119:167:168:185:190:206:209:230:242:261:290:346:349:353:430:440:447:493:512:7:17:22:32:34:94:97:104:125:130:157:191:266:271:354:366:417:432:463:478:496:498:13:59:89:96:99:106:109:136:169:227:232:241:245:259:300:307:308:364:367:452:15:19:27:29:48:64:75:88:141:153:163:182:186:198:207:208:222:228:239:254:255:273:276:331:350:352:369:382:400:414:457:464:479:492:519:585:618:16:25:65:84:91:98:118:127:129:140:175:192:203:211:218:223:231:237:262:288:306:309:318:319:328:338:341:351:362:368:374:391:396:425:429:431:446:467:497:499:500:513:548:572:577:612:55:69:71:73:105:132:137:138:165:170:187:196:235:236:243:248:265:287:291:301:304:323:330:334:336:342:360:361:384:398:407:421:422:424:428:458:461:462:465:488:489:501:503:509:525:531:535:551:555:580:582:598:1:2:38:51:68:72:81:90:100:114:115:116:121:143:146:155:156:161:174:176:181:188:194:224:234:240:244:249:256:263:269:277:284:293:297:298:321:324:326:343:347:348:358:378:379:383:385:389:395:403:406:411:416:420:426:433:437:442:444:454:455:459:466:469:473:484:485:491:502:507:515:516:520:521:527:530:541:544:547:553:560:566:569:573:584:593:597:617:625:630:637:640:659:663:670:671:700:710:758 1:0 2:0:6:10:16:17:29:9:7:24:13:37:14:15:12:11:18:45:33:19:56:63:60:26:73:38:3:55:54:64:4:70:83:20:22:34:30:21:36:39:58:65:68:74:35:47:71:57:114:1:32:44:59:134:31:53:78:139:8:48:81:85:94:111:119:27:28:42:69:82:90:92:104:105:106:115:128:144:23:46:49:50:52:75:79:80:98:103:116:122:25:40:43:72:86:93:96:97:99:107:112:118:127:129:133:146:152:164 [-183.91200000000001:227.50999999999999] [-49.719499999999996:78.390000000000001] 6:0:24:20:37:8:65:100:17:44:16:83:31:77:14:76:95:21:73:42:34:101:85:2:13:25:39:18:43:52:60:62:71:59:69:4:40:55:123:130:26:28:15:19:96:23:38:61:90:11:49:63:66:67:72:82:111:139:64:74:121:33:36:3:102:145:9:12:51:53:88:92:7:47:118:140:29:30:32:35:56:106:113:117:141:152:27:48:79:91:99:105:114:122:132:134:138:149:167:41:54:70:86:107:116:120:124:125:129:131:133:142:144:147:157:162:163:170:1:5:45:46:50:57:68:80:84:89:94:97:103:115:135:137:143:159:161:168:176 9:0:35:22:12:21:57:2:7:32:4:59:10:76:31:20:8:65:18:27:5:37:56:77:41:15:46:50:16:25:33:54:82:1:6:39:87:3:19:26:40:47:48:53:73:92:101:30:36:13:34:52:71:89:69:72:86:93:38:51:60:75:85:91:96:100:104:110:11:17:23:24:28:49:55:61:62:66:70:80:103:107:112 3:0:5:13:14:7:1:9:11:19:8:24:4:17:30:22:12:2:15:10:20:23:41:21:34:37:6:27:33:39:40:45:18:32:35:36:49 [1:175] 1:0:2:3:4:7:8:9:13:5:6:10:11:12 [1:24272.5] [1:46363] [1:2995] [1:517224] [1:2481850] [1:70] [1:6121] [1:7070.5] [1:423494] [1:313693] [1:372140] [1:441384] [1:1178200] [1:18856] [1:38.5] [1:121640] [1:151] 1:0 1:3:5:15:8:16:19:30:37:0:13:6:9:2:14:46:21:27:18:32:23:33:61:4:11:52:24:10:43:28:22:34:35:45:20:36:7:42:56:40:53:54:63:75:12:17:26:41:51:71:48:49:25:31:39:50:64:78:47:57:59:60:65:67:76:89 [-182.27000000000001:218.44400000000002] [-55.711999999999996:81.846299999999999] 1:8:19:17:23:37:14:9:16:0:13:41:26:58:11:2:5:6:21:28:15:22:45:24:20:53:30:86:4:27:75:29:71:10:25:40:65:67:76:31:34:44:77:3:33:46:47:50:55:64:96:48:52:89:7:42:49:57:62:63:70:18:56:73:78:84:111:12:81:83:88:98:32:43:85:110:35:38:54:60:95:106:108:116:118:39:59:66:68:72:79:80:87:92:97:100:112:119:122:129:137 5:0:9:8:24:10:37:44:14:31:1:13:20:11:30:7:50:38:52:16:25:17:27:64:3:40:49:63:6:35:15:41:39:22:2:21:32:57:26:34:4:12:28:33:56:78:51:69:19:36:53:55:45:48:58:73:23:29:60:82:18:43:70:75:42:46:59:62:67:71:76:77 [1:173.5] 1:0:2 [1:58175.5] [1:3170.5] [1:469837] [1:8042890] [1:91] [1:4433.5] [1:1971780] [1:151] [1:273895] [1:92.5] [1:1167200] [1:1061.5] [1:540979] [1:367882] [1:435418] [1:347712] [1:33065.5]
tree_sizes=942 898 869 897 998 816 794 987 830 899 949 959 881 974 967 906 911 891 1082 1192 901 999 928 969 900 974 1009 1018 1046 1027 964 1090 1017 957 978 939 955 1084 1013 1019 1128 1086 1172 1063 980 852 864 975 965 945 952 958 968 845 815 1035 990 911 987 1023 1070 1014 856 924 954 979 922 909 868 950 1027 957 1015 1018 1017 898 940 949 1017 849 998 958 982 928 949 862 902 969 816 907 983 872 980 948 783 980

Tree=0
num_leaves=10
num_cat=2
split_feature=24 2 33 15 39 25 23 52 47
split_gain=29.7899 13.0646 7.83934 7.73715 4.68512 3.51537 2.90513 0.424721 0.342365
threshold=92375.500000000015 0 1 4.7500000000000009 3.2500000000000004 28.750000000000004 2307.2500000000005 3553.7500000000005 2316.2500000000005
decision_type=2 5 5 2 2 2 2 2 2
left_child=1 -1 -3 -2 5 -4 -7 8 -6
right_child=3 2 4 -5 7 6 -8 -9 -10
leaf_value=-2.5775243379254422 -2.5911364785495641 -2.5940105433425868 -2.6513913913676359 -2.4994925958515628 -2.6679380524692311 -2.5921103412230813 -2.6426320085348518 -2.6811277442478469 -2.6411916593395226
leaf_count=154 192 162 675 151 161 194 161 373 177
internal_value=0 -0.256384 -0.343076 0.967961 -0.429195 -0.28404 0.0344837 -0.713191 -0.51803
internal_count=2400 2057 1903 343 1741 1030 355 711 338
cat_boundaries=0 12 15
cat_threshold=2097152 3149824 64 0 8 0 8194 0 25165824 0 0 2048 168298501 67108864 2050
shrinkage=1


Tree=1
num_leaves=9
num_cat=2
split_feature=1 13 23 15 1 32 0 39
split_gain=58.1141 15.5421 14.0057 4.24964 3.08859 3.04759 0.450964 1.17546
threshold=0 4.7500000000000009 15357.250000000002 4.7500000000000009 1 52.425150000000009 3.2500000000000004 37.750000000000007
decision_type=5 2 2 2 5 2 2 2
left_child=1 -1 4 -4 -2 6 7 -6
right_child=2 -3 3 -5 5 -7 -8 -9
leaf_value=0.045655981367043172 0.0017266481357911946 0.16355917895036065 -0.010392112524235639 0.053651570977805929 -0.037028902992151426 -0.017548293026684411 -0.070873697708557226 -0.067553146691439428
leaf_count=248 270 182 153 162 550 261 330 244
internal_value=0 1.02154 -0.366213 0.329697 -0.546239 -0.592989 -0.751161 -0.642117
internal_count=2400 430 1970 315 1655 1385 1124 794
cat_boundaries=0 6 11
cat_threshold=14 18874376 268697600 2147614720 16781312 128 25690113 269550084 32770 268435720 1064960
shrinkage=0.0750598


Tree=2
num_leaves=9
num_cat=1
split_feature=1 25 23 15 32 37 6 0
split_gain=49.1182 16.359 9.96329 6.50924 2.72371 2.11922 1.72594 1.30909
threshold=0 361.75000000000006 15357.250000000002 15.250000000000002 52.425150000000009 140.50000000000003 47.271700000000003 3.2500000000000004
decision_type=5 2 2 2 2 2 2 2
left_child=1 -1 4 -4 5 6 7 -2
right_child=2 -3 3 -5 -6 -7 -8 -9
leaf_value=0.036742442304261679 -0.032140367106430957 0.14349189012802935 -0.024343717861445915 0.055692744110661704 -0.01354355184226695 -0.068000843024238478 -0.010144663137796483 -0.065300093930378625
leaf_count=370 483 166 156 136 301 381 196 211
internal_value=0 0.808331 -0.38195 0.214619 -0.548998 -0.632075 -0.495344 -0.589405
internal_count=2400 536 1864 292 1572 1271 890 694
cat_boundaries=0 6
cat_threshold=524302 18878472 268697600 2416574720 16781312 128
shrinkage=0.0750598


Tree=3
num_leaves=9
num_cat=3
split_feature=1 1 23 25 40 30 6 32
split_gain=42.0635 12.9409 12.7662 11.5572 2.41312 2.52878 2.21734 0.409427
threshold=0 1 15357.250000000002 379.75000000000006 11401.750000000002 2 46.693500000000007 35.843000000000011
decision_type=5 5 2 2 2 5 2 2
left_child=3 -2 4 -1 5 -3 7 -7
right_child=1 2 -4 -5 -6 6 -8 -9
leaf_value=0.040867796166675623 -0.053803037955379461 0.015349933310140264 0.057207255839614168 0.13841285390165312 -0.04731100912487389 -0.037881455540974635 0.0079721410369690254 -0.014539394688616914
leaf_count=304 749 159 198 126 205 332 165 162
internal_value=0 -0.334526 -0.0421133 0.806151 -0.250013 -0.140763 -0.227929 -0.41885
internal_count=2400 1970 1221 430 1023 818 659 494
cat_boundaries=0 6 13 15
cat_threshold=14 18874376 268697600 2147614720 16781312 128 135324544 80241811 9248 8193 1107304452 2 4 1073832457 1
shrinkage=0.0750598


Tree=4
num_leaves=11
num_cat=2
split_feature=4 52 21 22 13 14 30 37 51 0
split_gain=19.7941 15.5525 8.97339 4.19512 3.64762 3.55139 3.39488 1.5544 1.97326 0.116489
threshold=0 6808.0000000000009 8652.2500000000018 17.500000000000004 39.250000000000007 4.7500000000000009 1 21.250000000000004 1501.7500000000002 1.7500000000000002
decision_type=5 2 2 2 2 2 5 2 2 2
left_child=5 2 3 -2 -5 6 -1 9 -9 -8
right_child=1 -3 -4 4 -6 -7 7 8 -10 -11
leaf_value=0.015601327684974473 0.058813280946594458 -0.04889730336402124 0.092073803222831735 -0.026186270552993027 0.031633916491731882 -0.054071085332343345 -0.010440344965745722 -0.060097146165701387 -0.016935514481140522 -0.021481451781027852
leaf_count=156 166 155 216 165 159 316 388 228 242 209
internal_value=0 0.363813 0.656439 0.316679 0.0435118 -0.327488 -0.246407 -0.307123 -0.53602 -0.201506
internal_count=2400 861 706 490 324 1539 1223 1067 470 597
cat_boundaries=0 3 5
cat_threshold=72929489 25174018 512 1076118021 32
shrinkage=0.0750598


Tree=5
num_leaves=8
num_cat=2
split_feature=1 1 19 25 40 51 6
split_gain=35.6027 9.16796 9.25679 8.07219 2.62876 2.26187 2.64398
threshold=0 1 342.25000000000006 379.75000000000006 11401.750000000002 71.500000000000014 46.565800000000003
decision_type=5 5 2 2 2 2 2
left_child=3 -2 4 -1 5 6 -3
right_child=1 2 -4 -5 -6 -7 -8
leaf_value=0.034972323105436895 -0.05073217157714293 -0.02943746165141636 0.056736004901321017 0.11158497953158933 -0.046995462822648236 0.015729263081754808 0.011710277077131357
leaf_count=312 696 511 124 137 214 227 179
internal_value=0 -0.323197 -0.0763486 0.701174 -0.224865 -0.122267 -0.239833
internal_count=2400 1951 1255 449 1131 917 690
cat_boundaries=0 6 13
cat_threshold=14 18874376 268697600 2147614976 16781312 128 135324288 71853203 9216 0 1107304452 2 4
shrinkage=0.0750598


Tree=6
num_leaves=8
num_cat=2
split_feature=1 24 9 32 5 12 44
split_gain=30.6341 14.1684 5.17763 1.96963 1.68657 1.25812 0.523083
threshold=0 30745.750000000004 1 57.921400000000013 163.92500000000004 13.000000000000002 6.2500000000000009
decision_type=5 2 5 2 2 2 2
left_child=1 4 -2 5 -1 6 -4
right_child=2 -3 3 -5 -6 -7 -8
leaf_value=0.0295751512747046 0.010145101396925461 0.10633404448900112 -0.037529253415794168 -0.0075093700969469015 -0.0047424491291064592 -0.018640627409708822 -0.058858427940962341
leaf_count=378 275 146 575 174 141 199 512
internal_value=0 0.518654 -0.362073 -0.469427 0.259914 -0.584832 -0.648259
internal_count=2400 665 1735 1460 519 1286 1087
cat_boundaries=0 6 7
cat_threshold=65550 288493576 268697600 2416575242 16781312 8388736 4735122
shrinkage=0.0750598


Tree=7
num_leaves=10
num_cat=3
split_feature=2 21 2 42 15 4 25 43 0
split_gain=15.6688 11.3882 6.99053 3.51017 3.50577 3.40328 2.81959 1.44971 1.17902
threshold=0 8437.0000000000018 1 13.750000000000002 4.7500000000000009 2 274.00000000000006 193.00000000000003 9.2500000000000018
decision_type=5 2 5 2 2 5 2 2 2
left_child=-1 2 -2 5 -3 -4 7 8 -7
right_child=1 4 3 -5 -6 6 -8 -9 -10
leaf_value=-0.04756031027075109 0.036970303975155938 0.02206791029577514 -0.029895478055379454 -0.042897116493703008 0.083860651325529847 -0.017562936018268912 0.036925716256962893 0.015542638008477246 0.010223999578032423
leaf_count=417 146 159 150 277 121 517 158 278 177
internal_value=0 0.113163 -0.0247393 -0.130209 0.737304 -0.053831 0.0545466 -0.0319541 -0.13386
internal_count=2400 1983 1703 1557 280 1280 1130 972 694
cat_boundaries=0 9 18 21
cat_threshold=75498753 268470658 8409088 98432 1073741952 8388624 0 0 2048 2097152 1052672 64 0 8 0 8194 0 25182208 4215940 2 512
shrinkage=0.0750598


Tree=8
num_leaves=8
num_cat=3
split_feature=1 1 23 20 32 40 1
split_gain=26.7413 10.3122 8.93493 3.2469 2.45329 2.41816 1.46269
threshold=0 1 15357.250000000002 800.50000000000011 52.425150000000009 148.00000000000003 2
decision_type=5 5 2 2 2 2 5
left_child=3 -2 4 -1 5 6 -3
right_child=1 2 -4 -5 -6 -7 -8
leaf_value=0.032881335419439182 -0.049776993864666184 -0.023371019247204836 0.043667939814217141 0.081681390171484319 0.011491074957161328 -0.04858349312445473 0.0044150544215582543
leaf_count=298 728 182 196 144 212 283 357
internal_value=0 -0.292238 -0.036729 0.583658 -0.229413 -0.335032 -0.155172
internal_count=2400 1958 1230 442 1034 822 539
cat_boundaries=0 6 13 18
cat_threshold=14 18874376 268435456 2148139264 16781312 128 135324544 71853203 9248 1 1107304452 2 4 2147483648 135680 2 514 16
shrinkage=0.0750598


Tree=9
num_leaves=9
num_cat=3
split_feature=1 2 50 25 1 24 14 38
split_gain=24.364 10.4722 7.87717 7.38084 5.02596 3.73637 3.32902 1.31146
threshold=0 1 412.00000000000006 274.00000000000006 2 6.2500000000000009 67.750000000000014 15.250000000000002
decision_type=5 5 2 2 5 2 2 2
left_child=-1 -2 3 4 -3 7 -5 -6
right_child=1 2 -4 6 5 -7 -8 -9
leaf_value=-0.049621930458414898 -0.036746178242421414 -0.022378441445839996 -0.021934972090912608 0.031820741598646542 0.026763748897067986 -0.007169143040268511 0.081187321854261391 0.064416250199189701
leaf_count=707 174 171 284 224 311 170 201 158
internal_value=0 0.188804 0.297584 0.444792 0.183148 0.306143 0.775857 0.562747
internal_count=2400 1693 1519 1235 810 639 425 469
cat_boundaries=0 7 12 16
cat_threshold=135324544 67660947 9248 8192 1107304452 2 4 75497729 268437504 20480 65664 1073741952 0 21172740 524290 131072
shrinkage=0.0750598


Tree=10
num_leaves=10
num_cat=2
split_feature=7 33 47 39 28 24 52 49 0
split_gain=12.8895 10.8673 6.02466 4.95084 4.59302 2.47019 1.16446 2.17661 1.02358
threshold=0 1 425.50000000000006 1.7500000000000002 1.7500000000000002 91.000000000000014 2907.2500000000005 407.50000000000006 3.2500000000000004
decision_type=5 5 2 2 2 2 2 2 2
left_child=2 -2 -1 4 5 8 7 -5 -3
right_child=1 3 -4 6 -6 -7 -8 -9 -10
leaf_value=0.071734512259761393 0.029363296274848297 -0.0022677590310651347 -4.1176277764474392e-05 -0.050582333864603951 0.023842348141909959 -0.048451410847871246 -0.059762974592022074 -0.001976857959113731 -0.028753595045186923
leaf_count=225 233 440 145 176 175 218 422 164 202
internal_value=0 -0.194896 0.461603 -0.321717 -0.168977 -0.309889 -0.61969 -0.389073 -0.154568
internal_count=2400 2030 370 1797 1035 860 762 340 642
cat_boundaries=0 4 7
cat_threshold=50905344 268436512 2149585538 16 839428100 69206016 2050
shrinkage=0.0750598


Tree=11
num_leaves=10
num_cat=3
split_feature=2 33 21 22 9 25 38 0 15
split_gain=13.2884 9.85963 7.6289 3.9772 2.9611 7.76243 3.17005 1.34299 1.2725
threshold=0 1 8437.0000000000018 5537.5000000000009 2 28.750000000000004 69.250000000000014 3.2500000000000004 4.7500000000000009
decision_type=5 5 2 2 5 2 2 2 2
left_child=-1 -2 3 4 -3 6 7 -6 -4
right_child=1 2 8 -5 5 -7 -8 -9 -10
leaf_value=-0.045492121624369199 -0.033428408009343567 -0.016108898566669538 0.029388657087948997 -0.03146759997540096 0.0033665635324008247 0.059334108236116422 0.037727170172159756 -0.025749831796604814 0.074462721242767538
leaf_count=414 358 156 118 146 452 278 167 209 102
internal_value=0 0.0969037 0.216345 0.0992541 0.183012 0.242399 0.0520277 -0.0881567 0.753832
internal_count=2400 1986 1628 1408 1262 1106 828 661 220
cat_boundaries=0 9 11 12
cat_threshold=75498753 1342179458 2147504128 98432 1073741952 8912912 0 0 2048 1095975712 512 16814882
shrinkage=0.0750598


Tree=12
num_leaves=9
num_cat=3
split_feature=1 1 9 24 49 32 25 5
split_gain=20.6797 6.92343 6.1009 4.22726 2.97169 3.32156 2.90131 1.83344
threshold=0 1 2 92375.500000000015 10891.000000000002 44.80530000000001 1471.7500000000002 156.83150000000003
decision_type=5 5 5 2 2 2 2 2
left_child=6 -2 4 -4 5 -3 7 -1
right_child=1 2 3 -5 -6 -7 -8 -9
leaf_value=0.04407520952120815 -0.046605816583545602 -0.025485916853404168 0.00048329114723844925 0.060004213590953814 -0.053658015179278734 0.021295732150522662 0.076991462124260807 0.0059937002316685171
leaf_count=237 674 496 266 108 221 181 79 138
internal_value=0 -0.276826 -0.072279 0.255921 -0.260304 -0.157423 0.479154 0.395495
internal_count=2400 1946 1272 374 898 677 454 375
cat_boundaries=0 6 13 14
cat_threshold=14 18874376 268697600 2148139010 16781312 128 135324544 76047507 9216 0 1107296260 2 4 2345
shrinkage=0.0750598


Tree=13
num_leaves=10
num_cat=2
split_feature=1 1 14 49 43 16 21 0 6
split_gain=18.0463 5.55438 5.38157 3.03193 2.25839 3.00352 2.08812 2.61955 2.14193
threshold=0 1 102.25000000000001 10891.000000000002 466.00000000000006 19.000000000000004 14.500000000000002 3.2500000000000004 46.608800000000009
decision_type=5 5 2 2 2 2 2 2 2
left_child=6 -2 3 4 5 -3 7 -1 -8
right_child=1 2 -4 -5 -6 -7 8 -9 -10
leaf_value=0.034585891823139529 -0.045518706989392012 -0.032479383297516339 0.033244210894361768 -0.05059447017485915 0.020989605733286818 0.013771079487804943 0.076135432410953899 -0.010835123152188725 0.02445544443676138
leaf_count=251 671 429 187 216 176 145 88 131 106
internal_value=0 -0.291827 -0.0823523 -0.236758 -0.10497 -0.231327 0.385498 0.259956 0.69096
internal_count=2400 1824 1153 966 750 574 576 382 194
cat_boundaries=0 6 13
cat_threshold=524302 288362504 268697600 2416574722 16781312 128 135324160 76047507 9216 8193 1107296260 2 4
shrinkage=0.0750598


Tree=14
num_leaves=10
num_cat=4
split_feature=1 2 50 4 25 13 22 38 1
split_gain=18.3843 9.50796 5.30304 4.96138 4.3691 3.2098 3.04532 1.91751 2.19182
threshold=0 1 412.00000000000006 2 104.50000000000001 9.2500000000000018 5537.5000000000009 36.250000000000007 3
decision_type=5 5 2 5 2 2 2 2 5
left_child=-1 -2 3 -3 7 -6 -7 8 -5
right_child=1 2 -4 4 5 6 -8 -9 -10
leaf_value=-0.04624330493250732 -0.036753518682792002 -0.016151099279787858 -0.018874548725380552 0.022121091754475939 0.012913781865677399 0.09545509760125892 0.039597057245283958 0.044001201850199234 -0.0090086768319901592
leaf_count=718 189 148 281 155 118 124 164 141 362
internal_value=0 0.146672 0.249422 0.364131 0.420279 0.708206 0.869266 0.229346 0.0960556
internal_count=2400 1682 1493 1212 1064 406 288 658 517
cat_boundaries=0 7 13 15 17
cat_threshold=135324544 76049555 9216 8193 1107304452 2 4 75497729 1342179328 20480 65664 1073741952 131072 21184 8194 7 18874368
shrinkage=0.0750598


Tree=15
num_leaves=9
num_cat=4
split_feature=1 2 52 27 9 14 1 14
split_gain=16.6832 8.98586 4.79596 4.44236 3.81995 3.09858 2.74527 1.90956
threshold=0 1 10020.250000000002 280.75000000000006 2 67.750000000000014 3 6.2500000000000009
decision_type=5 5 2 2 5 2 5 2
left_child=-1 -2 3 4 -3 6 -6 -8
right_child=1 2 -4 -5 5 -7 7 -9
leaf_value=-0.04514384471200255 -0.036442834993245264 -0.015546474945298681 -0.021190790166112559 0.06819063642594396 -0.013667903274417966 0.053001735866343581 0.036137137918590564 0.0018308412154683061
leaf_count=718 192 164 243 97 150 172 503 161
internal_value=0 0.132706 0.231823 0.3329 0.244674 0.308083 0.220509 0.290977
internal_count=2400 1682 1490 1247 1150 986 814 664
cat_boundaries=0 7 13 14 18
cat_threshold=135324544 76049555 9248 8192 1107304452 2 4 75497729 1073743872 20480 65664 1073741952 8519680 16777506 8388608 21107200 0 2147614720
shrinkage=0.0750598


Tree=16
num_leaves=9
num_cat=4
split_feature=1 2 1 9 5 13 35 20
split_gain=14.2228 7.63403 4.80365 3.23908 4.65882 3.39029 3.33753 1.41905
threshold=0 1 2 3 160.30600000000004 97.750000000000014 25.750000000000004 800.50000000000011
decision_type=5 5 5 5 2 2 2 2
left_child=-1 -2 7 4 6 -5 -4 -3
right_child=1 2 3 5 -6 -7 -8 -9
leaf_value=-0.042638986368900483 -0.033690870646473636 0.028574182396848908 0.023178280138210165 0.0466342965130725 -0.044767345233243307 -0.004365993467534233 -0.024682489099882399 0.063988895242655761
leaf_count=728 201 238 351 217 202 135 218 110
internal_value=0 0.113801 0.205922 0.0335727 -0.12297 0.250834 0.0680764 0.472012
internal_count=2400 1672 1471 1123 771 352 569 348
cat_boundaries=0 7 13 18 19
cat_threshold=135324544 71853203 9248 1 1107304452 2 4 75497729 1342179328 20480 98432 1073741824 131072 524302 2097160 268435456 131072 16781312 2345
shrinkage=0.0750598


Tree=17
num_leaves=9
num_cat=3
split_feature=1 2 50 4 20 51 31 6
split_gain=14.5659 7.05918 4.05609 3.908 3.5706 2.18627 2.63148 2.91709
threshold=0 1 412.00000000000006 2 25468.000000000004 127.00000000000001 171.00300000000004 43.713950000000004
decision_type=5 5 2 5 2 2 2 2
left_child=-1 -2 3 -3 5 6 7 -5
right_child=1 2 -4 4 -6 -7 -8 -9
leaf_value=-0.042944804584450776 -0.032576889602807087 -0.01531896913143389 -0.018032960168633795 0.0069008445606503713 0.062169866451223028 0.049517229040782977 -0.018704080029070796 0.045513236484149601
leaf_count=759 196 141 279 456 116 153 128 172
internal_value=0 0.115637 0.202974 0.29965 0.349406 0.282144 0.190111 0.288117
internal_count=2400 1641 1445 1166 1025 909 756 628
cat_boundaries=0 7 13 15
cat_threshold=135324544 80243859 9248 8193 1107304452 2 4 75497729 1342179328 20480 98432 1073741824 131072 21184 8194
shrinkage=0.0750598


Tree=18
num_leaves=11
num_cat=3
split_feature=2 1 4 25 0 0 14 6 35 5
split_gain=13.1738 11.2889 4.63179 3.45421 4.16776 2.46235 2.20083 2.74214 0.784681 0.306904
threshold=0 1 2 101.50000000000001 6.2500000000000009 3.2500000000000004 171.25000000000003 46.226000000000006 25.750000000000004 157.66750000000005
decision_type=5 5 5 2 2 2 2 2 2 2
left_child=-1 9 -3 5 6 8 7 -5 -4 -2
right_child=1 2 3 4 -6 -7 -8 -9 -10 -11
leaf_value=-0.047756291042727363 -0.024591820992871612 -0.018304697866571542 0.031430307283082812 0.0340405105190493 0.0819067616960375 -0.014284190467936895 0.053531123160870032 -0.015822968457176404 0.0051080455328084643 -0.046256259478521591
leaf_count=428 426 153 330 125 92 198 95 111 174 268
internal_value=0 0.0823519 0.249257 0.331774 0.569724 0.161315 0.356836 0.155388 0.310682 -0.365331
internal_count=2400 1972 1278 1125 423 702 331 236 504 694
cat_boundaries=0 12 18 21
cat_threshold=75497729 1342212226 2155893760 134316160 1073741952 8912912 0 0 2048 256 0 8192 135389825 105456787 533760 0 1108361220 130 67256512 8194 512
shrinkage=0.0750598


Tree=19
num_leaves=12
num_cat=3
split_feature=2 1 1 27 13 19 20 0 40 48 25
split_gain=13.7125 10.838 3.7774 3.31721 2.61701 2.11921 5.78414 4.41359 1.52223 1.27449 2.05405
threshold=0 1 2 190.00000000000003 93.250000000000014 106.00000000000001 800.50000000000011 1.7500000000000002 3398.5000000000005 1.7500000000000002 28.750000000000004
decision_type=5 5 5 2 2 2 2 2 2 2 2
left_child=-1 5 -3 4 8 6 7 -2 9 10 -4
right_child=1 2 3 -5 -6 -7 -8 -9 -10 -11 -12
leaf_value=-0.049309228524221968 0.049087042033129497 -0.032540521825716075 -0.021342768697514832 0.037380863518453142 -0.038588734847339004 0.0072537559069651503 0.092155716442935465 -0.012540419071952594 -0.022535077185160408 0.026857387022543953 0.021575827728578603
leaf_count=427 161 523 239 97 138 71 83 126 194 199 142
internal_value=0 0.0830479 -0.133034 0.00659725 -0.0931038 0.425731 0.632512 0.329636 0.0174904 0.118833 -0.0271401
internal_count=2400 1973 1532 1009 912 441 370 287 774 580 381
cat_boundaries=0 12 17 23
cat_threshold=75497729 1342212226 2155893760 402722944 1073741952 9175056 0 0 2048 256 0 8192 8912910 19922952 268697600 2148139272 16781312 135324288 67642515 9216 0 1107296260 2
shrinkage=0.0750598


Tree=20
num_leaves=9
num_cat=3
split_feature=1 4 1 19 14 14 51 13
split_gain=11.4196 3.91387 3.50149 3.18088 2.91929 5.05831 1.59208 0.813747
threshold=0 1 2 7.7500000000000009 144.25000000000003 6.2500000000000009 8.5000000000000018 9.2500000000000018
decision_type=5 5 5 2 2 2 2 2
left_child=-1 3 7 -2 5 6 -4 -3
right_child=1 2 4 -5 -6 -7 -8 -9
leaf_value=-0.038913188711204451 0.0085483156966717766 0.036036170407108131 -0.012395894722892938 0.067636409581621315 0.019722280952512519 -0.047771485104142489 0.018024891595704765 0.0071451137867660072
leaf_count=789 134 176 461 95 155 255 248 87
internal_value=0 0.093445 -0.00793791 0.397356 -0.121403 -0.23471 -0.0215867 0.249823
internal_count=2400 1611 1382 229 1119 964 709 263
cat_boundaries=0 7 10 16
cat_threshold=135324545 80243859 9248 8193 1107304452 2 4 17148928 2415919200 64 10 0 268730368 2147614722 16797712 128
shrinkage=0.0750598


Tree=21
num_leaves=10
num_cat=2
split_feature=2 1 27 13 50 51 6 0 21
split_gain=9.72967 8.28702 2.7623 3.01927 2.70064 3.89387 2.63657 1.33805 3.31953
threshold=0 1 190.00000000000003 109.75000000000001 28.750000000000004 32.500000000000007 46.05080000000001 12.250000000000002 141.25000000000003
decision_type=5 5 2 2 2 2 2 2 2
left_child=-1 7 3 4 5 6 -3 8 -2
right_child=1 2 -4 -5 -6 -7 -8 -9 -10
leaf_value=-0.042038905476654648 0.042360736253595703 -0.02468377313442937 0.018941670574908292 -0.051353461532199163 -0.04167201713071593 0.037748859503842741 0.016602953812767027 0.056243068387041864 -0.0035792486543895106
leaf_count=447 224 586 163 167 244 181 178 102 108
internal_value=0 0.0633546 -0.126207 -0.223392 -0.123924 -0.0168832 -0.164224 0.362253 0.317485
internal_count=2400 1953 1519 1356 1189 945 764 434 332
cat_boundaries=0 9 14
cat_threshold=75498753 1342212480 8410112 134316160 1073741952 8912912 0 0 2048 25690126 18874376 268730368 2147614730 16781312
shrinkage=0.0750598


Tree=22
num_leaves=9
num_cat=3
split_feature=2 1 52 4 27 13 13 0
split_gain=11.4129 8.21515 3.03014 3.17169 3.02325 2.78224 2.7238 2.42464
threshold=0 1 10020.250000000002 2 280.75000000000006 151.00000000000003 27.250000000000004 3.2500000000000004
decision_type=5 5 2 5 2 2 2 2
left_child=-1 -2 3 -3 5 6 7 -5
right_child=1 2 -4 4 -6 -7 -8 -9
leaf_value=-0.044808879069605116 -0.030150132730857825 -0.014384549211046914 -0.017725987725304898 0.027132115109938376 0.061093641681755198 -0.014407701194021698 0.056890589515132366 -0.007475701765988608
leaf_count=467 543 120 219 530 84 105 114 218
internal_value=0 0.0748536 0.188397 0.266816 0.30957 0.261174 0.339147 0.2278
internal_count=2400 1933 1390 1171 1051 967 862 748
cat_boundaries=0 12 18 21
cat_threshold=75498753 268470402 2155893760 402718848 1073741952 9306128 0 0 2048 256 0 8192 135324288 101196947 9216 0 1107312644 2 21120 2147491842 512
shrinkage=0.0750598


Tree=23
num_leaves=10
num_cat=4
split_feature=1 1 9 49 52 40 20 24 1
split_gain=7.9945 3.63152 4.21382 3.0653 5.71954 2.42333 1.84619 2.05258 1.49096
threshold=0 1 2 10891.000000000002 1441.0000000000002 64.000000000000014 7134.2500000000009 6.2500000000000009 3
decision_type=5 5 5 2 2 2 2 2 5
left_child=-1 6 -3 4 5 8 7 -2 -4
right_child=1 2 3 -5 -6 -7 -8 -9 -10
leaf_value=-0.036972983932963215 0.027681807223485046 0.019508184614873022 -0.020234673108728334 -0.046058033566146774 0.040230218252945579 -0.049570004246240529 0.050374253964770285 -0.011002370613115058 0.0061793199387612354
leaf_count=675 212 234 206 273 149 157 63 99 332
internal_value=0 0.0570237 -0.0658831 -0.186621 -0.0932389 -0.26075 0.26592 0.185363 -0.109179
internal_count=2400 1725 1351 1117 844 695 374 311 538
cat_boundaries=0 7 12 13 18
cat_threshold=135308032 76049554 9248 8193 33562628 2 4 14 18874376 268435456 131072 16781312 541314 0 4395520 0 514 1073741840
shrinkage=0.0750598


Tree=24
num_leaves=9
num_cat=3
split_feature=1 7 1 14 14 40 47 47
split_gain=8.87193 3.73719 4.87681 2.64495 4.07928 1.47246 1.29116 1.16405
threshold=0 1 2 6.2500000000000009 67.750000000000014 1522.0000000000002 90.250000000000014 13.750000000000002
decision_type=5 5 5 2 2 2 2 2
left_child=-1 6 -3 5 -5 7 -2 -4
right_child=1 2 3 4 -6 -7 -8 -9
leaf_value=-0.038013452746182827 0.049367547418503362 -0.02884127185828941 0.015110736181793377 -0.03184669838727068 0.017269740180336259 -0.0019050411822045307 0.011630467584392319 0.046570731149109354
leaf_count=729 125 302 315 227 204 231 106 161
internal_value=0 0.0664826 -0.031626 0.0852069 -0.107539 0.252422 0.34571 0.364331
internal_count=2400 1671 1440 1138 431 707 231 476
cat_boundaries=0 7 11 15
cat_threshold=135324544 76049555 9248 8193 1107304452 2 4 50348288 268436512 2147488258 16 0 37949964 269222146 2147483648
shrinkage=0.0750598


Tree=25
num_leaves=10
num_cat=4
split_feature=2 4 33 20 9 16 32 0 21
split_gain=8.60063 4.43092 4.49493 3.29542 2.95628 3.02226 3.915 2.59271 2.22696
threshold=0 1 2 25468.000000000004 3 176.50000000000003 50.278600000000004 3.2500000000000004 2047.0000000000002
decision_type=5 5 5 2 5 2 2 2 2
left_child=-1 8 -3 4 -4 6 7 -6 -2
right_child=1 2 3 -5 5 -7 -8 -9 -10
leaf_value=-0.043589033023756801 -0.043755348611417492 -0.02278449403029743 -0.016265595535385893 0.050892897292291142 0.012867034257082546 0.054566439397614755 0.050587212790554392 -0.024870989710546024 -0.0030402976280583058
leaf_count=367 255 247 167 116 524 114 145 249 216
internal_value=0 0.047004 0.147295 0.225423 0.161088 0.225178 0.156499 0.0240775 -0.238846
internal_count=2400 2033 1562 1315 1199 1032 918 773 471
cat_boundaries=0 12 15 17 18
cat_threshold=75497729 1073744256 21504 402718848 1073741952 9043984 2097152 0 2048 0 0 8192 68310732 8226 512 22233696 32 16782114
shrinkage=0.0750598


Tree=26
num_leaves=10
num_cat=4
split_feature=2 1 4 50 27 9 16 51 6
split_gain=8.03605 6.94671 2.63277 3.96074 2.89059 1.96549 2.25388 2.9297 0.976176
threshold=0 1 2 412.00000000000006 280.75000000000006 3 176.50000000000003 8.5000000000000018 38.418000000000006
decision_type=5 5 5 2 2 5 2 2 2
left_child=-1 8 -3 4 5 -4 7 -7 -2
right_child=1 2 3 -5 -6 6 -8 -9 -10
leaf_value=-0.042825274301286784 -0.018229296584865499 -0.01507732293274547 -0.0094601335228406292 -0.019292136493775671 0.059825936490243661 0.0047506661494719988 0.049850570557359294 0.047217652918439323 -0.051697340888333984
leaf_count=369 393 165 132 233 68 504 113 133 290
internal_value=0 0.0413378 0.156372 0.213599 0.315775 0.23597 0.280287 0.207835 -0.347717
internal_count=2400 2031 1348 1183 950 882 750 637 683
cat_boundaries=0 12 18 21 22
cat_threshold=75497729 1073776768 2147504128 134283392 1073741952 9175056 10485760 0 2048 0 0 8192 135389825 105473171 9216 8192 1108361220 2 67129544 8194 512 16780066
shrinkage=0.0750598


Tree=27
num_leaves=10
num_cat=3
split_feature=2 1 4 50 25 22 21 47 6
split_gain=7.96182 6.19725 3.88047 2.83211 2.53282 2.90881 6.10897 1.31582 0.303851
threshold=0 1 2 412.00000000000006 104.50000000000001 5537.5000000000009 16250.500000000002 13.750000000000002 39.629200000000004
decision_type=5 5 5 2 2 2 2 2 2
left_child=-1 8 -3 4 7 -6 -7 -4 -2
right_child=1 2 3 -5 5 6 -8 -9 -10
leaf_value=-0.042704052618153292 -0.022888624157554702 -0.015673181685980531 -0.00017352210198067308 -0.013855280622596401 0.061177367631552612 -0.02476063492389843 0.048656946299956198 0.027397636567346919 -0.047707624180125571
leaf_count=382 387 257 388 213 142 87 92 191 261
internal_value=0 0.0405176 0.145429 0.229701 0.322483 0.499762 0.243798 0.135076 -0.340277
internal_count=2400 2018 1370 1113 900 321 179 579 648
cat_boundaries=0 12 19 22
cat_threshold=75497729 1342179456 2155893760 268501120 1073741952 9043984 8388608 0 2048 0 0 8192 2282807936 101278867 9216 0 1108361220 130 4 67261128 8226 512
shrinkage=0.0750598


Tree=28
num_leaves=11
num_cat=3
split_feature=1 0 21 1 6 14 5 32 30 20
split_gain=6.44 2.53274 6.26703 4.91594 2.62223 3.27455 2.45711 1.30034 0.479804 0.028836
threshold=0 7.7500000000000009 35.500000000000007 1 39.940050000000006 117.25000000000001 145.02550000000002 33.969400000000007 2 55.750000000000007
decision_type=5 2 2 5 2 2 2 2 5 2
left_child=9 3 -3 7 6 -6 8 -2 -5 -1
right_child=1 2 -4 4 5 -7 -8 -9 -10 -11
leaf_value=-0.050667981890251582 0.042372139100648215 -0.010094851380339524 0.063476574759604915 -0.016214100111731914 -0.048035386886308484 0.0037923795629555817 0.028456718011705365 0.010216922402941028 0.003269216670323222 -0.029084851719418995
leaf_count=472 120 215 101 305 258 129 118 192 210 280
internal_value=0 0.0525049 0.338188 -0.0179027 -0.166131 -0.408546 -0.00727303 0.261854 -0.169918 -0.4233
internal_count=2400 1648 316 1332 1020 387 633 312 515 752
cat_boundaries=0 7 12 13
cat_threshold=135316353 76180627 9248 8193 1107304452 2 4 8912906 18874380 268730624 2148007936 16781312 33130
shrinkage=0.0750598


Tree=29
num_leaves=10
num_cat=3
split_feature=2 1 21 22 1 25 14 38 21
split_gain=7.85943 5.66383 2.49788 4.81427 2.8081 2.93526 2.95345 1.82172 0.942291
threshold=0 1 8437.0000000000018 5537.5000000000009 2 309.25000000000006 4.7500000000000009 69.250000000000014 33568.000000000007
decision_type=5 5 2 2 5 2 2 2 2
left_child=-1 -2 3 4 -3 6 7 -6 -4
right_child=1 2 8 -5 5 -7 -8 -9 -10
leaf_value=-0.042426393442825013 -0.026186620299154612 -0.015838393871502075 0.046682084073954452 -0.037112149475647074 0.0095147597741234279 0.050935898027012434 -0.016961439059516897 0.04508630087822859 0.01509089768920566
leaf_count=388 578 184 85 135 411 120 216 165 118
internal_value=0 0.0423331 0.135855 0.0629745 0.159814 0.223705 0.143787 0.288507 0.416819
internal_count=2400 2012 1434 1231 1096 912 792 576 203
cat_boundaries=0 12 19 23
cat_threshold=75497728 1342179456 2155892736 402718848 1073741952 9306128 2097152 0 2048 256 0 8192 135316097 369714323 9216 8192 1107312644 2 4 8192 23199744 0 2147483648
shrinkage=0.0750598


Tree=30
num_leaves=10
num_cat=3
split_feature=1 4 1 50 38 31 14 22 16
split_gain=5.89418 2.53264 5.18484 3.00648 3.28047 2.18021 1.75147 3.31032 1.02026
threshold=0 1 2 412.00000000000006 69.250000000000014 172.86250000000004 163.00000000000003 17.500000000000004 643.75000000000011
decision_type=5 5 5 2 2 2 2 2 2
left_child=-1 8 -3 4 5 6 7 -4 -2
right_child=1 2 3 -5 -6 -7 -8 -9 -10
leaf_value=-0.035137940168344602 0.012350617879427837 -0.029640527892675309 0.018287765398209012 -0.027415774888614613 0.041590217197548685 -0.0254477480696816 0.03661148850186683 -0.026099180257881337 0.045812573140650473
leaf_count=633 137 311 383 244 174 203 92 143 80
internal_value=0 0.0345358 -0.0397644 0.0790413 0.163463 0.0486248 0.140056 0.0354409 0.271404
internal_count=2400 1767 1550 1239 995 821 618 526 217
cat_boundaries=0 7 9 14
cat_threshold=135316224 76049555 9248 8193 1107304452 2 4 554018816 2151678016 8912896 6492676 786434 256 4096
shrinkage=0.0750598


Tree=31
num_leaves=11
num_cat=3
split_feature=2 1 21 22 0 7 32 32 23 38
split_gain=8.03591 4.28378 3.9058 2.69485 3.18544 2.19044 3.14266 1.45043 2.35146 0.804934
threshold=0 1 9017.5000000000018 97.750000000000014 1.7500000000000002 2 47.979700000000008 46.820100000000004 9087.2500000000018 1.7500000000000002
decision_type=5 5 2 2 2 5 2 2 2 2
left_child=-1 2 3 4 -2 6 9 8 -7 -3
right_child=1 5 -4 -5 -6 7 -8 -9 -10 -11
leaf_value=-0.042735923021530613 0.038107980773278122 0.0023885912451535422 0.056388580589566147 -0.017403551175238702 -0.0085734193000212081 -0.037865726002483918 0.037974384545060469 -0.046575031428214952 0.0062324144607589487 -0.023551701425913146
leaf_count=413 220 339 69 128 185 252 194 194 180 226
internal_value=0 0.0425412 0.224379 0.120695 0.27474 -0.114862 0.0615364 -0.262319 -0.178304 -0.11396
internal_count=2400 1987 602 533 405 1385 759 626 432 565
cat_boundaries=0 9 14 17
cat_threshold=75497729 1073777026 8410112 402718848 1073741952 9306128 10485760 0 2048 8921102 19005448 268730624 2147614986 16781312 50348289 1024 2101250
shrinkage=0.0750598


Tree=32
num_leaves=10
num_cat=3
split_feature=2 1 7 52 21 13 25 21 47
split_gain=7.96458 3.93874 2.85229 2.03003 2.45617 2.71573 1.94334 1.485 0.94408
threshold=0 1 2 10020.250000000002 16250.500000000002 151.00000000000003 79.750000000000014 271.75000000000006 13.750000000000002
decision_type=5 5 5 2 2 2 2 2 2
left_child=-1 -2 -3 4 5 6 8 -8 -4
right_child=1 2 3 -5 -6 -7 7 -9 -10
leaf_value=-0.042564313945359096 -0.021972190694210459 -0.018140928931941722 -0.0013921026790491993 -0.013826364094473397 0.043773445762057876 -0.022507810835982998 0.055012800219984948 0.014165693445345455 0.021074518519102792
leaf_count=428 536 146 393 194 109 108 95 139 252
internal_value=0 0.042746 0.118829 0.175956 0.243896 0.158522 0.234298 0.465629 0.0994245
internal_count=2400 1972 1436 1290 1096 987 879 234 645
cat_boundaries=0 12 18 22
cat_threshold=75497729 1342212994 2147505152 65664 1073741952 9306128 10485760 0 2048 0 0 8192 2282865280 101196947 9216 0 1108361220 130 2150760512 1048576 0 32
shrinkage=0.0750598


Tree=33
num_leaves=10
num_cat=4
split_feature=1 7 1 11 0 0 19 35 47
split_gain=5.23321 2.47246 4.45126 2.56604 2.5599 2.10476 2.92442 2.36823 1.28246
threshold=0 1 2 3 13.750000000000002 3.2500000000000004 25.750000000000004 28.750000000000004 90.250000000000014
decision_type=5 5 5 5 2 2 2 2 2
left_child=-1 8 -3 -4 5 6 7 -5 -2
right_child=1 2 3 4 -6 -7 -8 -9 -10
leaf_value=-0.034738206550248313 0.038354106047681281 -0.029733713501497151 -0.019544582216878024 0.032301279839520546 0.044164038163525342 -0.020959472220884217 -0.018690592498883194 -0.0061422049075460609 0.0031919528255190776
leaf_count=595 123 333 122 456 129 184 133 216 109
internal_value=0 0.0254753 -0.0494216 0.057505 0.12945 0.0683977 0.155545 0.282014 0.250447
internal_count=2400 1805 1573 1240 1118 989 805 672 232
cat_boundaries=0 7 11 14 15
cat_threshold=135315840 76049555 9248 8193 1107304452 2 4 50348288 268436512 2147487746 16 512 41095684 786690 18
shrinkage=0.0750598


Tree=34
num_leaves=9
num_cat=4
split_feature=2 1 4 14 1 27 18 39
split_gain=7.39023 3.74729 2.75375 2.63317 3.57602 1.88697 1.22773 1.16122
threshold=0 1 2 64.750000000000014 3 15.250000000000002 1.7500000000000002 1.7500000000000002
decision_type=5 5 5 2 5 2 2 2
left_child=-1 -2 6 4 -4 7 -3 -6
right_child=1 2 3 -5 5 -7 -8 -9
leaf_value=-0.041825486909841079 -0.022391876344611931 0.00010383754688359961 0.026813087222523142 0.039809991022596324 0.012734261861268392 -0.032006810126370411 -0.033978890741472291 -0.012178120798013663
leaf_count=425 543 127 213 161 356 101 160 314
internal_value=0 0.0355214 0.10819 0.184785 0.112598 -0.0601668 -0.160129 0.0297532
internal_count=2400 1975 1432 1145 984 771 287 670
cat_boundaries=0 12 19 22 27
cat_threshold=75497729 1342179458 2155893760 402718848 1073741952 9306128 2097152 0 2048 256 0 8192 2282799744 369648787 9216 0 1107312644 130 4 604132040 2147491842 512 524299 2097160 268468226 131328 1048576
shrinkage=0.0750598


Tree=35
num_leaves=9
num_cat=3
split_feature=2 1 15 15 1 52 5 51
split_gain=7.30265 3.30597 1.74055 2.75127 2.22881 2.1494 2.93492 5.13219
threshold=0 1 122.50000000000001 12.250000000000002 2 10020.250000000002 171.64800000000005 127.00000000000001
decision_type=5 5 2 2 5 2 2 2
left_child=-1 -2 3 4 -3 6 7 -6
right_child=1 2 -4 -5 5 -7 -8 -9
leaf_value=-0.041609641366477261 -0.024885311378241296 -0.01363022541541758 -0.01570010532348437 0.038245909593666041 -0.0071180430963392162 -0.017856648772365046 0.04527622378041303 0.048088588520386943
leaf_count=438 399 231 143 141 509 180 194 165
internal_value=0 0.0358262 0.0936914 0.147031 0.0729847 0.14569 0.236967 0.102141
internal_count=2400 1962 1563 1420 1279 1048 868 674
cat_boundaries=0 12 18 24
cat_threshold=75497729 1342212992 2155893760 402718848 1073741952 9043984 10485760 0 2048 0 0 8192 135315584 101205139 9216 0 1108344836 2 514 2232832 0 0 0 128
shrinkage=0.0750598


Tree=36
num_leaves=10
num_cat=3
split_feature=1 22 4 22 38 19 20 1 40
split_gain=4.39899 2.39283 2.65777 3.92304 2.19331 1.50065 1.40219 1.30945 0.334052
threshold=0 55739.500000000007 1 69.250000000000014 69.250000000000014 7.7500000000000009 15843.250000000002 2 1.7500000000000002
decision_type=5 2 5 2 2 2 2 5 2
left_child=-1 2 5 4 7 -2 -5 -4 -9
right_child=1 -3 3 6 -6 -7 -8 8 -10
leaf_value=-0.029780652996945024 0.0057730199396239792 0.033848745057496403 0.0095762637628303768 -0.046342803500110233 0.026403056750591382 0.043536049563199619 -0.011767127530205016 -0.0090380576766799035 -0.026586190125048377
leaf_count=724 163 76 174 203 233 71 150 396 210
internal_value=0 0.0247563 -0.0185139 -0.0997144 0.0371281 0.219924 -0.405338 -0.0748028 -0.165791
internal_count=2400 1676 1600 1366 1013 234 353 780 606
cat_boundaries=0 7 9 10
cat_threshold=2282807680 109603987 9248 8449 1107304452 2 4 554147840 2415919200 16777223
shrinkage=0.0750598


Tree=37
num_leaves=11
num_cat=2
split_feature=2 7 52 52 6 20 19 40 20 0
split_gain=6.81631 2.52384 1.84091 1.86676 1.95993 2.27857 2.02073 0.819439 0.683204 0.218795
threshold=0 1 10020.250000000002 27.250000000000004 35.253900000000009 22168.000000000004 12.250000000000002 7.7500000000000009 800.50000000000011 3.2500000000000004
decision_type=5 5 2 2 2 2 2 2 2 2
left_child=-1 -2 3 4 7 6 8 9 -6 -3
right_child=1 2 -4 -5 5 -7 -8 -9 -10 -11
leaf_value=-0.040716216593534429 -0.01809758540130545 0.0056328573581047566 -0.018140113140943735 0.033379009041730211 0.0041391131153198975 0.044152908834535314 -0.018618262269451204 -0.021766791165389071 0.032011414395449481 -0.0068425102144717056
leaf_count=435 290 335 262 249 149 90 120 185 105 180
internal_value=0 0.0333876 0.0929816 0.147294 0.0824267 0.231622 0.0780229 -0.0701102 0.260004 0.0148427
internal_count=2400 1965 1675 1413 1164 464 374 700 254 515
cat_boundaries=0 12 16
cat_threshold=75497729 1073777026 2147504128 402718848 1073741952 9306128 10485760 0 2048 272 0 8192 2419195968 1054724 8192 16
shrinkage=0.0750598


Tree=38
num_leaves=11
num_cat=3
split_feature=7 33 0 25 31 0 9 6 32 31
split_gain=3.1488 3.64889 2.79459 2.1267 1.97442 2.55044 1.13404 1.86636 0.655547 0.130368
threshold=0 1 15.250000000000002 2009.5000000000002 172.80100000000002 3.2500000000000004 2 43.734500000000004 35.463500000000003 175.89800000000002
decision_type=5 5 2 2 2 2 5 2 2 2
left_child=3 9 4 -1 5 6 -3 8 -8 -2
right_child=1 2 -4 -5 -6 -7 7 -9 -10 -11
leaf_value=0.039030898193188807 0.027832744293617963 0.0087331671389669057 0.017444254139489034 -0.00057200249952692173 -0.047908750947629065 -0.042729763182997198 -0.012504181371437955 -0.040938937429837528 0.0094997519998551785 0.011644865484895848
leaf_count=175 138 190 182 149 282 340 469 165 205 105
internal_value=0 -0.132595 -0.216376 0.192856 -0.300198 -0.221232 -0.112046 -0.167829 -0.0747064 0.192429
internal_count=2400 2076 1833 324 1651 1369 1029 839 674 243
cat_boundaries=0 3 6 7
cat_threshold=50381056 268436512 2149585034 570992645 69206016 2050 16410
shrinkage=0.0750598


Tree=39
num_leaves=10
num_cat=4
split_feature=2 1 4 15 10 1 38 35 21
split_gain=4.319 3.48793 2.25713 2.03063 1.87747 2.56506 1.40729 2.57044 1.24091
threshold=0 1 2 85.750000000000014 28.750000000000004 3 69.250000000000014 25.750000000000004 1903.7500000000002
decision_type=5 5 5 2 2 5 2 2 2
left_child=-1 -2 8 4 5 -4 7 -7 -3
right_child=1 2 3 -5 -6 6 -8 -9 -10
leaf_value=-0.035326361955908686 -0.026710094774391402 -0.033094911933082213 -0.015446534736615822 -0.016865908373847674 0.040660264209514102 0.019995948880006262 0.035832926241704872 -0.018478325230890609 0.0018373322005405424
leaf_count=350 388 199 137 100 137 592 201 174 122
internal_value=0 0.0149882 0.0756799 0.140076 0.205612 0.138116 0.201516 0.136906 -0.166607
internal_count=2400 2050 1662 1341 1241 1104 967 766 321
cat_boundaries=0 12 19 22 25
cat_threshold=75497728 268438402 2147504128 402718720 1073741952 9175056 8388608 0 0 0 0 8192 1097856 101205139 9248 8192 1107296260 130 4 67261644 268443650 512 4 196608 256
shrinkage=0.0750598


Tree=40
num_leaves=11
num_cat=4
split_feature=2 1 21 1 5 4 25 22 51 6
split_gain=4.35087 3.12484 1.68995 3.8823 2.92504 2.20193 1.06384 2.36505 0.826752 0.111485
threshold=0 1 16250.500000000002 2 171.30750000000003 3 28.750000000000004 415.75000000000006 139.00000000000003 40.077650000000006
decision_type=5 5 2 5 2 5 2 2 2 2
left_child=-1 -2 3 9 -4 -5 8 -8 -7 -3
right_child=1 2 4 5 -6 6 7 -9 -10 -11
leaf_value=-0.035504272883808113 -0.020503249872583673 -0.036513679673751298 -0.0033127563962952167 -0.013383517553454176 0.050088871134808526 0.0018699775228840562 0.055021895698455642 0.0070262565611512026 0.025414262105428135 -0.017634675306904692
leaf_count=364 580 153 79 151 83 382 142 159 203 104
internal_value=0 0.0135772 0.0841808 0.0291463 0.335655 0.140287 0.216674 0.416413 0.134832 -0.271865
internal_count=2400 2036 1456 1294 162 1037 886 301 585 257
cat_boundaries=0 12 19 25 27
cat_threshold=75497729 1342179456 8409088 268501120 1073741824 9043984 2097152 0 2048 272 0 8192 135381633 369706131 9216 8192 1108361220 130 4 2147483648 23203840 786434 2147614976 4096 8388608 67511428 34
shrinkage=0.0750598


Tree=41
num_leaves=11
num_cat=2
split_feature=2 1 25 25 24 21 25 24 43 13
split_gain=4.38983 2.77599 2.59055 2.3117 2.19183 4.05862 1.46233 2.89502 2.9232 1.06744
threshold=0 1 28.750000000000004 1471.7500000000002 5119.0000000000009 12512.500000000002 304.75000000000006 3.2500000000000004 1102.0000000000002 58.750000000000007
decision_type=5 5 2 2 2 2 2 2 2 2
left_child=-1 2 -2 6 -4 -6 7 8 -3 -5
right_child=1 3 4 9 5 -7 -8 -9 -10 -11
leaf_value=-0.035633613285708556 -0.0049758472355140399 -0.013168156297659125 0.054756658022282731 -0.045759511306803523 -0.016534990046971922 0.041332191436631444 0.020857457804286723 -0.038193719526022449 0.032567301943195612 -0.010254229245299959
leaf_count=370 295 498 89 159 103 66 204 281 225 110
internal_value=0 0.0134164 0.162249 -0.108844 0.359635 0.174809 -0.00817156 -0.100158 0.0640555 -0.394712
internal_count=2400 2030 553 1477 258 169 1208 1004 723 269
cat_boundaries=0 10 15
cat_threshold=75497729 35584 2155893760 134283264 1073741952 9043984 10485760 0 0 272 8912902 19009544 269222146 2147614984 16781312
shrinkage=0.0750598


Tree=42
num_leaves=12
num_cat=3
split_feature=2 1 25 21 50 38 9 37 14 16 0
split_gain=4.19655 2.59147 2.04699 1.7887 1.72329 1.79108 1.57087 1.39532 1.06369 0.845276 0.386758
threshold=0 1 1525.0000000000002 16250.500000000002 5.5000000000000009 69.250000000000014 2 21.250000000000004 100.75000000000001 16.750000000000004 1.7500000000000002
decision_type=5 5 2 2 2 2 5 2 2 2 2
left_child=-1 3 4 6 5 7 10 9 -4 -3 -2
right_child=1 2 8 -5 -6 -7 -8 -9 -10 -11 -12
leaf_value=-0.035055294567669787 0.027525454844711205 -0.0042406824795120325 -0.042902534940667911 0.040579472421637099 -0.027092706892235287 0.030391732618014308 -0.0091294234910983679 -0.024196232709593576 -0.0082477777080966451 0.022470856936590448 0.0075534158267255222
leaf_count=376 160 384 150 53 264 131 158 285 124 187 128
internal_value=0 0.0127871 -0.100436 0.163108 -0.0085922 0.0750742 0.0941601 -0.0379258 -0.367115 0.0910246 0.201058
internal_count=2400 2024 1525 499 1251 987 446 856 274 571 288
cat_boundaries=0 12 17 18
cat_threshold=75497473 1342179712 2147505152 402718848 1073741824 9306128 8388608 0 2048 0 0 8192 524294 19009544 268697856 2147614730 16781312 16393
shrinkage=0.0750598


Tree=43
num_leaves=11
num_cat=3
split_feature=2 33 18 27 25 12 18 22 30 0
split_gain=4.27057 2.36886 2.6177 2.59204 2.24039 1.87906 1.84699 1.58651 1.42412 0.911959
threshold=0 1 188.50000000000003 13.750000000000002 28.750000000000004 43.000000000000007 4.7500000000000009 415.75000000000006 2 3.2500000000000004
decision_type=5 5 2 2 2 2 2 2 5 2
left_child=-1 2 3 4 9 -5 8 -6 -3 -2
right_child=1 6 -4 5 7 -7 -8 -9 -10 -11
leaf_value=-0.035230391114877226 0.0080700658474628772 0.012591184702949126 0.042204029169110292 -0.033997485261898358 0.048647356677505887 0.0074053832815477831 -0.037225417438697048 0.0078464421030525339 -0.013135181935524399 -0.016544425263987812
leaf_count=376 408 217 113 122 123 95 232 129 374 211
internal_value=0 0.0140468 0.101592 0.0475155 0.160407 -0.227214 -0.16297 0.400207 -0.0445411 0.00106625
internal_count=2400 2024 1201 1088 871 217 823 252 591 619
cat_boundaries=0 12 15 16
cat_threshold=75497728 1073777282 8410112 69632 1073741952 9306128 2097152 0 2048 256 0 8192 908601346 69214240 2048 65829
shrinkage=0.0750598


Tree=44
num_leaves=10
num_cat=3
split_feature=1 22 16 2 18 25 5 31 29
split_gain=18.9039 18.9439 4.90748 5.00964 3.4411 2.7497 2.26562 1.91118 0.139725
threshold=0 1.7500000000000002 4066.0000000000005 1 36.250000000000007 1525.0000000000002 156.83150000000003 171.75350000000003 2
decision_type=5 2 2 5 2 2 2 2 1
left_child=1 -1 3 -2 6 -4 7 8 -5
right_child=2 -3 5 4 -6 -7 -8 -9 -10
leaf_value=0.1194644516052195 0.016468424702695411 -0.0060963433733595748 0.030641576597850214 -0.030958187469289127 0.0019412533978868266 -0.015617597270928365 -0.063501000791766252 -0.0027120009523974643 -0.051703749846694305
leaf_count=293 198 193 183 447 150 128 367 202 239
internal_value=0 0.570345 -0.248824 -0.384147 -0.439403 0.105892 -0.580448 -0.417532 -0.532432
internal_count=2400 486 1914 1603 1405 311 1255 888 686
cat_boundaries=0 5 20 21
cat_threshold=1057280 8200 403177504 17171200 1091567620 2098176 2048 16384 32768 0 0 8192 512 553648128 0 0 0 0 0 4 2
shrinkage=0.0750598


Tree=45
num_leaves=8
num_cat=2
split_feature=1 22 13 2 16 32 44
split_gain=15.8622 13.8918 5.82384 3.85748 2.67063 2.38833 0.113542
threshold=0 1.7500000000000002 256.75000000000006 1 4342.0000000000009 59.461200000000005 4.7500000000000009
decision_type=5 2 2 5 2 2 2
left_child=1 -1 3 -2 5 6 -5
right_child=2 -3 -4 4 -6 -7 -8
leaf_value=0.08983864052852214 0.014255850398232359 -0.0071241065487604952 0.025432179371278174 -0.037345273635429575 -0.00039866030705680957 -0.0045611525893200743 -0.053829862751062059
leaf_count=356 187 226 138 666 148 168 511
internal_value=0 0.46403 -0.248473 -0.358449 -0.401181 -0.520902 -0.595001
internal_count=2400 582 1818 1680 1493 1345 1177
cat_boundaries=0 5 20
cat_threshold=1057281 4202508 403177504 17171202 1091567620 2098176 2048 16384 32768 0 0 8192 0 553648128 0 0 536870912 0 0 4
shrinkage=0.0750598


Tree=46
num_leaves=9
num_cat=3
split_feature=1 22 13 30 4 21 5 35
split_gain=14.0463 11.6891 5.0304 4.29652 1.72748 1.69189 1.35559 1.28411
threshold=0 1.7500000000000002 256.75000000000006 1 2 116.50000000000001 171.64800000000005 27.250000000000004
decision_type=5 2 2 5 5 2 2 2
left_child=1 -1 3 -2 -5 7 -7 -6
right_child=2 -3 -4 4 5 6 -8 -9
leaf_value=0.090210015234555796 0.016031399737942119 -0.0052606171160945719 0.022951750861484592 0.0065333562333503622 -0.019669397341153659 -0.071058617061649329 -0.027849546938389542 -0.048656452739732903
leaf_count=293 179 193 147 181 749 196 166 296
internal_value=0 0.472183 -0.221488 -0.322635 -0.372306 -0.436142 -0.72188 -0.369461
internal_count=2400 486 1914 1767 1588 1407 362 1045
cat_boundaries=0 5 7 10
cat_threshold=1057280 8200 403177504 17171200 1091567620 84033 2049 307408 0 512
shrinkage=0.0750598


Tree=47
num_leaves=10
num_cat=3
split_feature=1 20 13 1 9 5 0 49 5
split_gain=12.3502 9.33502 3.62411 1.96632 2.95009 3.09919 1.65885 1.41012 0.486667
threshold=0 4.7500000000000009 256.75000000000006 1 2 156.94000000000003 6.2500000000000009 6.2500000000000009 127.85450000000002
decision_type=5 2 2 5 5 2 2 2 2
left_child=1 -1 3 6 -5 7 8 -6 -2
right_child=2 -3 -4 4 5 -7 -8 -9 -10
leaf_value=0.086859800679408336 -0.033255874866911679 0.00034447553952701607 0.018175683217041275 0.017076611946127165 0.0082487872534238102 -0.044369546644060939 -0.0132376276302596 -0.02424776150016076 -0.063257194566605557
leaf_count=270 259 206 144 214 391 287 198 250 181
internal_value=0 0.447939 -0.206003 -0.293202 -0.0915827 -0.206716 -0.439872 -0.0497126 -0.675253
internal_count=2400 476 1924 1780 1142 928 638 641 440
cat_boundaries=0 5 11 12
cat_threshold=1057280 8192 403177504 17171202 1091567620 2290614316 19071490 263170 2148007945 8208 8388736 548912
shrinkage=0.0750598


Tree=48
num_leaves=10
num_cat=3
split_feature=1 4 2 25 25 12 32 31 6
split_gain=11.1499 4.8653 3.86711 3.23136 5.61718 3.71106 2.707 0.983034 0.313698
threshold=0 1 2 274.00000000000006 869.50000000000011 29.500000000000004 44.80530000000001 175.64000000000001 34.913550000000008
decision_type=5 5 5 2 2 2 2 2 2
left_child=-1 2 -2 -3 -5 -6 8 -8 -4
right_child=1 3 6 4 5 -7 7 -9 -10
leaf_value=0.039161575859930096 0.013647270277685881 -0.026951079286547421 -0.038870916493460403 0.061668935044199839 0.020370617550521233 -0.03338383312816099 -0.030398762785953291 -0 -0.06441438503021002
leaf_count=350 197 223 593 134 185 100 238 200 180
internal_value=0 -0.169699 -0.323116 0.0771235 0.23343 -0.0144641 -0.423645 -0.195859 -0.652983
internal_count=2400 2050 1408 642 419 285 1211 438 773
cat_boundaries=0 5 7 22
cat_threshold=8704 8192 134742048 16777984 1091567620 604979789 16785472 2098176 1050624 16448 0 0 0 0 512 553648128 0 0 0 0 0 4
shrinkage=0.0750598


Tree=49
num_leaves=10
num_cat=4
split_feature=1 4 6 31 1 51 32 25 29
split_gain=9.9255 6.64418 6.06983 5.28281 2.00247 1.73685 1.67473 1.06233 0.406186
threshold=0 1 35.802900000000008 130.34550000000004 2 439.00000000000006 35.463500000000003 531.25000000000011 3
decision_type=5 5 2 2 5 2 2 2 1
left_child=7 -2 4 -4 -3 6 -6 8 -1
right_child=1 2 3 -5 5 -7 -8 -9 -10
leaf_value=-0.011697930964551214 -0.022533484093727747 -0.016526550933198846 0.073282375752943801 0.011051808523116623 0.0072486617360735823 -0.0098843476769032122 0.045519025293298113 -0.055027521458376048 -0.034530152725144037
leaf_count=190 333 164 262 212 369 248 178 182 262
internal_value=0 0.131405 0.258975 0.620054 0.0560129 0.152193 0.324786 -0.412401 -0.338841
internal_count=2400 1766 1433 474 959 795 547 634 452
cat_boundaries=0 6 8 13 14
cat_threshold=2290614570 27854978 263170 2148007945 12288 8388736 604718724 16785408 4 4612 256 0 20 2
shrinkage=0.0750598


Tree=50
num_leaves=10
num_cat=4
split_feature=1 9 33 25 6 1 16 39 18
split_gain=9.70523 4.43586 4.49676 3.8953 1.95333 3.00904 1.32904 0.29795 0.0823637
threshold=0 1 2 568.00000000000011 34.857500000000009 3 4342.0000000000009 1.7500000000000002 1.7500000000000002
decision_type=5 5 5 2 2 5 2 2 2
left_child=-1 3 -3 -2 5 -4 8 -7 -6
right_child=1 2 4 -5 6 7 -8 -9 -10
leaf_value=0.036117717030105995 -0.012538081230930229 0.017521875248235529 0.0083959672921792104 0.045528550651014119 -0.035510934558899712 -0.024467772826395912 -0.018703598318034392 -0.047221914553535686 -0.062637222742107868
leaf_count=350 213 162 263 106 231 397 149 326 203
internal_value=0 -0.158404 -0.254946 0.180533 -0.339338 -0.227365 -0.551169 -0.360648 -0.693775
internal_count=2400 2050 1731 319 1569 986 583 723 434
cat_boundaries=0 5 6 7 13
cat_threshold=8704 8192 134742048 16777984 1091567620 8246 570952257 1605646 4194440 268435456 131072 0 2
shrinkage=0.0750598


Tree=51
num_leaves=10
num_cat=4
split_feature=1 4 24 1 49 25 35 21 29
split_gain=9.02235 5.84404 5.24062 3.99506 4.15582 3.43803 2.42403 1.01735 0.607588
threshold=0 1 30745.750000000004 2 1223.5000000000002 2322.2500000000005 25.750000000000004 2231.5000000000005 3
decision_type=5 5 2 5 2 2 2 2 1
left_child=7 -2 3 -3 6 -4 -5 8 -1
right_child=1 2 5 4 -6 -7 -8 -9 -10
leaf_value=-0.011453156892738309 -0.021918606828693475 -0.016469622815588059 0.081487964603845595 0.051066435396950438 -0.013571455213818929 0.017245151188695712 0.0050893673397444444 -0.056088733874043881 -0.036740062477593746
leaf_count=227 305 375 119 401 289 83 161 165 275
internal_value=0 0.127745 0.242836 0.115935 0.252324 0.698149 0.497097 -0.393516 -0.3429
internal_count=2400 1733 1428 1226 851 202 562 667 502
cat_boundaries=0 6 8 14 15
cat_threshold=2290647338 94963842 263170 2148007945 12288 8388736 604718604 16785408 8324 34759176 256 0 33554448 2 2
shrinkage=0.0750598


Tree=52
num_leaves=10
num_cat=5
split_feature=1 20 7 4 6 29 1 24 44
split_gain=8.44314 5.60841 4.15888 4.11672 2.72556 2.50912 2.18559 0.699057 0.186472
threshold=0 4.7500000000000009 1 2 34.840150000000001 3 4 30745.750000000004 4.7500000000000009
decision_type=5 2 5 5 2 1 5 2 2
left_child=1 -1 4 -4 6 7 -2 -5 -8
right_child=2 -3 3 5 -6 -7 8 -9 -10
leaf_value=0.082199257342682616 0.011486192025548526 0.0041448771870009121 -0.022988531825773362 0.017538141189388397 -0.047247860993398165 -0.0028398752663704452 -0.01781266589688716 0.048772384197369636 -0.033047435192043451
leaf_count=204 144 163 216 146 336 209 464 109 409
internal_value=0 0.429469 -0.151309 0.0774605 -0.296639 0.230216 -0.191359 0.489342 -0.269733
internal_count=2400 367 2033 680 1353 464 1017 255 873
cat_boundaries=0 5 10 12 13 17
cat_threshold=8704 8192 134742048 17040128 1091567620 2167603457 3236 2147491840 16 4 737364 16785408 2 1048587 4194304 268435456 131072
shrinkage=0.0750598


Tree=53
num_leaves=8
num_cat=3
split_feature=2 33 4 6 32 10 0
split_gain=6.82096 7.32083 4.15539 2.9903 4.565 3.66488 0.503418
threshold=0 1 2 35.802900000000008 33.969400000000007 30.250000000000004 1.7500000000000002
decision_type=5 5 5 2 2 2 2
left_child=-1 -2 -3 4 6 -5 -4
right_child=1 2 3 5 -6 -7 -8
leaf_value=-0.03513342214465686 -0.027882790664655051 -0.019219036981435837 -9.0928061776403824e-05 0.059044928216848383 0.039938138212106178 0.011477404430524935 -0.019191259503062635
leaf_count=432 357 214 379 268 295 230 225
internal_value=0 0.0687602 0.186977 0.265815 0.122537 0.502321 -0.0984421
internal_count=2400 1968 1611 1397 899 498 604
cat_boundaries=0 14 17 19
cat_threshold=75497729 4227208 2424307712 268505216 0 262160 262144 0 16384 2304 0 10240 1048576 8 480477236 2105376 4194432 67846148 8396832
shrinkage=0.0750598


Tree=54
num_leaves=8
num_cat=4
split_feature=1 4 19 1 39 30 25
split_gain=7.06923 4.96211 4.56222 3.38061 3.4011 1.74751 1.38906
threshold=0 1 63.250000000000007 2 3.2500000000000004 3 531.25000000000011
decision_type=5 5 2 5 2 5 2
left_child=6 -2 3 -3 -5 -6 -1
right_child=1 2 -4 4 5 -7 -8
leaf_value=-0.020628203510261494 -0.021247444520432653 -0.017094426733073674 0.049109201693343818 0.037791397064832692 0.014324864810809178 -0.014345985904432625 -0.054141663791791111
leaf_count=458 319 309 168 445 259 260 182
internal_value=0 0.101932 0.205676 0.0979621 0.208015 -0.0137907 -0.36743
internal_count=2400 1760 1441 1273 964 519 640
cat_boundaries=0 6 9 15 16
cat_threshold=2290614570 128518274 1026 2148007961 4096 8388736 604718596 16785408 512 49284 155648 262400 0 50339856 2 328013
shrinkage=0.0750598


Tree=55
num_leaves=11
num_cat=4
split_feature=1 4 6 27 37 43 21 31 29 1
split_gain=6.92505 4.55175 4.20587 2.4454 3.00598 2.40991 1.06631 0.795962 0.198703 0.120258
threshold=0 1 39.423750000000005 65.500000000000014 3.2500000000000004 607.75000000000011 2231.5000000000005 2.7648050000000004 2 3
decision_type=5 5 2 2 2 2 2 2 1 5
left_child=6 -2 5 4 -4 7 8 9 -1 -3
right_child=1 2 3 -5 -6 -7 -8 -9 -10 -11
leaf_value=-0.013601077740072378 -0.020515067533827088 0.0036382261853032307 0.044290755914657393 0.063337840046028993 -0.0097388906697733861 0.025629829741546119 -0.056113308892244744 -0.024727491242075256 -0.031354534811327897 -0.0038559771704443362
leaf_count=246 309 207 134 105 187 292 165 195 273 287
internal_value=0 0.0983665 0.196219 0.494836 0.252984 0.0371152 -0.368854 -0.108628 -0.317604 -0.00921177
internal_count=2400 1716 1407 426 321 981 684 689 519 494
cat_boundaries=0 6 9 10 16
cat_threshold=2290647338 128534674 1026 2148007961 12288 128 604718596 16785408 512 2 516 4333568 0 512 0 2
shrinkage=0.0750598


Tree=56
num_leaves=10
num_cat=4
split_feature=1 4 1 25 40 6 1 5 37
split_gain=6.74787 3.71391 2.89238 2.5836 3.07777 3.74705 1.76005 0.799495 0.678965
threshold=0 1 2 221.50000000000003 172.75000000000003 48.601400000000005 3 155.07100000000003 52.000000000000007
decision_type=5 5 5 2 2 2 5 2 2
left_child=-1 -2 7 6 5 -5 -4 -3 -8
right_child=1 2 3 4 -6 -7 8 -9 -10
leaf_value=-0.034119294920174494 -0.024247802514449406 0.046653735936531493 0.011432836785859461 -0.031135536340653917 0.046302918637429157 0.025423711630808046 -0.010695121752828505 0.017950379892101197 -0.034535719075688434
leaf_count=550 205 266 196 100 155 146 309 144 329
internal_value=0 0.0689018 0.135713 0.0113948 0.210863 -0.00107623 -0.156212 0.356899 -0.23323
internal_count=2400 1850 1645 1235 401 246 834 410 638
cat_boundaries=0 6 8 13 17
cat_threshold=2290647328 128534658 1026 524313 4096 130 604651524 16785408 8708 8192 134742048 16909056 1074790404 1048713 4325888 268435456 262144
shrinkage=0.0750598


Tree=57
num_leaves=9
num_cat=2
split_feature=2 1 13 6 20 23 23 39
split_gain=6.67424 5.55638 3.91518 2.83207 1.99594 1.60547 3.64824 0.312082
threshold=0 1 256.75000000000006 55.300300000000007 1.7500000000000002 34718.500000000007 783.25000000000011 121.75000000000001
decision_type=5 5 2 2 2 2 2 2
left_child=-1 4 3 5 -2 6 7 -3
right_child=1 2 -4 -5 -6 -7 -8 -9
leaf_value=0.031933163617461693 0.041125462079261689 -0.028818726267376693 0.015922764889088385 0.0050339193518018303 -0 -0.060033472818561626 0.012572530802356275 -0.049605334934434003
leaf_count=268 232 746 148 227 166 140 188 285
internal_value=0 -0.129338 -0.24111 -0.351173 0.224644 -0.433673 -0.348627 -0.466467
internal_count=2400 2132 1734 1586 398 1359 1219 1031
cat_boundaries=0 15 20
cat_threshold=2098176 1050624 16384 0 67108896 8388608 8192 4 553648128 4194304 0 0 0 0 4 1057281 1048588 288 16908544 1091567620
shrinkage=0.0750598


Tree=58
num_leaves=10
num_cat=3
split_feature=1 4 19 12 1 35 6 38 32
split_gain=6.61401 3.20521 2.52874 3.36431 3.20419 1.56571 2.57268 0.435248 0.243583
threshold=0 1 63.250000000000007 29.500000000000004 2 30.250000000000004 47.271700000000003 57.250000000000007 30.087050000000001
decision_type=5 5 2 2 5 2 2 2 2
left_child=7 -2 4 -4 -3 6 8 -1 -6
right_child=1 2 3 -5 5 -7 -8 -9 -10
leaf_value=-0.055596886474896287 -0.021504443686922052 0.023055275972707085 0.056224174939272349 0.0029780180696094252 -0.015519932934871453 -0.028409880443315511 0.029794997560251058 -0.02519298742078065 -0.00094953968922062849
leaf_count=465 207 268 104 129 446 292 161 148 180
internal_value=0 0.077762 0.141427 0.415134 0.0568139 -0.0838155 0.00211676 -0.42379 -0.146985
internal_count=2400 1787 1580 233 1347 1079 787 613 626
cat_boundaries=0 6 8 13
cat_threshold=2290647336 128534674 1026 524313 12288 8388738 604651524 16785472 515 268435456 268959744 17040128 1074790404
shrinkage=0.0750598


Tree=59
num_leaves=10
num_cat=2
split_feature=2 1 14 19 22 14 40 25 37
split_gain=6.03807 4.93013 3.18758 2.93771 2.66215 1.71716 0.99806 0.510638 0.0400838
threshold=0 1 177.25000000000003 72.250000000000014 1.7500000000000002 9.2500000000000018 172.75000000000003 517.00000000000011 65.500000000000014
decision_type=5 5 2 2 2 2 2 2 2
left_child=-1 3 5 4 8 6 -3 -7 -2
right_child=1 2 -4 -5 -6 7 -8 -9 -10
leaf_value=0.030406424749940229 0.01670540379733659 -0.026543991991709759 0.0090264031307185962 0.040626127494617005 -0.030281099004108428 -0.025231267295324444 0.00033893176749856459 -0.056299244053185565 0.0073810389891356297
leaf_count=268 201 567 182 107 162 220 281 249 163
internal_value=0 -0.120444 -0.270014 0.125322 -0.0099397 -0.406241 -0.244231 -0.611752 0.178866
internal_count=2400 2132 1499 633 526 1317 848 469 364
cat_boundaries=0 15 21
cat_threshold=2098176 1050624 16384 0 67108896 8388608 8192 4 553648128 4194304 0 0 0 0 4 1057285 269488652 33056 16908546 1091571732 8388608
shrinkage=0.0750598


Tree=60
num_leaves=11
num_cat=3
split_feature=1 1 20 25 52 14 14 14 1 47
split_gain=5.3562 2.82791 3.03345 2.5896 3.66129 3.97011 2.7816 1.63563 0.743987 0.679133
threshold=0 1 1.7500000000000002 439.75000000000006 105.25000000000001 45.250000000000007 4.7500000000000009 3.2500000000000004 2 19.000000000000004
decision_type=5 5 2 2 2 2 2 2 5 2
left_child=7 2 -2 6 5 -5 8 -1 -3 -10
right_child=1 3 -4 4 -6 -7 -8 -9 9 -11
leaf_value=-0.015187655475111955 0.059075283161752069 0.010438524367370217 0.0029524221636614604 0.031860455610953131 0.049069530340690115 -0.02435702698952651 -0.038373626931576955 -0.056834131357431289 -0.020374897761858312 0.0034043134647928994
leaf_count=334 213 183 164 99 145 139 274 287 294 268
internal_value=0 0.075726 0.328284 -0.0184967 0.179191 -0.024264 -0.166746 -0.36889 -0.00784734 -0.0935964
internal_count=2400 1779 377 1402 383 238 1019 621 745 562
cat_boundaries=0 6 11 15
cat_threshold=2290647337 128534674 1026 524313 4096 8388736 8704 8192 134742304 16777984 1091567620 1048578 4325888 268435456 131072
shrinkage=0.0750598


Tree=61
num_leaves=10
num_cat=3
split_feature=2 1 14 9 13 14 40 39 20
split_gain=5.55996 4.14976 3.39679 2.14786 2.45231 1.91127 0.877351 0.576573 0.309019
threshold=0 1 177.25000000000003 2 10.750000000000002 9.2500000000000018 172.75000000000003 20.500000000000004 13413.250000000002
decision_type=5 5 2 5 2 2 2 2 2
left_child=-1 3 5 -2 7 6 -3 -5 -7
right_child=1 2 -4 4 -6 8 -8 -9 -10
leaf_value=0.029319378618336885 0.024771735168497407 -0.024880079985189034 0.011606818478314372 -0.0026341201985165381 -0.033591252216535361 -0.056155634108953995 0.00042578988077021564 0.020509616793635086 -0.027180227523102472
leaf_count=268 175 560 178 201 104 294 281 169 170
internal_value=0 -0.112008 -0.253953 0.10873 -0.0541812 -0.394912 -0.226407 0.118241 -0.618322
internal_count=2400 2132 1483 649 474 1305 841 370 464
cat_boundaries=0 15 21 22
cat_threshold=2098176 1050624 16384 0 67108896 8388608 8192 4 553648128 4194304 0 0 0 0 4 1057285 269488652 295200 16908546 1091571732 8388608 8362
shrinkage=0.0750598


Tree=62
num_leaves=9
num_cat=2
split_feature=1 4 6 31 6 32 51 0
split_gain=5.31621 3.05223 1.80761 2.97658 4.99997 0.994342 1.56097 0.371208
threshold=0 1 35.802900000000008 132.33200000000002 50.937650000000005 33.969400000000007 986.50000000000011 1.7500000000000002
decision_type=5 5 2 2 2 2 2 2
left_child=-1 -2 5 4 -4 7 -7 -3
right_child=1 2 3 -5 -6 6 -8 -9
leaf_value=-0.031206479892771619 -0.017512684247100233 -0 0.072286396069429867 -4.6726389312574385e-05 0.0045044452222614759 0.031182154833185996 -0.0054941566567388014 -0.016609116407935547
leaf_count=537 338 388 135 221 146 190 228 217
internal_value=0 0.068329 0.140705 0.308183 0.53026 0.0327812 0.18175 -0.0822968
internal_count=2400 1863 1525 502 281 1023 418 605
cat_boundaries=0 6 8
cat_threshold=2290139424 128518290 1026 524313 12288 8388736 604717132 16785474
shrinkage=0.0750598


Tree=63
num_leaves=9
num_cat=3
split_feature=2 9 1 19 14 35 31 6
split_gain=4.99138 3.75493 7.18712 6.22485 2.33237 1.20221 1.69522 0.31137
threshold=0 1 2 63.250000000000007 4.7500000000000009 1.7500000000000002 172.19300000000004 3.1180950000000003
decision_type=5 5 5 2 2 2 2 2
left_child=-1 3 4 -2 -3 7 -7 -4
right_child=1 2 5 -5 -6 6 -8 -9
leaf_value=0.027664268702954197 -0.01536284646001145 0.033308540707988422 -0.03193118388406091 0.048372080734524515 -0.010230959447237908 -0.037657381598385033 0.0035984374117848899 -0.055008300972818183
leaf_count=268 299 270 520 139 137 291 176 300
internal_value=0 -0.105536 -0.212707 0.15422 0.175265 -0.401462 -0.2453 -0.58605
internal_count=2400 2132 1694 438 407 1287 467 820
cat_boundaries=0 15 16 21
cat_threshold=2098176 1050624 16384 0 67108896 8388608 8192 4 553648128 4194304 0 0 0 0 4 4726966 1056771 270663820 268435456 2147483904 1091588096
shrinkage=0.0750598


Tree=64
num_leaves=10
num_cat=3
split_feature=1 9 19 1 0 35 12 5 25
split_gain=4.87834 2.79759 3.75908 3.87639 3.00126 2.24993 1.44386 0.736146 0.255558
threshold=0 1 63.250000000000007 2 1.7500000000000002 28.750000000000004 15.250000000000002 151.51550000000003 36.250000000000007
decision_type=5 5 2 5 2 2 2 2 2
left_child=7 -2 3 -3 5 8 -4 -1 -5
right_child=1 2 6 4 -6 -7 -8 -9 -10
leaf_value=-0.020133643475068908 -0.015410230435464148 -0.020327084674615532 0.056456204035554541 0.026205326707191511 -0.014720891327433207 -0.0046835695035464297 0.01431509076798298 -0.052548003772252688 0.048317490538344214
leaf_count=346 315 305 90 355 282 211 83 271 142
internal_value=0 0.0762779 0.151185 0.0491091 0.176656 0.344104 0.523215 -0.356924 0.477155
internal_count=2400 1783 1468 1295 990 708 173 617 497
cat_boundaries=0 6 7 12
cat_threshold=2290139425 128532626 1026 2148007961 28672 8388736 16914696 8196 139276 256 0 1048592
shrinkage=0.0750598


Tree=65
num_leaves=10
num_cat=3
split_feature=2 33 52 13 4 35 5 5 0
split_gain=4.67011 4.81118 2.8149 4.16658 2.88211 2.41329 2.399 1.82061 0.116344
threshold=0 1 27.250000000000004 12.250000000000002 2 28.750000000000004 173.32000000000002 157.01750000000001 1.7500000000000002
decision_type=5 5 2 2 5 2 2 2 2
left_child=-1 -2 4 -4 -3 6 7 8 -6
right_child=1 2 3 -5 5 -7 -8 -9 -10
leaf_value=-0.031434109987821597 -0.023680235537678663 -0.02051486344172641 0.0014952861808687481 0.067102734058825261 0.022233571740626113 -0.01970938310627127 0.046464460741045349 -0.01269854166250107 0.0098183192094895913
leaf_count=367 370 195 263 161 399 119 119 162 245
internal_value=0 0.0573732 0.148226 0.478343 0.0716593 0.14531 0.243122 0.130238 0.250784
internal_count=2400 2033 1663 424 1239 1044 925 806 644
cat_boundaries=0 14 16 18
cat_threshold=75497729 32904 2424307712 268439552 0 262160 262144 0 16384 2320 0 10240 1048576 8 1555267637 2105344 680644 8192
shrinkage=0.0750598


Tree=66
num_leaves=9
num_cat=3
split_feature=2 33 24 39 5 1 12 6
split_gain=4.5286 3.55179 4.5422 4.40614 3.27446 2.47295 1.85916 1.45243
threshold=0 1 30745.750000000004 67.750000000000014 179.90100000000004 2 1.7500000000000002 35.024400000000007
decision_type=5 5 2 2 2 5 2 2
left_child=-1 2 -2 4 5 -3 7 -7
right_child=1 3 -4 -5 -6 6 -8 -9
leaf_value=0.026000369691008843 -0.0077183078754752138 0.013193396145671362 0.05117153089271869 -0.052874662230063138 0.028491406686304645 -0.020651887735388966 -0.0017183642408453148 -0.055557542338604465
leaf_count=239 297 184 115 441 140 590 205 189
internal_value=0 -0.104018 0.165139 -0.201694 -0.115364 -0.20289 -0.264325 -0.436874
internal_count=2400 2161 412 1749 1308 1168 984 779
cat_boundaries=0 15 18 23
cat_threshold=2098176 1048576 16384 0 67108896 8388608 8192 4 562036736 4194304 0 0 0 0 4 673729344 67108896 2176 513 131076 32 0 1074790400
shrinkage=0.0750598


Tree=67
num_leaves=9
num_cat=3
split_feature=2 1 9 5 43 5 18 6
split_gain=4.2743 3.7727 4.31296 1.55915 0.908208 1.00023 0.821482 0.812318
threshold=0 1 2 156.83150000000003 2107.0000000000005 172.40050000000005 9.2500000000000018 3.1180950000000003
decision_type=5 5 5 2 2 2 2 2
left_child=-1 3 6 -2 5 7 -3 -4
right_child=1 2 4 -5 -6 -7 -8 -9
leaf_value=0.025405348956500397 0.037299050492754178 0.0020940079618243946 -0.026065055827300669 0 -0.010087064083150335 -0.010554772035187282 0.03218121997050969 -0.052837876039402841
leaf_count=255 215 182 624 171 388 235 96 234
internal_value=0 -0.098592 -0.192514 0.196656 -0.306501 -0.417235 0.168762 -0.494988
internal_count=2400 2145 1759 386 1481 1093 278 858
cat_boundaries=0 15 21 22
cat_threshold=2097152 1050624 16448 32768 67108896 8388608 8192 4 562036736 4194304 0 0 0 0 4 8704 268566540 288 16777472 1091571716 8388608 4727318
shrinkage=0.0750598


Tree=68
num_leaves=9
num_cat=4
split_feature=1 4 9 22 22 1 42 48
split_gain=4.41763 2.79852 2.10492 2.8664 2.21488 1.52477 1.53127 0.557266
threshold=0 1 2 2158.7500000000005 27220.750000000004 3 1.7500000000000002 3.2500000000000004
decision_type=5 5 5 2 2 5 2 2
left_child=-1 -2 5 -4 -5 -3 7 -7
right_child=1 2 3 4 -6 6 -8 -9
leaf_value=-0.028836089966584971 -0.016026188748125596 -0.017480319581961456 0.049972628622089219 -0.014307673979407853 0.029616937387824446 0.007725836273543187 -0.016869442484529148 0.028629961150004435
leaf_count=572 368 146 198 142 88 486 260 140
internal_value=0 0.0631045 0.13617 0.290572 0.116605 -0.00455945 0.0811639 0.194811
internal_count=2400 1828 1460 428 230 1032 886 626
cat_boundaries=0 6 8 9 13
cat_threshold=2290139425 111757458 1026 524313 12288 130 604718148 16785474 16783745 4 4100 262400 131072
shrinkage=0.0750598


Tree=69
num_leaves=9
num_cat=3
split_feature=2 1 20 27 10 1 31 6
split_gain=4.38378 5.47864 2.87354 3.73942 2.91451 2.21013 1.47293 0.486703
threshold=0 1 67829.500000000015 187.75000000000003 31.750000000000004 2 164.27900000000002 32.045700000000004
decision_type=5 5 2 2 2 5 2 2
left_child=-1 -2 3 4 5 -3 7 -7
right_child=1 2 -4 -5 -6 6 -8 -9
leaf_value=-0.03130756303971062 -0.025935338291036121 -0.0082000191587586931 -0.023850982926806642 0.052873951476490509 -0.018498929550363086 0.025768324894988464 0.0079762779765368587 0.051375735637635735
leaf_count=390 447 266 93 95 284 412 269 144
internal_value=0 0.0536695 0.150169 0.221737 0.132814 0.226813 0.296343 0.484319
internal_count=2400 2010 1563 1470 1375 1091 825 556
cat_boundaries=0 14 19 25
cat_threshold=75497729 32904 2424307712 268505216 0 262160 262144 0 16384 2320 0 8192 1048576 8 2290139168 121192474 263170 2148007945 20480 8324 139264 33024 0 0 8388608
shrinkage=0.0750598


Tree=70
num_leaves=10
num_cat=4
split_feature=2 1 4 47 52 23 25 1 5
split_gain=4.08175 4.64331 2.26959 1.49729 3.91097 3.09855 2.24413 1.72863 1.46575
threshold=0 1 2 41065.000000000007 27.250000000000004 42066.250000000007 309.25000000000006 3 132.36350000000002
decision_type=5 5 5 2 2 2 2 5 2
left_child=-1 8 -3 4 5 6 7 -4 -2
right_child=1 2 3 -5 -6 -7 -8 -9 -10
leaf_value=-0.029917421692725099 -0.0097380898938173328 -0.013341218491585953 -0.010600808318942147 -0.0050147245783582371 0.056446848281218175 -0.020124877705831861 0.049303038489030206 0.018032539629140209 -0.04974356246063559
leaf_count=403 307 207 166 262 189 87 109 455 215
internal_value=0 0.0497096 0.148701 0.20911 0.291357 0.165174 0.283216 0.143849 -0.283518
internal_count=2400 1997 1475 1268 1006 817 730 621 522
cat_boundaries=0 14 20 22 25
cat_threshold=75497729 32904 2424307712 268505216 0 262160 262144 0 16384 2320 0 536879104 1048576 8 2290139298 104415258 263170 9 33574912 8388610 67720204 8396800 8196 4100 268435456
shrinkage=0.0750598


Tree=71
num_leaves=10
num_cat=4
split_feature=1 30 4 14 1 38 44 6 5
split_gain=3.4459 2.76001 2.8552 2.57275 2.18427 2.1985 1.61969 0.968787 0.636289
threshold=0 1 2 4.7500000000000009 3 81.250000000000014 28.750000000000004 46.647450000000006 114.95950000000001
decision_type=5 5 5 2 5 2 2 2 2
left_child=8 -2 -3 4 -4 -6 7 -5 -1
right_child=1 2 3 6 5 -7 -8 -9 -10
leaf_value=0.039388685818400868 0.016414927519734574 0.011798482864080567 0.012023866459163604 -0.034810418008012246 -0.037520410433404094 0.0054363366760623285 -0.055533736129009123 -0.0034500739073607305 0.011746969965192739
leaf_count=189 227 250 228 192 599 160 226 183 146
internal_value=0 -0.104707 -0.16928 -0.24888 -0.105269 -0.226354 -0.47462 -0.271328 0.258295
internal_count=2400 2065 1838 1588 987 759 601 375 335
cat_boundaries=0 5 7 10 14
cat_threshold=516 8192 134742048 16777728 1074790404 67908 2048 47680 268435460 512 1572867 6422528 268435456 131072
shrinkage=0.0750598


Tree=72
num_leaves=10
num_cat=2
split_feature=2 1 24 27 49 5 16 0 5
split_gain=3.86103 4.89234 1.90917 3.98374 3.36116 2.92147 1.8788 2.09728 1.99522
threshold=0 1 272606.00000000006 187.75000000000003 87.250000000000014 114.95950000000001 320.50000000000006 3.2500000000000004 121.02000000000001
decision_type=5 5 2 2 2 2 2 2 2
left_child=-1 -2 3 4 6 -6 7 8 -3
right_child=1 2 -4 -5 5 -7 -8 -9 -10
leaf_value=-0.029256354088730983 -0.02545365989688806 0.019632818833073724 -0.017933280791210718 0.054259388849000861 0.00784408710478747 -0.043101466578425653 -0.0051130405985238209 -0.0030606907784143434 0.060963187208247567
leaf_count=402 479 332 90 86 295 224 153 196 143
internal_value=0 0.049671 0.138404 0.198115 0.112243 -0.199616 0.242111 0.343981 0.465357
internal_count=2400 1998 1519 1429 1343 519 824 671 475
cat_boundaries=0 14 20
cat_threshold=75497729 32904 2424307712 268505216 0 262160 262144 0 16384 2320 0 10240 1048576 8 2290122920 104415898 263170 524297 33554432 8388610
shrinkage=0.0750598


Tree=73
num_leaves=10
num_cat=3
split_feature=2 1 20 19 23 22 1 0 49
split_gain=3.69064 3.9583 1.59699 2.58808 4.42977 2.40917 2.14029 3.25483 1.80558
threshold=0 1 69160.000000000015 63.250000000000007 46666.000000000007 359.50000000000006 2 1.7500000000000002 6.2500000000000009
decision_type=5 5 2 2 2 2 5 2 2
left_child=-1 -2 3 5 -5 6 -3 8 -8
right_child=1 2 -4 4 -6 -7 7 -9 -10
leaf_value=-0.028825182690256961 -0.02076586145905495 -0.0097147491887697758 -0.01602791983143393 0.069244752190919051 5.0975811497309331e-05 -0.023792242492152133 0.046618606780816363 -0.012463420351914849 0.0075762942415827659
leaf_count=410 509 276 96 101 79 208 299 211 211
internal_value=0 0.0458858 0.132789 0.189787 0.496504 0.0908792 0.173533 0.254065 0.462279
internal_count=2400 1990 1481 1385 180 1205 997 721 510
cat_boundaries=0 14 20 23
cat_threshold=75497729 32904 2424307712 268505216 128 262160 262144 0 0 2320 0 536881152 1048576 8 2290139298 372850834 263170 9 33558528 130 8196 16916996 33024
shrinkage=0.0750598


Tree=74
num_leaves=10
num_cat=4
split_feature=2 7 1 9 19 18 5 0 32
split_gain=3.54292 3.52797 3.27655 2.97044 2.067 2.05205 2.00851 1.73328 0.813226
threshold=0 1 2 3 92.500000000000014 6.2500000000000009 177.89000000000001 7.7500000000000009 48.433550000000004
decision_type=5 5 5 5 2 2 2 2 2
left_child=-1 2 -2 5 6 -3 -5 8 -4
right_child=1 3 7 4 -6 -7 -8 -9 -10
leaf_value=0.025575251466943651 0.014097995831724866 0.0072812002509650212 -0.045454100778514459 -0.016578660426317379 0.042925994768849632 -0.035020158412027769 0.026859018963122198 -0.0037760617407711591 -0.015824090720917994
leaf_count=150 162 196 698 190 118 228 166 245 247
internal_value=0 -0.0890286 -0.245437 0.0797454 0.237193 -0.156038 0.0843319 -0.351992 -0.519231
internal_count=2400 2250 1352 898 474 424 356 1190 945
cat_boundaries=0 15 20 25 26
cat_threshold=2097152 1048576 16384 0 67108896 8388608 0 4 553648128 4194304 0 0 0 0 4 2217361409 134220932 2147483686 48 4 1048577 2105356 0 131328 1073741824 1090657160
shrinkage=0.0750598


Tree=75
num_leaves=9
num_cat=3
split_feature=2 33 9 19 24 19 31 0
split_gain=3.23771 3.06729 3.6864 3.15025 2.91646 2.64761 1.64468 0.0994068
threshold=0 1 2 63.250000000000007 16272.250000000002 9.2500000000000018 165.17300000000003 1.7500000000000002
decision_type=5 5 5 2 2 2 2 2
left_child=-1 4 3 -3 -2 6 7 -4
right_child=1 2 5 -5 -6 -7 -8 -9
leaf_value=0.02433034970912647 -0.0025788173797416103 -0.011046394920192113 -0.0030169567234305241 0.037309543644687262 0.047331927857630025 -0.050043734969768459 -0.037680408592290354 -0.011916898577286566
leaf_count=144 276 294 551 110 123 269 332 301
internal_value=0 -0.0832161 -0.167715 0.116816 0.177668 -0.291799 -0.200684 -0.0810198
internal_count=2400 2256 1857 404 399 1453 1184 852
cat_boundaries=0 15 18 19
cat_threshold=0 1048576 16384 0 67108896 8388608 8192 4 553648128 4194304 0 0 0 0 4 673721152 32 2176 4726966
shrinkage=0.0750598


Tree=76
num_leaves=9
num_cat=4
split_feature=2 1 4 24 27 30 0 43
split_gain=3.26344 4.03846 2.25495 1.96246 2.27825 1.17176 1.48057 0.766697
threshold=0 1 2 269603.50000000006 89.500000000000014 3 3.2500000000000004 607.75000000000011
decision_type=5 5 5 2 2 5 2 2
left_child=-1 -2 -3 4 5 -4 7 -7
right_child=1 2 3 -5 -6 6 -8 -9
leaf_value=-0.027289613708362397 -0.023469920687464021 -0.014854866851257009 -0.0078847438163474996 -0.014567542597010177 0.048124366892927734 0.017698860846295992 -0.0014412339950143941 0.042110928043166018
leaf_count=399 504 232 169 88 92 465 278 173
internal_value=0 0.0456376 0.125373 0.181038 0.252864 0.1744 0.209661 0.337568
internal_count=2400 2001 1497 1265 1177 1085 916 638
cat_boundaries=0 14 20 22 24
cat_threshold=75497729 32904 2424307712 268505216 0 262160 262144 0 0 2320 0 536881152 1048576 8 2290139296 104415890 263170 9 33574928 8388738 67846212 8396800 1090519840 33
shrinkage=0.0750598


Tree=77
num_leaves=10
num_cat=3
split_feature=1 33 34 21 25 0 22 24 39
split_gain=2.7614 2.64652 1.5423 2.31584 3.15369 1.3594 0.985917 0.800517 0.390661
threshold=0 1 2 1283.5000000000002 274.00000000000006 1.7500000000000002 1.7500000000000002 154410.00000000003 3.2500000000000004
decision_type=5 5 5 2 2 2 2 2 2
left_child=6 -2 -3 4 5 8 -1 -5 -4
right_child=1 2 3 7 -6 -7 -8 -9 -10
leaf_value=0.029993027790220977 0.013968363850100996 0.0095530698266886715 -0.0031293350356671394 -0.052793897354209043 0.021936583035835847 -0.042467444074295216 0.0025366573856885916 -0.018938079880153013 -0.021652293799733675
leaf_count=283 263 103 382 257 140 362 170 131 309
internal_value=0 -0.10636 -0.181937 -0.237099 -0.138913 -0.278833 0.196329 -0.531122 -0.142553
internal_count=2400 1947 1684 1581 1193 1053 453 388 691
cat_boundaries=0 5 7 9
cat_threshold=516 5251072 135004448 17039872 1091567620 570952512 8388608 33555202 40
shrinkage=0.0750598


Tree=78
num_leaves=10
num_cat=4
split_feature=2 7 1 9 25 25 0 23 25
split_gain=2.97551 3.06535 4.8326 2.97553 2.7273 2.58563 1.38875 1.11479 0.0883585
threshold=0 1 2 3 985.00000000000011 323.50000000000006 4.7500000000000009 77133.250000000015 1.7500000000000002
decision_type=5 5 5 5 2 2 2 2 2
left_child=-1 2 -2 -3 5 -5 8 -6 -4
right_child=1 3 6 4 7 -7 -8 -9 -10
leaf_value=0.023458780501095868 0.013788065181496322 -0.018199443257875824 -0.033158863015355915 0.0076060560060737178 -0.013356343806028421 0.061865793961487829 -0.0081666195482141997 0.017418090130802904 -0.05382311691493271
leaf_count=191 225 172 651 205 201 122 303 112 218
internal_value=0 -0.0792937 -0.217026 0.0879124 0.20355 0.507276 -0.374023 0.0108929 -0.549427
internal_count=2400 2209 1397 812 640 327 1172 313 869
cat_boundaries=0 15 20 25 26
cat_threshold=1024 1048576 16384 0 32 8388608 0 4 562036736 4194304 0 0 0 0 4 2217361409 134220932 2147484198 134217776 4 1572867 12 268468224 131328 1073758208 1090654592
shrinkage=0.0750598


Tree=79
num_leaves=8
num_cat=3
split_feature=2 33 4 52 15 25 32
split_gain=2.85477 2.82339 2.04678 2.06838 2.18164 1.22231 0.594936
threshold=0 1 2 61.750000000000007 24.250000000000004 101.50000000000001 46.69100000000001
decision_type=5 5 5 2 2 2 2
left_child=-1 -2 -3 4 5 6 -4
right_child=1 2 3 -5 -6 -7 -8
leaf_value=-0.02463934111958779 -0.021730793247198607 -0.013835232807470649 0.00023931782439846631 0.035045171022388778 -0.015086398613142784 0.029940926064071643 0.020792661845333623
leaf_count=420 320 269 552 349 155 204 131
internal_value=0 0.0450884 0.105168 0.160496 0.0966722 0.192944 0.082571
internal_count=2400 1980 1660 1391 1042 887 683
cat_boundaries=0 14 17 19
cat_threshold=75497729 32904 2424307712 268505216 128 262160 262146 0 0 2320 0 536879104 1048576 8 1288929332 2105344 4194304 67846212 8396864
shrinkage=0.0750598


Tree=80
num_leaves=10
num_cat=4
split_feature=2 34 1 37 9 5 5 25 32
split_gain=2.8401 2.47082 2.86801 2.0997 1.93671 1.87791 1.34352 0.913657 0.767941
threshold=0 1 2 18.250000000000004 3 175.35600000000002 163.47100000000003 1.7500000000000002 47.490000000000009
decision_type=5 5 5 2 5 2 2 2 2
left_child=-1 -2 4 5 7 6 -4 -3 -5
right_child=1 2 3 8 -6 -7 -8 -9 -10
leaf_value=0.023343270055904534 0.018419029157630114 0.0088799548299989157 -0.0083704096541080859 -0.051679966678039785 -0.011260527136442201 0.014506657893572125 -0.040868288729546128 0.03866585699294852 -0.018463413431294599
leaf_count=152 210 276 481 356 168 145 151 153 308
internal_value=0 -0.0772883 -0.130233 -0.248025 0.0757829 -0.146542 -0.263724 0.216391 -0.527085
internal_count=2400 2248 2038 1441 597 777 632 429 664
cat_boundaries=0 15 17 23 24
cat_threshold=2097152 1048576 16384 0 32 8388608 0 4 562036736 4194304 0 0 0 0 4 1124074402 8 1057281 17969164 32 2164392192 1091567632 8388608 526505
shrinkage=0.0750598


Tree=81
num_leaves=10
num_cat=5
split_feature=1 34 7 5 1 47 9 43 27
split_gain=2.70679 2.02535 1.94941 1.71494 2.43713 1.98218 2.35211 0.980366 0.343574
threshold=0 1 2 156.83150000000003 3 129.25000000000003 4 1423.7500000000002 1.7500000000000002
decision_type=5 5 5 2 5 2 5 2 2
left_child=-1 -2 -3 4 -4 6 -5 -6 -8
right_child=1 2 3 5 7 -7 8 -9 -10
leaf_value=0.022949495388841716 0.016306647353712775 0.013953360205243546 0.012138277849024654 0.012233799421163673 -0.029766801778596232 -0.047280347140085888 -0.017401761855733024 -0.00049194313103378766 -0.042548264511048088
leaf_count=160 192 139 384 140 556 300 207 201 121
internal_value=0 -0.0731208 -0.121568 -0.170465 -0.058156 -0.328751 -0.170359 -0.207492 -0.292528
internal_count=2400 2240 2048 1909 1141 768 468 757 328
cat_boundaries=0 5 7 10 16 17
cat_threshold=512 0 134742016 16777728 1074790404 1124073890 131144 42991620 4096 2625536 1581063 6430724 32 0 0 128 8226
shrinkage=0.0750598


Tree=82
num_leaves=10
num_cat=4
split_feature=7 1 9 5 31 5 1 37 25
split_gain=2.63586 2.98421 1.77085 3.38926 2.35455 1.63624 1.52729 1.32148 0.571748
threshold=0 1 2 132.33000000000001 138.75150000000002 171.20700000000002 3 21.250000000000004 274.00000000000006
decision_type=5 5 5 2 2 2 5 2 2
left_child=-1 8 5 6 -5 -3 -4 -8 -2
right_child=1 2 3 4 -6 -7 7 -9 -10
leaf_value=-0.02229854578622268 -0.027263843190718496 0.010243416323876955 -0.012911612823827563 0.060963519203676098 0.011166046210817585 -0.030557375576348918 0.029483197633027147 -0.00074466997147008601 -0.0041958053455124801
leaf_count=352 453 129 196 155 152 139 334 345 145
internal_value=0 0.051373 0.143658 0.220377 0.548806 -0.0973855 0.0737909 0.162126 -0.189163
internal_count=2400 2048 1450 1182 307 268 875 679 598
cat_boundaries=0 5 11 12 15
cat_threshold=2217623568 134220932 2147483686 134217776 4 2290139306 101270670 268469250 2147614729 33562640 2 16918808 8708 16781824 256
shrinkage=0.0750598


Tree=83
num_leaves=9
num_cat=4
split_feature=2 33 9 1 19 44 18 39
split_gain=2.64545 2.54216 3.04881 5.21162 2.65261 1.438 0.572378 0.603006
threshold=0 1 2 3 63.250000000000007 61.750000000000007 6.2500000000000009 1.7500000000000002
decision_type=5 5 5 5 2 2 2 2
left_child=-1 5 4 -4 -3 -2 7 -5
right_child=1 2 3 6 -6 -7 -8 -9
leaf_value=0.023380750778599017 0.035967677684271282 -0.0091801259646534569 0.010900580875464465 -0.021725325121431334 0.033479809874947905 -0.0013235175114622525 -0.057338316780044155 -0.046785752200770477
leaf_count=129 189 319 315 571 114 140 232 391
internal_value=0 -0.0677659 -0.139992 -0.255212 0.104077 0.183234 -0.429862 -0.419551
internal_count=2400 2271 1942 1509 433 329 1194 962
cat_boundaries=0 15 18 19 24
cat_threshold=0 1048576 16384 0 67108896 8388608 0 0 562036736 4194304 0 0 0 0 4 707267392 0 2176 4726966 1572867 270663684 268435456 2147483648 1074790400
shrinkage=0.0750598


Tree=84
num_leaves=9
num_cat=3
split_feature=2 1 14 4 6 31 25 31
split_gain=2.70664 2.83717 2.14866 2.00861 1.25897 2.21574 1.90852 1.74244
threshold=0 1 3.2500000000000004 2 53.232150000000011 164.27900000000002 1084.0000000000002 176.37850000000006
decision_type=5 5 2 5 2 2 2 2
left_child=-1 2 -2 -3 5 6 -5 -7
right_child=1 3 -4 4 -6 7 -8 -9
leaf_value=-0.025502401169791213 0.00058489624911500391 -0.013256100500058956 -0.044392589414923009 0.028319529019483008 0.032952604015138914 -0.029645767044128406 -0.0072618970687691126 0.0099829741304783403
leaf_count=398 283 218 252 607 220 147 100 175
internal_value=0 0.0456656 -0.212111 0.124164 0.181733 0.133616 0.262601 -0.117498
internal_count=2400 2002 535 1467 1249 1029 707 322
cat_boundaries=0 14 20 22
cat_threshold=75497729 32904 2424307712 268505216 128 262160 262144 0 0 2320 0 536879104 1048576 8 2290139179 102318098 263170 2147483657 33570816 130 67851268 8192
shrinkage=0.0750598


Tree=85
num_leaves=8
num_cat=2
split_feature=2 1 10 20 5 21 31
split_gain=2.59844 3.00593 2.51718 2.1332 1.75631 2.92463 0.749544
threshold=0 1 31.750000000000004 11408.500000000002 173.23550000000003 116.50000000000001 164.27900000000002
decision_type=5 5 2 2 2 2 2
left_child=-1 -2 4 -4 5 6 -3
right_child=1 2 3 -5 -6 -7 -8
leaf_value=-0.025254686196667483 -0.018953926812256359 0.02419328955682825 -0.032922163875962772 0.009097827381449524 0.038706662735697124 -0.02485661947910572 0.0046433349580147177
leaf_count=409 551 544 204 132 162 124 274
internal_value=0 0.0417276 0.114013 -0.145323 0.21664 0.132875 0.231513
internal_count=2400 1991 1440 336 1104 942 818
cat_boundaries=0 14 20
cat_threshold=75497729 32904 2424311808 268505216 128 262160 262144 0 0 2320 0 536879104 1048576 8 2290139296 104546962 263170 11 33570816 8388738
shrinkage=0.0750598


Tree=86
num_leaves=9
num_cat=3
split_feature=2 7 9 25 47 24 24 32
split_gain=2.43221 2.4278 2.52612 2.27159 2.25529 2.23714 1.62355 1.85105
threshold=0 1 2 985.00000000000011 26.500000000000004 20934.250000000004 6.2500000000000009 46.674900000000001
decision_type=5 5 5 2 2 2 2 2
left_child=-1 6 -3 5 -5 -4 7 -2
right_child=1 2 3 4 -6 -7 -8 -9
leaf_value=0.022042178336708563 -0.020730561099036544 -0.017434989068938887 0.007732093942302426 -0.016429179654178862 0.026396331045126821 0.056652350489783343 -0.040392653508205485 0.0098230918798942433
leaf_count=129 755 174 235 178 173 95 312 349
internal_value=0 -0.0684162 0.0733347 0.174479 0.00582259 0.442356 -0.19733 -0.134096
internal_count=2400 2271 855 681 351 330 1416 1104
cat_boundaries=0 15 20 21
cat_threshold=0 1048576 16384 0 67108896 8388608 0 0 562036736 4194304 0 0 0 0 4 2217345105 134220932 38 48 4 1090654592
shrinkage=0.0750598


Tree=87
num_leaves=10
num_cat=4
split_feature=1 14 1 4 17 9 14 40 32
split_gain=2.33166 1.56901 1.28107 1.98977 1.23685 1.57972 0.970511 0.480416 0.680296
threshold=0 6.2500000000000009 1 2 1.7500000000000002 3 64.750000000000014 1522.0000000000002 30.087050000000001
decision_type=5 2 5 5 2 5 2 2 2
left_child=1 -1 -2 -4 5 7 -7 8 -5
right_child=2 -3 3 4 -6 6 -8 -9 -10
leaf_value=-0.0052721204421494004 0.020837032689893811 -0.040940782463956354 0.01784929660437681 -0.014088448482275856 -0.028805677127503624 -0.00029392138628050893 0.031213112657218992 -0.024535419038045275 0.0085667942054905577
leaf_count=466 160 330 246 376 107 154 119 253 189
internal_value=0 -0.222543 0.0621142 0.00451996 -0.0737696 -0.0253287 0.156199 -0.127551 -0.0818823
internal_count=2400 796 1604 1444 1198 1091 273 818 565
cat_boundaries=0 6 11 12 13
cat_threshold=2291196201 111368210 268436482 524313 8192 130 512 0 134742016 16777728 1074790404 553688768 4489
shrinkage=0.0750598


Tree=88
num_leaves=8
num_cat=3
split_feature=1 7 20 19 33 6 37
split_gain=16.0231 5.19306 6.13344 4.94431 2.7151 2.61517 2.06989
threshold=0 1 1086.2500000000002 265.00000000000006 2 43.713950000000004 1.7500000000000002
decision_type=5 5 2 2 5 2 2
left_child=5 -2 4 -4 6 -1 -3
right_child=1 2 3 -5 -6 -7 -8
leaf_value=-0.06377935588786314 -0.016689537948063316 0.019528394854461312 0.085086594646569161 0.025486972480453972 -0.0077895401865975666 -0.015183206796442437 0.061356857560031286
leaf_count=363 224 474 301 150 442 224 222
internal_value=0 0.34651 0.434816 0.79928 0.247005 -0.418638 0.352386
internal_count=2400 1813 1589 451 1138 587 696
cat_boundaries=0 5 10 12
cat_threshold=1098536 67245063 1048616 2148278785 588268032 2149777472 1207959556 12832 134217760 4 411699715 2097184
shrinkage=0.0750598


Tree=89
num_leaves=9
num_cat=3
split_feature=2 33 53 4 15 48 19 24
split_gain=11.3632 3.92763 4.22208 4.26767 1.35425 2.37392 2.12858 0.154931
threshold=0 1 45.250000000000007 2 85.750000000000014 1.7500000000000002 43.750000000000007 39.250000000000007
decision_type=5 5 2 5 2 2 2 2
left_child=-1 -2 3 -3 5 6 7 -5
right_child=1 2 -4 4 -6 -7 -8 -9
leaf_value=-0.035459947919816541 -0.016290444621596775 -0.013395674745351768 0.061463679592478337 0.01549887684619705 0.0031491335121255648 0.058113983673794438 0.051291009295816731 0.0033000285300549934
leaf_count=390 313 276 374 461 101 238 96 151
internal_value=0 0.264705 0.331215 0.263134 0.341943 0.44921 0.303854 0.16282
internal_count=2400 2010 1697 1323 1047 946 708 612
cat_boundaries=0 14 17 20
cat_threshold=77594624 268437640 2147500032 69632 0 9175056 8194 0 25165824 0 0 10240 68190208 8 3251781684 8448 2048 195780 0 512
shrinkage=0.0750598


Tree=90
num_leaves=10
num_cat=3
split_feature=2 33 47 4 47 23 25 5 37
split_gain=10.2018 3.51752 4.39655 2.59504 2.31771 1.31052 1.86253 3.52833 0.208434
threshold=0 1 3608.5000000000005 2 83704.750000000015 42460.750000000007 13.750000000000002 172.14550000000006 3.2500000000000004
decision_type=5 5 2 5 2 2 2 2 2
left_child=-1 -2 3 -3 -4 6 8 -8 -5
right_child=1 2 4 5 -6 -7 7 -9 -10
leaf_value=-0.034496457221519297 -0.015909743461258376 -0.012735345717575917 0.072526301486787806 0.018146035829479511 0.019871443531650816 -0.00086630922235543073 0.065936523272251205 0.0071879407467850759 0.0041040131638765383
leaf_count=394 262 200 313 446 196 89 201 148 151
internal_value=0 0.240616 0.302183 0.210217 0.707488 0.263839 0.362739 0.570024 0.18959
internal_count=2400 2006 1744 1235 509 1035 946 349 597
cat_boundaries=0 14 17 20
cat_threshold=77594624 2184 2147504128 69632 0 9175056 8194 0 25165824 0 0 10240 68190208 8 3251651636 8448 2048 155268 0 512
shrinkage=0.0750598


Tree=91
num_leaves=9
num_cat=2
split_feature=1 4 25 25 6 40 35 31
split_gain=12.7509 5.18509 3.34364 6.21573 2.75927 2.02064 1.54584 0.844106
threshold=0 1 28.750000000000004 869.50000000000011 43.713950000000004 121.75000000000001 27.250000000000004 151.89600000000004
decision_type=5 5 2 2 2 2 2 2
left_child=4 -2 6 -4 -1 -5 7 -3
right_child=1 2 3 5 -6 -7 -8 -9
leaf_value=-0.06280249688762686 -0.014534362059326887 0.013685955291667738 0.081861825031295771 0.0016173988794827004 -0.0135884678495853 0.043053130899828061 -0.0063997888671728552 0.040854740892843834
leaf_count=352 299 437 238 183 219 135 318 219
internal_value=0 0.278024 0.376984 0.621922 -0.397076 0.283692 0.212774 0.324906
internal_count=2400 1829 1530 556 571 318 974 656
cat_boundaries=0 5 8
cat_threshold=1098536 67245061 1048616 2148278787 588268032 67179204 2432696322 512
shrinkage=0.0750598


Tree=92
num_leaves=10
num_cat=3
split_feature=1 4 1 25 14 32 6 6 39
split_gain=11.4788 4.32171 3.22623 4.63926 2.89351 2.83647 2.58499 2.44646 1.09152
threshold=0 1 2 6.2500000000000009 112.75000000000001 50.15420000000001 43.713950000000004 45.258900000000004 28.750000000000004
decision_type=5 5 5 2 2 2 2 2 2
left_child=6 -2 3 -3 5 7 -1 8 -4
right_child=1 2 4 -5 -6 -7 -8 -9 -10
leaf_value=-0.065248698058349361 -0.013653586134735798 0.026037535051202348 0.015687188486326067 0.092168843528507766 0.045235618655718221 0.036162771796973366 -0.015139140572939755 -0.033940661519666696 -0.012875485912681265
leaf_count=371 285 288 375 190 106 184 231 163 207
internal_value=0 0.252761 0.33955 0.617422 0.138763 0.05373 -0.400311 -0.0700645 0.0783005
internal_count=2400 1798 1513 478 1035 929 602 745 582
cat_boundaries=0 5 8 14
cat_threshold=1098528 235017223 1048584 2148278787 588268032 200900 2432696322 512 143130626 6818304 268961026 16777480 4100 128
shrinkage=0.0750598


Tree=93
num_leaves=10
num_cat=2
split_feature=1 4 25 15 38 13 40 47 5
split_gain=9.87184 4.36949 3.50016 3.59989 2.31244 1.56296 1.54115 0.454299 0.381544
threshold=0 1 79.750000000000014 81.250000000000014 18.250000000000004 67.750000000000014 1056.2500000000002 160.00000000000003 121.02000000000001
decision_type=5 5 2 2 2 2 2 2 2
left_child=5 -2 6 4 -4 8 7 -3 -1
right_child=1 2 3 -5 -6 -7 -8 -9 -10
leaf_value=-0.047818096967032535 -0.01366008673842423 0.013695906295511246 0.034890052365290726 0.0065769394560277351 0.085983705986235767 -0.0023674747593810624 -0.0086036623004484176 0.034497534670087981 -0.02218182673355585
leaf_count=378 319 411 207 84 162 122 279 232 206
internal_value=0 0.25884 0.353315 0.619634 0.80459 -0.301852 0.188759 0.300093 -0.511028
internal_count=2400 1694 1375 453 369 706 922 643 584
cat_boundaries=0 6 8
cat_threshold=1098532 201462791 1048616 2148278785 588268032 2 348868 2432704514
shrinkage=0.0750598


Tree=94
num_leaves=7
num_cat=3
split_feature=2 7 30 32 12 25
split_gain=8.46886 3.37102 2.82676 3.99233 2.77175 2.55987
threshold=0 1 2 50.15420000000001 3.2500000000000004 28.750000000000004
decision_type=5 5 5 2 2 2
left_child=-1 -2 -3 4 5 -4
right_child=1 2 3 -5 -6 -7
leaf_value=-0.033509351886862208 -0.012717394704041851 -0.0080302372962263412 0.013832844181105555 0.059829376602114355 -0.0060450974220306337 0.050682744855072327
leaf_count=401 337 265 655 290 225 227
internal_value=0 0.188457 0.260638 0.339124 0.253779 0.376852
internal_count=2400 1999 1662 1397 1107 882
cat_boundaries=0 14 18 20
cat_threshold=77594624 268437640 2147500032 69632 0 9175056 8194 0 25165824 256 0 10240 68190208 8 2217148736 1074790532 2148016256 134217744 27804432 32
shrinkage=0.0750598


Tree=95
num_leaves=10
num_cat=3
split_feature=1 7 31 20 25 20 1 5 40
split_gain=8.87904 3.74897 3.45188 3.34365 5.28019 1.90166 1.46599 1.43732 0.387809
threshold=0 1 176.84600000000003 1086.2500000000002 832.75000000000011 41129.500000000007 2 118.82450000000001 142.75000000000003
decision_type=5 5 2 2 2 2 5 2 2
left_child=7 -2 3 6 -5 -6 -3 -1 -8
right_child=1 2 -4 4 5 -7 8 -9 -10
leaf_value=-0.054920281449351627 -0.017695448564944653 -0.0088929108791187643 -0.0092689943080310443 0.083686160816340241 -0.0020254802762580556 0.040862233950097471 0.029158680034019464 -0.01709157590303256 0.0093578189563244714
leaf_count=332 225 200 276 128 119 124 486 267 243
internal_value=0 0.209343 0.277208 0.388817 0.623181 0.284184 0.19868 -0.35546 0.253442
internal_count=2400 1801 1576 1300 371 243 929 599 729
cat_boundaries=0 5 10 14
cat_threshold=1098536 67245071 1048584 2148278787 588268032 2149777472 1209008132 2147495968 32 4 8912900 73728 1024 131072
shrinkage=0.0750598


end of trees

feature importances:
c_02=127
c_01=55
n_table_1.n_20=49
c_table_1.c_2=39
n_1=34
n_table_1.n_2=34
n_table_1.n_1=32
n_table_1.n_7=28
c_table_1.c_5=26
n_table_2.n_2=24
n_table_1.n_16=22
n_table_1.n_15=21
n_table_1.n_17=19
n_table_1.n_6=18
n_table_1.n_12=18
n_table_1.n_19=18
n_table_2.n_1=18
c_table_2.c_3=17
c_table_1.c_3=16
n_table_2.n_8=15
n_table_3.n_1=14
n_table_3.n_6=14
n_table_1.n_18=12
n_table_1.n_26=12
n_table_2.n_6=12
n_table_2.n_7=12
n_table_1.n_8=11
n_table_2.n_3=11
n_table_2.n_5=10
n_table_3.n_5=10
n_table_1.n_9=9
c_table_2.c_2=9
n_table_1.n_11=8
n_table_3.n_3=8
n_table_3.n_4=8
n_table_1.n_5=7
n_table_2.n_11=7
c_table_2.c_1=5
n_table_2.n_12=5
n_table_1.n_3=4
c_table_2.c_4=3
n_table_3.n_2=3
n_table_2.n_10=2
c_table_1.c_6=1
n_table_1.n_10=1
n_table_1.n_27=1
n_table_3.n_7=1

parameters:
[boosting: gbdt]
[objective: binary]
[metric: auc]
[tree_learner: serial]
[device_type: cpu]
[data: ]
[valid: ]
[num_iterations: 100]
[learning_rate: 0.0750598]
[num_leaves: 77]
[num_threads: 4]
[max_depth: 8]
[min_data_in_leaf: 20]
[min_sum_hessian_in_leaf: 9.55014]
[bagging_fraction: 0.6]
[bagging_freq: 44]
[bagging_seed: 3]
[feature_fraction: 0.8]
[feature_fraction_seed: 2]
[early_stopping_round: 0]
[max_delta_step: 0]
[lambda_l1: 0.0268981]
[lambda_l2: 1.6608]
[min_gain_to_split: 0]
[drop_rate: 0.1]
[max_drop: 50]
[skip_drop: 0.5]
[xgboost_dart_mode: 0]
[uniform_drop: 0]
[drop_seed: 4]
[top_rate: 0.2]
[other_rate: 0.1]
[min_data_per_group: 100]
[max_cat_threshold: 32]
[cat_l2: 10]
[cat_smooth: 10]
[max_cat_to_onehot: 4]
[top_k: 20]
[monotone_constraints: ]
[feature_contri: ]
[forcedsplits_filename: ]
[refit_decay_rate: 0.9]
[verbosity: -1]
[max_bin: 255]
[min_data_in_bin: 3]
[bin_construct_sample_cnt: 200000]
[histogram_pool_size: -1]
[data_random_seed: 1]
[output_model: LightGBM_model.txt]
[snapshot_freq: -1]
[input_model: ]
[output_result: LightGBM_predict_result.txt]
[initscore_filename: ]
[valid_data_initscores: ]
[pre_partition: 0]
[enable_bundle: 1]
[max_conflict_rate: 0]
[is_enable_sparse: 1]
[sparse_threshold: 0.8]
[use_missing: 1]
